tree
version=v4
num_class=1
num_tree_per_iteration=1
label_index=0
max_feature_idx=79
objective=regression
feature_names=bin_fraction IRPleth_mean GSR_mean bin_index heartrate_mean trial_length EEG_F7_Gamma EEG_Fp1_Gamma EEG_C5_Gamma EEG_TP9_Gamma EEG_FT9_Gamma EEG_F6_Gamma EEG_AF7_Gamma EEG_FT10_Gamma EEG_T7_Gamma EEG_O2_Gamma EEG_FC6_Gamma EEG_Fp2_Gamma EEG_AF8_Gamma EEG_C6_Gamma EEG_TP7_Gamma EEG_FC3_Gamma EEG_AF4_Gamma EEG_TP10_Gamma EEG_FT9_Alpha EEG_F5_Gamma EEG_P7_Gamma loop_quartile EEG_FT9_Theta EEG_F8_Gamma EEG_T8_Gamma Respir_mean EEG_PO8_Gamma EEG_C5_Beta EEG_CP6_Gamma EEG_AFz_Gamma EEG_P8_Gamma EEG_F3_Gamma EEG_FT10_Beta EEG_CP5_Gamma EEG_FC5_Gamma EEG_F4_Gamma EEG_C6_Beta EEG_FT9_Beta EEG_TP8_Gamma EEG_F6_Beta EEG_CP2_Gamma EEG_Fp1_Beta EEG_FC3_Beta EEG_FT8_Gamma EEG_TP9_Beta EEG_P5_Gamma EEG_F5_Beta EEG_FT7_Gamma EEG_Cz_Gamma EEG_PO7_Gamma EEG_Oz_Gamma EEG_Fp2_Beta EEG_P6_Gamma EEG_PO3_Beta EEG_TP10_Beta EEG_TP9_Theta EEG_C1_Gamma EEG_PO4_Gamma EEG_AF3_Gamma EEG_FC2_Gamma EEG_AFz_Beta EEG_F1_Beta EEG_FT10_Theta EEG_C2_Gamma EEG_TP7_Beta EEG_T7_Beta EEG_PO4_Beta EEG_AF7_Beta EEG_PO3_Gamma EEG_F3_Beta EEG_FT10_Alpha EEG_C3_Beta EEG_CPz_Beta EEG_FT7_Beta
feature_infos=[0:0.99337750673294067] [-0.69842147827148438:2.0479373931884766] [-2.1022209693910554e-05:3.4080170735251158e-05] [0:150] [14.522276878356934:139.55850219726562] [100:151] [-1.4131759405136108:4.9209904670715332] [-1.3877483606338501:3.6916775703430176] [-1.3418046236038208:4.119102954864502] [-1.7101210355758667:3.4098765850067139] [-1.45820152759552:4.2495479583740234] [-1.3650146722793579:4.8034868240356445] [-1.5923292636871338:3.6395905017852783] [-1.6358927488327026:4.0629754066467285] [-1.3571066856384277:4.43597412109375] [-1.5135469436645508:4.0766935348510742] [-1.2708104848861694:4.3089971542358398] [-1.3631796836853027:4.0717878341674805] [-1.4843003749847412:3.5249109268188477] [-1.3200843334197998:4.3512563705444336] [-1.5182331800460815:3.6083636283874512] [-1.1910800933837891:5.2775187492370605] [-1.3617302179336548:3.9795866012573242] [-1.5544908046722412:3.9147276878356934] [-1.2097644805908203:3.5233697891235352] [-0.85923522710800171:8.0162773132324219] [-1.4788278341293335:4.18402099609375] [0:3] [-1.4037396907806396:3.3934395313262939] [-1.5336791276931763:4.0452995300292969] [-1.3690890073776245:4.1564116477966309] [-0.058090426027774811:0.088659822940826416] [-1.5951797962188721:4.0295677185058594] [-1.6300175189971924:3.5118856430053711] [-1.3680093288421631:4.7098221778869629] [-1.3817868232727051:4.3824005126953125] [-1.4668811559677124:4.1928682327270508] [-1.4309549331665039:4.0374622344970703] [-1.8526879549026489:3.2032737731933594] [-1.3333886861801147:4.6076512336730957] [-1.337643027305603:4.0803699493408203] [-1.4295977354049683:4.353813648223877] [-1.7013440132141113:3.4680461883544922] [-1.6108707189559937:3.3325045108795166] [-1.3814049959182739:4.0483989715576172] [-1.6640421152114868:4.1309523582458496] [-1.2184836864471436:5.960151195526123] [-1.5829101800918579:3.6807739734649658] [-1.5334570407867432:3.8162777423858643] [-1.4620306491851807:4.1875581741333008] [-1.9190413951873779:3.0940680503845215] [-1.3809052705764771:4.8602700233459473] [-0.99620348215103149:8.0751886367797852] [-1.4988671541213989:4.1742334365844727] [-1.3356220722198486:5.6665821075439453] [-1.6286085844039917:4.0445756912231445] [-1.5148992538452148:4.031550407409668] [-1.5947402715682983:4.1012344360351562] [-1.4015228748321533:4.6193594932556152] [-1.9324623346328735:3.2797911167144775] [-1.8358802795410156:3.2150313854217529] [-1.7368303537368774:2.9156978130340576] [-1.2244992256164551:5.8624191284179688] [-1.4913597106933594:4.607975959777832] [-1.425458550453186:3.8464634418487549] [-1.3085663318634033:5.4075427055358887] [-1.7085099220275879:3.5205464363098145] [-1.6934961080551147:3.6596667766571045] [-1.6288658380508423:3.0668115615844727] [-1.2169578075408936:6.160923957824707] [-1.8492822647094727:3.1361217498779297] [-1.6236675977706909:3.6559717655181885] [-1.8855804204940796:3.3769593238830566] [-1.7681922912597656:3.2818937301635742] [-1.5294293165206909:4.4979305267333984] [-1.7541474103927612:3.403611421585083] [-1.3287061452865601:3.386885404586792] [-1.4859262704849243:3.7672321796417236] [-1.5335109233856201:3.8842425346374512] [-1.7212334871292114:3.3898026943206787]
tree_sizes=8602 9059 9097 9149 9079 9148 9077 9156 9138 9168 9146 9167 9115 9179 9174 9164 9158 9140 9162 9145 9153 9127 9152 9154 9152 9118 9151 9106 9184 9141 9148 9109 9126 9148 9144 9130 9173

Tree=0
num_leaves=96
num_cat=0
split_feature=0 2 1 10 13 9 11 2 3 33 20 4 12 75 2 42 1 23 1 4 28 1 1 1 20 32 1 1 6 4 2 1 2 1 1 1 1 2 6 2 9 66 33 4 65 2 6 1 14 1 2 33 1 1 30 53 5 20 34 21 1 19 7 1 10 1 4 1 5 26 1 6 1 2 32 7 2 6 2 3 21 13 19 5 19 2 5 1 4 5 1 3 2 1 6
split_gain=1352.73 279.092 162.281 160.842 140.102 128.125 135.231 129.52 127.484 108.704 90.9669 78.0081 75.8309 69.5283 82.8212 63.3687 56.2723 55.0012 53.3792 50.1509 49.8191 43.0077 46.6541 42.4482 42.7603 40.8148 68.2768 46.0383 59.7931 40.9419 45.4737 39.2867 36.787 40.4204 34.8194 37.0856 34.4669 32.3745 32.3461 32.2513 33.4588 32.2274 31.9253 31.3265 37.8538 29.0647 27.0331 26.4975 25.691 24.8187 24.2868 24.2135 24.1645 25.6031 24.1429 24.1323 24.0848 22.9137 22.5414 27.4161 22.4263 22.1996 25.138 21.2472 21.1393 22.9375 24.4138 21.1677 20.2369 20.1713 20.1517 19.9611 19.5495 19.1812 19.1325 18.5694 18.5664 25.131 18.0662 26.2535 18.0592 17.7467 17.5477 16.767 16.7655 16.2806 18.1203 15.8821 15.751 15.5511 15.5139 15.7505 15.3962 14.9814 15.0839
threshold=0.092869244515895857 -4.5941601456433992e-06 0.85032725334167492 -0.32280804216861719 -0.27962705492973322 0.93087583780288707 3.2710436582565312 1.3704309822060169e-05 5.5000000000000009 0.95028051733970653 -0.38722607493400568 94.730949401855483 -1.2222740054130552 0.49061314761638647 2.4633100110804666e-06 0.44801820814609533 0.85948225855827343 -0.17921839654445645 1.5778260231018069 61.10340881347657 -0.47612193226814264 1.4548192620277407 -0.19106600433588025 0.8435804843902589 -0.044290916994214051 -0.8769894242286681 1.3646162748336794 0.9338970184326173 1.8057606816291811 84.099266052246108 2.9308899911484336e-06 1.6357997655868532 1.3279050108394588e-06 0.77495425939559948 0.77135375142097484 0.9338970184326173 1.4548192620277407 -3.2520399599889056e-06 -0.14101301133632657 -9.9544001841422848e-07 -1.3927430510520933 0.46639916300773626 0.10089542716741563 67.690265655517592 1.1029831767082217 9.1148453975620231e-06 0.071911893784999861 1.6177572607994082 1.1921529173851015 1.1782889962196352 1.467104993935209e-06 -1.1893184185028074 0.95825901627540599 0.68322148919105541 0.94076630473136913 2.1018240451812749 140.00000000000003 0.92423593997955333 1.2064934968948366 -0.080415751785039888 0.66200000047683727 0.47924582660198217 -0.13949510455131528 1.2632279992103579 1.5998759269714358 1.1357692480087282 65.411678314208999 0.51525974273681652 106.50000000000001 0.3364779800176621 1.4206759929656985 0.093818075954914107 0.9062737524509431 8.6506947809539287e-06 -0.80471804738044728 0.86095681786537182 9.4274497541846369e-07 0.47709587216377264 3.5726650366996186e-06 80.500000000000014 1.1650533080101015 0.83588600158691417 -0.26843997836112971 121.50000000000001 0.028817713260650638 2.6953170163324106e-05 119.50000000000001 0.35647599399089819 100.21277999877931 100.50000000000001 1.0000000180025095e-35 2.5000000000000004 1.7415494767192289e-05 0.83700174093246471 0.009994434658437969
decision_type=2 2 2 2 2 2 2 2 2 2 2 2 2 2 2 2 2 2 2 2 2 2 2 2 2 2 2 2 2 2 2 2 2 2 2 2 2 2 2 2 2 2 2 2 2 2 2 2 2 2 2 2 2 2 2 2 2 2 2 2 2 2 2 2 2 2 2 2 2 2 2 2 2 2 2 2 2 2 2 2 2 2 2 2 2 2 2 2 2 2 2 2 2 2 2
left_child=8 2 -2 4 10 6 7 9 90 21 17 16 48 14 34 36 46 37 -8 -18 43 22 -5 57 -25 26 45 32 29 51 82 84 33 75 -11 -36 41 -3 -28 52 -41 54 89 44 50 -24 -12 88 -9 -26 -6 -29 53 -39 76 -16 64 -14 -34 -60 -13 62 68 -64 65 67 -67 -17 -42 -45 -19 -21 -44 80 93 -27 77 -7 79 -30 -52 -69 -31 -78 -23 86 92 -10 -15 -35 -1 -92 -50 -22 -95
right_child=1 3 -4 5 20 15 18 12 87 13 11 60 23 47 55 56 19 70 -20 71 74 31 25 24 49 27 38 28 78 30 -32 -33 58 42 35 -37 -38 39 -40 40 61 -43 72 69 -46 -47 -48 -49 85 -51 73 -53 -54 -55 -56 -57 -58 -59 59 -61 -62 -63 63 -65 -66 66 -68 81 -70 -71 -72 -73 -74 -75 -76 -77 83 -79 -80 -81 -82 -83 -84 -85 -86 -87 -88 -89 -90 -91 91 -93 -94 94 -96
leaf_value=0.48100090026418779 0.49285371277890516 0.48065401740211061 0.47419706359524583 0.49151184982731894 0.48825204818724444 0.48457228397196372 0.48851848198114717 0.48654640318299025 0.48467683483872487 0.48849946143774658 0.48661909771128947 0.48761458806818891 0.48779154751607007 0.48697247789452519 0.48539949722210401 0.4917579575274118 0.48116790220163957 0.48518028247874673 0.47440336410448269 0.48671756429853813 0.48795432283307361 0.48966191600717673 0.48454169528614377 0.47955516124903746 0.48217188562113927 0.48476929931491841 0.48814291629790085 0.48421346348447708 0.47671906942120079 0.49774726118984813 0.48543198572342844 0.48370839380885317 0.48732442635670636 0.49604870577756927 0.4734906054907389 0.48129862384967603 0.49037220010270943 0.49653517126175162 0.47484789409583922 0.49134899422606121 0.4936514509894811 0.48867762593360486 0.47641565922065049 0.48862164406406877 0.48459670081619627 0.48928205528672086 0.49037335237645419 0.47736974103085783 0.4925571684369382 0.48809798548467737 0.49443433865773329 0.48850451944681911 0.4964702005538652 0.48372420456556242 0.48737298223708597 0.47570897453840938 0.49485345707381284 0.47954794054241318 0.48072391430015515 0.48787336089428801 0.47872242857508168 0.49125118719134186 0.49019238720465397 0.48136136317591915 0.48730824409171636 0.48350651768964359 0.49266416104266142 0.48527599202282135 0.48636489254476012 0.49128851395499368 0.48989767251549721 0.48355048150315627 0.48534928174374498 0.49027337872335086 0.48869791404653001 0.48954576616286233 0.48407682935484858 0.47680832973257098 0.48704778944699029 0.48649113459136623 0.48484184224693355 0.49005290751082681 0.48960408109906162 0.48962435640767688 0.49419920933962025 0.48777486965076661 0.47261938683591959 0.48057158141476314 0.4795335889702263 0.48357932374697465 0.47457776259708179 0.47707731145045029 0.4759406267977721 0.48622761527063924 0.47988221665614439
leaf_weight=558 510 411 2336 1673 1062 812 294 199 940 229 4040 297 2370 4684 2818 1346 2609 5883 1323 6763 1549 1977 5425 2777 1362 1938 203 1324 674 1004 533 748 11168 92 1538 855 1824 226 858 3624 357 2795 1069 8029 593 1480 3013 297 80 1190 4732 11050 900 364 2486 250 741 346 1106 854 1787 1764 3694 261 3426 284 3243 1730 7721 3747 944 2434 278 1586 9239 1175 3299 697 535 390 183 1173 315 574 1169 84 1078 8827 269 2148 4615 4590 128 838 562
leaf_count=558 510 411 2336 1673 1062 812 294 199 940 229 4040 297 2370 4684 2818 1346 2609 5883 1323 6763 1549 1977 5425 2777 1362 1938 203 1324 674 1004 533 748 11168 92 1538 855 1824 226 858 3624 357 2795 1069 8029 593 1480 3013 297 80 1190 4732 11050 900 364 2486 250 741 346 1106 854 1787 1764 3694 261 3426 284 3243 1730 7721 3747 944 2434 278 1586 9239 1175 3299 697 535 390 183 1173 315 574 1169 84 1078 8827 269 2148 4615 4590 128 838 562
internal_value=0.486036 0.486859 0.477543 0.48701 0.48801 0.486183 0.485541 0.48574 0.478541 0.486257 0.486968 0.485495 0.482507 0.483553 0.481256 0.488058 0.486104 0.488148 0.47697 0.484837 0.489538 0.486859 0.486599 0.483685 0.48213 0.48641 0.484469 0.486844 0.48805 0.488668 0.492826 0.489883 0.48588 0.484072 0.477343 0.476274 0.486564 0.488966 0.477391 0.489147 0.488784 0.485912 0.481902 0.490462 0.491891 0.485558 0.488224 0.486043 0.476478 0.484935 0.492463 0.488045 0.493381 0.48865 0.484929 0.484604 0.48962 0.486737 0.486804 0.483838 0.47999 0.48811 0.487649 0.489608 0.489273 0.490138 0.491926 0.488651 0.486689 0.489471 0.485834 0.485879 0.478256 0.493151 0.488027 0.486573 0.483799 0.480979 0.482553 0.480295 0.494077 0.487208 0.495811 0.4849 0.491352 0.475017 0.474182 0.480966 0.486566 0.4841 0.476117 0.475822 0.482333 0.485923 0.483675
internal_weight=197375 177845 2846 174999 79212 95787 71357 69740 19530 60126 47092 20943 9614 10940 5690 24430 18859 26149 1617 11806 32120 49186 45292 8045 5329 43619 7966 35653 15825 14226 1852 3894 19828 6700 2622 2393 12487 19322 1061 18911 17421 10663 3587 19932 8156 6905 7053 5250 1569 2552 7563 12374 1490 590 7868 3068 11943 2716 13128 1960 2084 13797 12033 3955 11202 7776 3527 4249 8078 11776 6827 9197 1347 6501 12188 3113 5382 1509 1599 1064 4915 2903 1319 3873 3146 1370 1286 9767 4953 2240 9763 9205 208 2949 1400
internal_count=197375 177845 2846 174999 79212 95787 71357 69740 19530 60126 47092 20943 9614 10940 5690 24430 18859 26149 1617 11806 32120 49186 45292 8045 5329 43619 7966 35653 15825 14226 1852 3894 19828 6700 2622 2393 12487 19322 1061 18911 17421 10663 3587 19932 8156 6905 7053 5250 1569 2552 7563 12374 1490 590 7868 3068 11943 2716 13128 1960 2084 13797 12033 3955 11202 7776 3527 4249 8078 11776 6827 9197 1347 6501 12188 3113 5382 1509 1599 1064 4915 2903 1319 3873 3146 1370 1286 9767 4953 2240 9763 9205 208 2949 1400
is_linear=0
shrinkage=1


Tree=1
num_leaves=96
num_cat=0
split_feature=3 1 9 3 7 44 33 1 1 1 1 49 63 26 4 14 8 1 1 32 9 1 1 1 1 25 1 45 7 9 8 64 53 8 30 8 5 45 1 14 16 6 22 5 3 4 4 64 37 1 1 41 39 49 51 60 7 1 4 4 41 14 6 18 1 4 5 41 20 6 31 31 64 41 7 5 5 4 5 56 14 7 38 22 35 1 15 43 1 14 50 36 1 1 14
split_gain=1271.54 159.567 124.258 98.9655 92.4743 89.4593 111.499 106.102 81.3903 153.753 76.2611 73.778 71.0564 65.011 61.6696 59.8772 55.6914 51.9139 85.6052 42.8301 42.7195 41.8621 42.0705 39.7688 71.2092 116.484 100.276 62.3991 53.9093 73.3904 44.6841 40.1887 38.6963 37.4758 34.3795 33.5265 30.6245 29.3754 28.9911 27.8555 27.7994 26.2342 26.2336 26.0798 25.7388 25.3305 24.7198 24.5165 24.3609 23.9142 23.6458 23.5372 21.8854 21.4215 20.5174 19.2073 19.1719 19.1301 18.52 17.8843 17.2015 17.0064 17.1315 29.0204 20.522 44.5016 16.1431 16.0642 15.8736 15.7347 15.3585 33.878 15.1262 15.0171 14.9434 14.9351 16.2344 16.3892 14.9034 16.4887 14.8713 14.7743 14.7006 14.5871 14.4257 14.3036 14.2952 19.0904 14.2844 13.8607 13.5797 14.4709 13.5782 19.5913 14.3217
threshold=10.500000000000002 0.41744799911975866 -1.3381546735763548 4.5000000000000009 -0.52442932128906239 0.63327613472938549 1.3695285320281985 1.1702257394790652 0.95519599318504345 1.6177572607994082 0.70059299468994152 0.63120788335800182 0.70488962531089794 -0.25703191757202143 71.701816558837905 1.5708004832267763 0.83675238490104686 1.1913407444953921 1.1209292411804201 0.18335562944412234 -0.64316540956497181 1.3260027766227724 1.0238804817199709 1.4497029781341555 1.2938259840011599 -0.058438558131456368 1.0549467206001284 2.0468635559082036 -0.099216155707836137 -0.71001794934272755 1.2103101015090945 -0.81298822164535511 0.069903228431940093 0.61175352334976207 -0.11368378251790999 0.28993768990039831 140.00000000000003 1.7638384103775027 0.77135375142097484 1.2661627531051638 -0.91070947051048268 0.78567090630531322 0.70869764685630809 129.50000000000003 16.500000000000004 93.765453338623061 80.009578704833999 0.8420151174068452 1.1700550913810732 0.77847072482109081 0.88060325384140026 2.3892347812652592 1.9814209342002871 -0.098574176430702196 0.382554441690445 -0.80408248305320729 -0.6968700885772704 0.1923247501254082 72.022602081298842 69.941856384277358 0.91615286469459545 0.99639642238616954 0.55591624975204479 -0.58181250095367421 1.1357692480087282 78.327922821044936 140.00000000000003 1.5961769819259646 -0.53328368067741383 1.3034352064132693 1.0000000180025095e-35 2.8112501240684654e-05 0.38643908500671392 -0.13179538398981092 -0.99225816130638111 106.50000000000001 115.50000000000001 82.605884552001967 150.50000000000003 -0.15712462365627286 0.46787641942501074 0.72660142183303844 -0.45788867771625513 0.26342421770095831 1.1361898779869082 0.37924399971961981 1.4782944917678835 -0.3393047153949737 1.1529932618141177 2.9938234090805058 0.24772361665964129 0.10568780452013017 0.93099674582481395 0.85267901420593273 1.6796721220016482
decision_type=2 2 2 2 2 2 2 2 2 2 2 2 2 2 2 2 2 2 2 2 2 2 2 2 2 2 2 2 2 2 2 2 2 2 2 2 2 2 2 2 2 2 2 2 2 2 2 2 2 2 2 2 2 2 2 2 2 2 2 2 2 2 2 2 2 2 2 2 2 2 2 2 2 2 2 2 2 2 2 2 2 2 2 2 2 2 2 2 2 2 2 2 2 2 2
left_child=3 4 19 -1 15 6 12 10 16 55 67 80 13 23 -12 34 -8 18 47 42 21 22 45 24 26 35 30 56 29 46 31 38 -16 -20 -2 82 72 78 39 -4 -40 70 74 86 -22 50 -28 60 -18 -32 58 54 53 -34 61 -10 -25 -17 -15 -13 -14 62 64 81 -46 73 -56 -7 -21 -57 -31 -72 75 -66 -3 -6 77 -77 79 -19 -9 -64 -26 -62 -75 -5 92 -88 -53 -78 91 -55 93 94 -33
right_child=1 2 5 85 36 7 8 11 9 -11 14 59 17 20 32 57 48 37 33 68 44 -23 -24 27 25 -27 28 -29 -30 41 49 43 52 -35 -36 -37 -38 -39 40 -41 -42 -43 -44 -45 51 -47 -48 -49 -50 -51 -52 88 -54 90 66 69 -58 -59 -60 -61 83 -63 63 -65 65 -67 -68 -69 -70 -71 71 -73 -74 84 -76 76 89 -79 -80 -81 -82 -83 -84 -85 -86 -87 87 -89 -90 -91 -92 -93 -94 -95 -96
leaf_value=-0.010046057486555789 9.5991296159249532e-05 0.0024450755898298669 0.0010895447467025314 -0.0022191005424876623 0.010815054570373735 0.0036955330137882947 -0.0019945712642043495 0.0079685704837321805 0.008045837847198159 -0.010461115742520613 0.0013786923108644747 -0.0020330817588939342 -0.0021224634863789252 0.006882731142906641 -2.5893266405863591e-05 -0.0034631977021514675 -0.010037645860918317 0.0071082808600549975 -0.01074955708855023 0.0011427064169960445 -0.0025246874965689638 -0.0022811539470826226 0.0073610889898028707 0.0011777246742853071 -0.0043384151685369257 -0.0084894783307930387 0.0030662846561172572 -0.010461747903235456 0.0046553340353165888 0.0020530177836538105 0.0014933456515330665 0.00013211728451437195 -0.00094961007868927291 0.0078560270843362166 0.0052434720769374702 0.0049484202154486331 0.01028531113567138 -0.0089619349960562891 -0.0059878230858488425 -0.012816534824125524 -0.0019424320434342037 -0.0079610305161962446 0.010611229272208205 0.0032081724628032272 0.00031288711639751373 -0.0085932435066654132 0.011508530745380269 0.00075847600614927814 -0.00022332977019543722 -0.011074724879415463 -0.00044939912452585372 0.0020787553506175557 0.0002677304057013899 -0.00098016023403033601 0.0017841144979580685 0.0019790905142635139 0.004754362909482647 -0.012184837601073315 0.0015705295131892721 0.0026995603809783844 -0.0090801870775917039 -0.0028377863715892079 0.0044125079480047168 -0.0027933403551033366 -0.0017456072088929515 0.005719637636863009 0.0077100115905431969 -0.00073750647627353566 -0.0070232652526229936 -0.0059340280601296756 -0.008350966655460236 0.0010411412553795131 0.0053276049726812009 0.0046587951497880599 0.005388372255292615 0.0016155238299695653 0.0036162322691592609 -0.010160548976564314 0.012179568888340878 0.00071366846586087287 0.0028214434937635325 -0.004599065487343592 -0.00049890103434583222 -0.0016025985949122317 -0.0051763970952446543 -0.005963223804485147 0.0022118898763631776 -0.010231383858569133 0.0097570218947297376 -0.0087459104801023233 -0.0041893855524436112 -0.0093193052744115108 0.0014163939765440474 -0.0025132293854545035 -0.0074429908045669244
leaf_weight=8151 3961 2463 2412 1029 226 5989 1609 3637 442 1120 7167 858 4655 1382 3491 749 2360 425 1458 2424 1913 1011 2453 2866 1291 2522 1101 334 5270 857 178 11759 868 103 1654 820 822 230 2413 135 4175 645 651 2056 10402 180 435 2324 252 573 1264 439 822 217 9418 3102 2549 324 1033 4382 658 1377 951 2804 1650 2287 431 838 233 242 609 795 6550 787 4223 316 5575 158 125 2422 590 196 2936 366 160 8785 178 290 434 81 1463 1389 3713 3685 227
leaf_count=8151 3961 2463 2412 1029 226 5989 1609 3637 442 1120 7167 858 4655 1382 3491 749 2360 425 1458 2424 1913 1011 2453 2866 1291 2522 1101 334 5270 857 178 11759 868 103 1654 820 822 230 2413 135 4175 645 651 2056 10402 180 435 2324 252 573 1264 439 822 217 9418 3102 2549 324 1033 4382 658 1377 951 2804 1650 2287 431 838 233 242 609 795 6550 787 4223 316 5575 158 125 2422 590 196 2936 366 160 8785 178 290 434 81 1463 1389 3713 3685 227
internal_value=6.5435e-06 0.000768532 0.000447911 -0.0076024 0.00326515 0.000230683 -0.000151548 0.00164435 -0.00333538 -0.000706973 0.000512138 0.00430398 0.00011717 0.000398467 -0.000656814 0.00037227 -0.00638856 -0.00198461 -0.00309139 0.00368586 0.00130881 0.00338279 0.00429043 -0.00027525 -0.000551823 -0.00322747 -6.37618e-05 0.00208502 0.00260391 0.000169092 -0.000878758 -0.000703554 -0.00242502 -0.00951342 0.0016136 -0.00059571 0.00467424 0.0013211 -0.00237494 0.000342996 -0.00342551 -0.00263408 0.00486744 -6.48068e-06 0.000851851 0.00233574 0.00546901 -0.0018367 -0.00909168 -0.00809982 0.00287483 0.00105813 -0.00418416 -0.00511333 0.000918722 0.00218256 0.00286249 -0.00611453 0.00461365 0.00192416 -0.00289861 0.000380485 0.000611123 -0.00114941 0.00106626 0.00267002 0.00204495 0.00315133 0.000421865 0.00140323 -0.00110875 -0.00303887 0.00431532 -1.79031e-05 0.00430517 0.00327079 0.00298921 -0.00233603 0.00212239 0.00167258 0.00725181 0.00286728 -0.00167305 -0.00641587 0.00298969 -0.00557118 -0.0003397 -0.00550941 0.00590948 0.00343616 -0.00628957 -0.00819515 -0.000214329 -0.000600835 -1.25637e-05
internal_weight=197375 179410 158994 17965 20416 149000 117289 31711 9127 4906 22244 9467 108162 95396 15417 6688 4221 12766 9564 9994 40572 7323 6312 54824 49075 7569 41506 5749 9712 4442 31794 31043 8250 1561 5615 5047 13728 3202 9135 2547 6588 2906 7337 21908 33249 3859 1536 8003 2612 751 3679 31336 4759 3937 30463 3786 5415 1073 2415 5240 5679 20614 19237 3951 15286 4884 9849 6827 2657 3344 2261 1404 12906 2597 6686 6356 6130 474 2972 2847 4227 1147 4227 1024 947 9814 19852 468 873 5656 3069 1606 19384 15671 11986
internal_count=197375 179410 158994 17965 20416 149000 117289 31711 9127 4906 22244 9467 108162 95396 15417 6688 4221 12766 9564 9994 40572 7323 6312 54824 49075 7569 41506 5749 9712 4442 31794 31043 8250 1561 5615 5047 13728 3202 9135 2547 6588 2906 7337 21908 33249 3859 1536 8003 2612 751 3679 31336 4759 3937 30463 3786 5415 1073 2415 5240 5679 20614 19237 3951 15286 4884 9849 6827 2657 3344 2261 1404 12906 2597 6686 6356 6130 474 2972 2847 4227 1147 4227 1024 947 9814 19852 468 873 5656 3069 1606 19384 15671 11986
is_linear=0
shrinkage=0.03


Tree=2
num_leaves=96
num_cat=0
split_feature=0 10 1 13 3 1 1 35 35 15 59 51 35 1 4 1 6 1 6 33 34 23 71 4 61 13 71 4 16 33 4 1 4 22 39 33 47 6 1 21 1 4 4 56 13 5 17 5 5 17 41 56 19 1 17 71 23 22 44 19 29 1 4 6 1 44 1 49 49 3 1 1 22 55 29 33 1 49 5 4 6 60 62 6 18 56 74 16 17 6 21 5 49 1 39
split_gain=1200.61 163.341 141.833 123.237 112.891 91.5591 205.247 129.002 91.4388 71.1486 70.3087 69.4041 63.5174 53.265 68.5051 111.373 176.679 70.5582 63.3495 61.6098 58.91 52.1367 49.0116 40.2093 39.452 38.5293 37.1521 36.8629 34.9122 42.6981 32.022 31.9208 33.4256 31.9205 30.8272 27.2047 26.9951 26.4574 25.6906 23.9017 29.9937 23.6612 22.403 22.0968 21.6096 21.1595 20.7769 20.509 19.9823 19.8312 20.6334 19.757 18.8143 18.0183 26.9739 17.8068 16.6153 17.9443 16.4222 15.8235 15.4271 19.3833 19.9917 17.5877 16.2837 14.8153 14.5077 16.2283 14.3278 14.3113 14.1397 14.0827 14.073 13.971 13.8745 13.8539 13.788 13.731 13.6703 13.5991 13.5877 13.4325 13.316 13.0392 14.8341 12.4596 12.8672 12.0861 12.0591 12.0563 11.9778 11.9333 11.6481 11.4463 16.0429
threshold=0.092869244515895857 -0.5680420696735381 1.0000000180025095e-35 -0.25340090692043299 5.5000000000000009 1.6357997655868532 1.4548192620277407 0.74334231019020092 0.74334231019020092 1.0767070055007937 -0.60467773675918568 1.414494574069977 0.99468946456909191 1.3646162748336794 71.701816558837905 0.9338970184326173 0.6387905776500703 0.75565373897552501 0.36360147595405584 0.75066262483596813 -0.72733357548713673 -0.56261143088340748 0.42569579184055334 70.560222625732436 -0.70136180520057667 -0.60472312569618214 0.33627426624298101 88.799819946289077 -0.41157732903957361 -0.79348239302635182 94.228752136230483 0.83472973108291637 68.357860565185561 0.67042514681816112 -0.41237716376781458 0.95028051733970653 -0.050031559541821473 2.2561368942260747 1.1960897445678713 0.87350955605506908 1.1821847558021548 82.20740127563478 110.88477325439455 1.425223767757416 -0.59627974033355702 129.50000000000003 -0.75087025761604298 140.00000000000003 119.50000000000001 0.84662407636642467 1.2668473720550539 1.425223767757416 0.5118795931339265 1.0158119797706606 -0.45272037386894221 1.5510557293891909 0.45071876049041754 -0.87129673361778248 0.38944566249847418 -0.01909720059484243 0.038592917844653137 1.1357692480087282 86.643886566162124 -0.55618396401405323 1.2632279992103579 0.050002448260784156 1.0000000180025095e-35 -0.17309511452913282 0.19505134969949725 2.5000000000000004 0.31695875525474554 1.0070005059242251 -0.36528822779655451 -0.42029935121536249 0.93427321314811718 1.0978741049766543 1.1659412980079653 1.0083802938461306 140.00000000000003 90.127368927001967 0.040687080472707755 -0.21096250414848325 -0.50124651193618763 0.39018446207046514 -0.42972639203071589 0.92448467016220104 -0.27147978544235224 1.5875730514526369 -0.15980938076972959 -1.3325280547142027 -0.11086321994662283 140.00000000000003 -0.42033788561820978 1.2781427502632143 1.4878541827201845
decision_type=2 2 2 2 2 2 2 2 2 2 2 2 2 2 2 2 2 2 2 2 2 2 2 2 2 2 2 2 2 2 2 2 2 2 2 2 2 2 2 2 2 2 2 2 2 2 2 2 2 2 2 2 2 2 2 2 2 2 2 2 2 2 2 2 2 2 2 2 2 2 2 2 2 2 2 2 2 2 2 2 2 2 2 2 2 2 2 2 2 2 2 2 2 2 2
left_child=4 3 91 10 66 6 8 58 9 13 36 24 44 14 34 17 20 21 79 27 41 22 -16 35 31 30 72 55 92 68 -10 -11 -33 45 46 -8 52 53 -34 82 -41 -17 51 78 60 49 85 81 -20 50 -23 76 89 54 83 56 -19 -58 -7 -25 61 62 63 -12 -62 -14 67 -1 -30 -68 -6 75 -21 -50 -46 -26 -22 -61 87 -15 -63 -27 -31 -36 -85 86 -4 -18 -24 -2 -35 -3 -5 94 -55
right_child=1 2 5 28 70 7 23 -9 25 11 12 -13 65 18 15 16 43 19 48 26 42 33 88 59 71 47 -28 -29 29 39 -32 32 38 90 37 -37 -38 -39 -40 40 -42 -43 -44 -45 74 -47 -48 -49 73 -51 -52 -53 -54 93 -56 -57 57 -59 -60 77 64 80 -64 -65 -66 -67 69 -69 -70 -71 -72 -73 -74 -75 -76 -77 -78 -79 -80 -81 -82 -83 -84 84 -86 -87 -88 -89 -90 -91 -92 -93 -94 -95 -96
leaf_value=-0.010554406204800896 -0.0030007591788703252 0.0043578070814102674 -0.0010866248279163568 0.0033712831999400238 -0.0010235685528179881 -0.0011061430236531278 0.0038157233817392795 -0.010474234552900519 0.00036871890985016215 0.00017293817832985908 -0.001060090032427827 0.0017187294724773019 -0.0065418714836237603 -0.0017343402428288419 0.00063934521825172966 0.0044568620615425365 -0.0029495911694665225 -0.0010209794102143547 -0.0012925595205662581 -0.012215879593566318 0.0020379446315118804 0.00067268693700859065 -0.010331319715237109 0.0036812615716588534 -0.0028574430254030185 0.0030625890967563105 -0.0033001154951204851 -0.0070294478493406008 0.0085558393139345806 0.0057688826208419398 -0.0078632638306792846 -0.0015797455880837751 -0.010477875217476817 -0.0052245139384874024 -0.0017513655878685103 -0.0017478352874384026 0.0043916975671359181 -0.0038990315960511441 0.00046655839456665057 0.0023660992565131922 -0.008788315917620455 0.010785103169550314 -0.0098330805691561312 -0.010495974366018557 0.0024007458302635837 0.007060916541741161 0.00043265793780712707 0.0063056750369253813 -0.011538070214018439 0.005068003166525498 -0.0060786838363256681 -0.0064306633604817023 0.0048642115740768739 0.0030510533820235631 0.0023768624959899379 -0.0089956381297560933 -0.010379168836938749 -0.0027939740491298632 0.0054609242660338961 0.0074644920927000218 -0.00066120504749986168 0.0029922961163901664 -0.0042911069795133214 0.0020344274392433176 -0.005707360071787012 0.001641576964282085 -0.010806372111522978 -0.00022216727393377503 0.0039810107357735021 -0.0084241409061283877 -0.00511975450529315 -1.0403072377009854e-05 -0.0048416761921185282 -0.0034052814742479521 -0.0029304235997603019 -0.0089871381869991579 0.0057630790121391872 0.0033173302272380815 0.008216720156371593 0.0050153829312256102 -0.0034906752544258714 0.0011530837634895778 0.0034087411829877936 0.0055105068801793696 -0.0036525228631881356 0.0051245530066807987 -0.0049859245436329564 -0.0092265001577756609 -0.00069585427398689912 0.0014821610924275713 -0.0010129022691579004 0.010580876597009421 0.0011465344949144734 -0.00032701187384221006 0.0075756346918025956
leaf_weight=236 572 5607 1784 4337 830 2289 1729 1813 1248 501 4637 2019 1578 3121 773 898 2389 6584 288 1263 3216 6015 982 3053 2225 5076 947 1530 2797 3406 643 590 2244 997 2911 1455 4773 723 211 950 279 1318 131 444 5108 516 10412 975 1042 857 435 204 1464 3943 6480 312 348 1432 401 3208 1710 2659 1103 2566 866 227 4615 322 797 4590 8937 1358 290 235 479 389 1239 932 88 292 325 9566 5882 515 228 190 1329 311 133 9136 1555 291 4144 668 859
leaf_count=236 572 5607 1784 4337 830 2289 1729 1813 1248 501 4637 2019 1578 3121 773 898 2389 6584 288 1263 3216 6015 982 3053 2225 5076 947 1530 2797 3406 643 590 2244 997 2911 1455 4773 723 211 950 279 1318 131 444 5108 516 10412 975 1042 857 435 204 1464 3943 6480 312 348 1432 401 3208 1710 2659 1103 2566 866 227 4615 322 797 4590 8937 1358 290 235 479 389 1239 932 88 292 325 9566 5882 515 228 190 1329 311 133 9136 1555 291 4144 668 859
internal_value=6.33098e-06 0.000781724 0.000134651 0.00205916 -0.00705395 -0.000103851 7.14979e-05 -0.00429393 -0.000356388 -0.000787322 0.000997741 -0.00321839 -0.000131792 -0.000457094 -0.000228837 -0.00112674 0.00150811 -0.00220714 -0.00344768 -0.00377367 0.00418452 -0.000583669 -0.00516638 0.00408171 -0.00454439 0.00160675 -0.00799307 -0.00273875 0.00380679 0.00472111 -0.00243577 -0.0068439 -0.00799775 0.00025111 0.000823449 0.00127383 0.00250347 0.00170415 -0.00953762 0.00375515 -0.000176272 0.00822701 0.00231168 -0.00429254 0.000367943 0.00120155 -0.000225076 0.0020965 -0.00844138 0.000785961 0.000215619 0.00265723 0.00169612 0.00196424 0.00121487 -0.00198065 -0.00171688 -0.00428691 -0.000123856 0.00532393 -0.000266797 0.000211303 -0.000533825 4.2561e-05 -0.00236073 -0.00551203 -0.00933544 -0.00461416 0.00754411 -0.00962058 -0.00477194 -0.00248909 -0.0108469 -0.0100491 0.00194279 -0.0037758 0.00307608 0.00653293 -0.0032978 -0.00115427 0.00228434 0.00181539 0.00427528 -0.000845973 0.00269645 -0.00229745 -0.00275344 -0.00367889 -0.00918528 0.00121746 -0.00266107 0.00466833 0.00228475 0.0033516 0.00386324
internal_weight=197375 177845 118050 59795 19530 112152 107649 4503 97272 79764 37203 9537 21258 70227 65249 35207 10238 24969 4978 12706 7006 12263 1888 10377 7518 17508 2500 10206 22592 14111 1891 3546 3045 10375 30042 3184 15945 16327 2455 10517 1229 2216 4790 3232 19453 7823 13715 15617 1565 7307 6450 4659 11172 15604 10134 8676 8364 1780 2690 7193 13866 11290 8306 7203 2576 1805 9763 558 3594 9205 9767 3972 1553 1277 5587 2614 4455 4140 2788 3413 2984 14642 9288 3654 743 3303 3113 2700 1115 9708 2552 5898 8481 5470 4802
internal_count=197375 177845 118050 59795 19530 112152 107649 4503 97272 79764 37203 9537 21258 70227 65249 35207 10238 24969 4978 12706 7006 12263 1888 10377 7518 17508 2500 10206 22592 14111 1891 3546 3045 10375 30042 3184 15945 16327 2455 10517 1229 2216 4790 3232 19453 7823 13715 15617 1565 7307 6450 4659 11172 15604 10134 8676 8364 1780 2690 7193 13866 11290 8306 7203 2576 1805 9763 558 3594 9205 9767 3972 1553 1277 5587 2614 4455 4140 2788 3413 2984 14642 9288 3654 743 3303 3113 2700 1115 9708 2552 5898 8481 5470 4802
is_linear=0
shrinkage=0.03


Tree=3
num_leaves=96
num_cat=0
split_feature=0 2 1 28 3 1 11 1 4 1 2 17 41 32 2 1 1 2 12 4 2 1 15 4 19 21 38 40 16 2 14 40 17 12 2 64 22 37 2 2 60 1 1 4 1 13 2 49 22 36 1 2 11 18 16 1 1 18 23 1 2 56 40 2 1 14 1 13 2 1 1 5 1 2 21 4 41 1 17 2 12 1 1 25 2 33 49 2 5 5 1 22 21 41 14
split_gain=1130.09 242.825 139.637 127.415 127.214 93.6704 86.4535 119.896 125.831 104.759 103.307 96.7434 82.0528 77.9753 71.9316 102.367 88.6813 76.3994 63.6374 63.7209 63.1694 63.3348 61.5145 55.3319 55.194 54.8399 54.0519 52.3538 52.1209 50.2681 47.891 45.8452 44.1558 43.7808 43.4174 40.2967 38.8974 42.7943 38.7539 37.3946 36.3364 36.1848 32.2254 31.5539 31.0701 29.6723 29.2418 28.296 25.5435 24.1593 23.9524 23.6706 23.4161 22.9762 22.8149 22.8121 22.3958 21.6545 20.5902 19.3503 18.8715 18.7193 18.685 21.5376 17.8498 17.7547 17.7037 17.4621 16.4067 16.1712 16.1436 16.1195 16.1144 15.5669 15.3957 18.4698 15.3646 15.2519 15.1283 14.521 16.3308 14.4232 27.2935 25.843 24.0092 20.0252 18.9476 15.0059 14.7778 15.2448 14.3319 17.4433 13.807 13.7514 13.6572
threshold=0.1003875993192196 -4.5941601456433992e-06 0.85032725334167492 -0.81394436955451954 5.5000000000000009 -0.19106600433588025 3.2710436582565312 1.0633447170257571 76.822700500488295 1.5663555264472964 1.9667500339437541e-07 -0.042755374684929841 0.69137033820152294 -1.0833795666694639 1.2657850447794774e-06 0.85948225855827343 0.92182224988937389 1.3704309822060169e-05 -1.3517428636550901 96.39349746704103 1.5699424693593759e-05 1.6357997655868532 1.2897651791572573 67.796188354492202 0.87708899378776561 0.73477619886398327 -0.19479934126138684 -0.20479521900415418 -0.36581012606620783 8.1517150647414399e-06 0.29392935335636144 -0.12206076458096503 -0.07293370738625525 -1.2081079483032224 3.1887250315776332e-06 -0.11079387739300726 0.17271803319454196 1.1066640615463259 6.4566800119791887e-06 4.3117702261952226e-06 -1.2415611147880552 0.6922612488269807 0.81807425618171703 70.661544799804702 0.36843851208686834 -0.52653220295906056 1.0115650184161498e-06 -0.34657876193523401 -0.69059419631957997 0.21305818110704425 1.3926022648811343 2.3002200578048363e-05 -0.13558793812990186 0.44879691302776342 3.6557322740554814 1.0238804817199709 1.6482167243957522 -0.044514736160635941 0.34859246015548712 1.4548192620277407 6.435700186102623e-07 0.99914267659187328 1.0000000180025095e-35 1.9070419511990625e-05 1.0070005059242251 2.9938234090805058 0.8679720163345338 -0.40562783181667322 9.1646501232389721e-07 0.37924399971961981 0.89740025997161876 140.00000000000003 0.51525974273681652 -3.2520399599889056e-06 -0.13267433643341062 90.786331176757827 -0.019592755474150177 1.2632279992103579 -0.032643029466271394 8.8124647845688759e-06 0.2676695585250855 1.5070185065269472 1.2781427502632143 0.41929399967193609 1.0605450370348992e-05 0.86639750003814708 -0.67042812705039967 3.8164098441484393e-06 120.50000000000001 121.50000000000001 0.57234501838684093 0.20993996411561969 -0.016647062264382836 0.77380797266960155 0.65408056974411022
decision_type=2 2 2 2 2 2 2 2 2 2 2 2 2 2 2 2 2 2 2 2 2 2 2 2 2 2 2 2 2 2 2 2 2 2 2 2 2 2 2 2 2 2 2 2 2 2 2 2 2 2 2 2 2 2 2 2 2 2 2 2 2 2 2 2 2 2 2 2 2 2 2 2 2 2 2 2 2 2 2 2 2 2 2 2 2 2 2 2 2 2 2 2 2 2 2
left_child=4 2 -2 18 -1 -5 7 11 13 -8 56 12 14 32 16 44 23 22 30 24 21 25 33 -7 27 71 58 40 47 -24 -3 60 -9 -17 52 78 37 62 61 42 66 79 -29 -43 -16 -42 54 -13 -33 -44 72 -46 -23 -34 -26 -18 74 -45 -12 -28 -25 -27 63 -14 -48 -41 76 -21 -62 -6 90 81 -47 -71 -10 -76 -20 -60 -22 80 -30 82 84 93 87 -83 88 -15 -86 -90 -49 -92 -93 -84 -61
right_child=1 3 -4 5 69 6 9 8 10 -11 26 28 36 20 15 17 55 -19 19 67 35 34 29 31 46 38 59 39 41 -31 -32 48 53 -35 -36 -37 -38 -39 -40 65 45 43 49 57 51 50 64 70 -50 -51 -52 -53 -54 -55 -56 -57 -58 -59 77 94 68 -63 -64 -65 -66 -67 -68 -69 -70 73 -72 -73 -74 -75 75 -77 -78 -79 -80 -81 -82 85 83 -85 86 -87 -88 -89 89 -91 91 92 -94 -95 -96
leaf_value=-0.0090555645050635191 0.0063373967741489319 0.00034198658294790622 -0.011052779911326029 0.0046823771680541432 -0.0011204455315873033 0.00056195103471291753 0.0013531534466205775 0.0001709453484696907 0.011095911306363171 -0.010722862483415979 0.0018178504851185408 0.00086835050272164669 -0.0028124019328775555 0.0027524925681733613 -0.0024332342306064595 -0.0056506991056749821 0.0029823246227035538 -0.0073097096817938741 0.0057510709032816557 -0.0065100354253913141 -0.0061139904685554069 -0.0035177874175903578 -0.011118371076243087 -0.0045993776893342503 0.002133081139952051 -0.0055736322661562475 0.0020920599016375193 0.001745543404951401 -0.00028890022693558033 -0.00039072345235778404 -0.010640661152288875 -0.011441254193688435 -0.008657517384068579 0.0011788117721971741 0.0036808341556384002 0.0027547878239647808 -0.0016737941253687056 0.0010010342887969983 0.0042272811369550127 0.0024980324502339971 0.0010604843551803042 0.0025827054480476066 -0.0048018635991226594 0.0017994130013084201 0.0022873420100027243 0.0045264993641046932 0.0042626990636953736 0.00038306855454546985 -0.0057213027266906141 9.8585118438894386e-05 0.0071521774702811552 -0.0097360347076350402 -0.012023415523019514 0.0013945303662440439 -0.011120784226114507 -0.0076050810035843764 -0.0031131506365849951 -0.0019820043669557829 -0.0044511149014714261 0.0058882003345055323 0.0021364026894794921 0.0020975642657642059 -0.010031133617459225 -0.012680981739662414 0.0074720714817792713 -0.0074624000195075164 0.0033530068780481411 0.00089907077464077803 -0.0046033413059240642 -0.011605027349150832 0.0010213173396949706 0.0063533506207997465 0.0017581470803870963 -0.0045771474124749406 -0.00078813529197050607 0.0089418641113024055 0.010902676988332034 0.00072709733963951661 0.0070013908460646512 0.0057962033174417697 0.0040150942416026462 0.0063036604443016276 0.000673363468906637 -0.0074368238548566338 0.00090587509865855463 0.00016644220562129166 0.0036285442841789205 0.0057480610575536889 -0.008755706917609617 0.0021578179919955931 -0.0011147687463078869 -0.0064804827519329197 -0.0016271982052687786 0.005535640357252858 0.0019061830445013615
leaf_weight=9763 505 984 2315 4566 1218 1883 1208 1238 1850 1388 2966 7839 879 3266 1460 970 2457 2023 1928 852 1891 678 860 3078 601 1632 2693 2438 1114 723 559 1221 1474 6453 456 711 2551 561 645 6938 6978 5979 2106 2212 14000 3394 3164 1212 1672 1587 1479 147 512 237 143 196 131 3544 1118 4509 868 346 1720 256 3098 163 1894 430 517 291 1486 916 4284 9905 243 628 719 942 81 2281 2753 1625 6836 336 743 678 1003 2801 391 162 1861 1690 769 565 939
leaf_count=9763 505 984 2315 4566 1218 1883 1208 1238 1850 1388 2966 7839 879 3266 1460 970 2457 2023 1928 852 1891 678 860 3078 601 1632 2693 2438 1114 723 559 1221 1474 6453 456 711 2551 561 645 6938 6978 5979 2106 2212 14000 3394 3164 1212 1672 1587 1479 147 512 237 143 196 131 3544 1118 4509 868 346 1720 256 3098 163 1894 430 517 291 1486 916 4284 9905 243 628 719 942 81 2281 2753 1625 6836 336 743 678 1003 2801 391 162 1861 1690 769 565 939
internal_value=6.11367e-06 0.000793117 -0.0079363 0.000935192 -0.00654141 0.000462785 0.000308669 0.000423536 0.0016499 -0.0051068 0.00378665 -0.000294856 -0.0012056 0.000478433 -0.000698497 0.000167677 -0.00263828 -0.00204449 0.00233528 0.00255415 0.000997695 0.00149383 -0.000860409 -0.00402634 0.00276056 0.00191964 0.00266459 0.00225946 0.000942884 -0.00622543 -0.00364544 -0.00520069 -0.00414545 0.000285084 -0.00417859 -0.00336257 -0.00447858 -0.00657093 -0.00214945 0.000785741 0.00320242 0.00203381 -0.000930466 0.00105673 0.00173101 0.00253467 0.00518448 -0.000370338 -0.00814166 -0.00269707 0.00365758 0.00216105 -0.00719139 -0.00726515 -0.000437354 0.002195 0.00896141 -0.000528706 0.000218081 0.00417457 -0.0032915 -0.00423099 -0.00805846 -0.00505666 0.00585235 0.00226736 0.0055729 -0.00402739 -0.000382454 -0.00438972 -0.00175379 0.00247219 0.00298274 -0.00477996 0.00954459 0.00623171 0.00715757 -0.00208481 -0.00556873 0.00389787 0.0027757 0.00227837 0.00196032 0.000675736 0.00314787 0.00449858 0.000536486 0.00413692 -0.00185842 -0.00556236 -0.00249933 -0.00330781 -0.00496528 0.00104595 0.00520282
internal_weight=197375 176198 2820 173378 21177 129639 125073 122477 45242 2596 16019 77235 44495 29223 38528 26636 11892 11029 43739 42196 26274 23591 9006 9239 40914 21945 13167 33908 32740 1583 1543 7356 2949 7423 1646 2683 5967 3416 2623 13232 20676 17883 6131 11735 15607 16135 7006 14857 2893 3693 9157 14147 1190 1711 744 2653 2852 5756 5026 8141 4463 1978 2855 1135 6262 7101 4541 1282 1385 11414 7018 19322 7678 10196 2721 871 2647 2060 1972 6148 3867 18406 16103 7737 8366 2303 2299 6067 1296 553 5532 4320 2459 7401 5448
internal_count=197375 176198 2820 173378 21177 129639 125073 122477 45242 2596 16019 77235 44495 29223 38528 26636 11892 11029 43739 42196 26274 23591 9006 9239 40914 21945 13167 33908 32740 1583 1543 7356 2949 7423 1646 2683 5967 3416 2623 13232 20676 17883 6131 11735 15607 16135 7006 14857 2893 3693 9157 14147 1190 1711 744 2653 2852 5756 5026 8141 4463 1978 2855 1135 6262 7101 4541 1282 1385 11414 7018 19322 7678 10196 2721 871 2647 2060 1972 6148 3867 18406 16103 7737 8366 2303 2299 6067 1296 553 5532 4320 2459 7401 5448
is_linear=0
shrinkage=0.03


Tree=4
num_leaves=96
num_cat=0
split_feature=3 2 10 1 9 13 3 33 2 4 1 1 9 1 7 12 28 1 4 42 1 25 1 1 1 1 4 5 1 5 1 1 50 1 5 45 32 48 15 32 1 2 60 5 6 1 1 5 2 2 1 6 4 23 25 4 67 12 1 26 2 2 58 5 1 5 2 2 1 14 5 1 6 41 23 1 10 7 2 3 1 41 1 30 1 12 23 5 1 1 4 2 2 2 7
split_gain=1066.15 238.199 135.694 132.92 118.78 118.348 100.981 96.0074 112.696 86.6489 82.2005 77.7447 67.784 63.3794 58.8235 58.3545 53.9447 52.977 49.3709 46.571 46.4696 49.2932 38.2059 60.9523 36.0191 35.9531 33.7055 33.5195 32.1723 34.3792 32.0777 29.5827 38.2352 27.9107 27.8247 27.5465 26.6096 25.073 24.9588 32.0797 33.535 28.8984 24.1344 22.6644 22.6419 39.698 22.3833 21.6704 20.6046 20.1065 28.7909 36.283 23.8383 21.0615 19.5543 19.1875 18.8687 18.7853 18.2319 18.1779 18.0415 26.4048 21.8597 17.7553 17.4948 16.4793 16.4533 16.447 16.3881 16.3255 17.8445 15.8437 18.3523 15.6594 15.6536 15.4831 15.4525 15.3725 15.211 15.1741 15.3102 15.1154 14.882 14.9671 14.6618 14.3951 15.4754 14.2225 14.1999 14.193 20.1962 14.1615 14.134 13.6675 13.5219
threshold=11.500000000000002 -4.5941601456433992e-06 -0.15713466703891751 0.85267901420593273 1.0750397443771365 -0.35648250579833979 5.5000000000000009 1.0214616656303408 1.3704309822060169e-05 96.39349746704103 1.6177572607994082 0.94073373079299938 -1.3742851614952085 1.1311982870101931 -1.0000000180025095e-35 -1.2222740054130552 -0.47612193226814264 0.81231048703193676 68.018173217773452 0.42200390994548803 1.2632279992103579 -0.064046230167150484 1.6357997655868532 1.4548192620277407 -0.19106600433588025 0.84582599997520458 62.124046325683601 100.50000000000001 1.6177572607994082 150.50000000000003 0.95825901627540599 1.4446432590484621 -0.81251025199890126 0.99111074209213268 140.00000000000003 1.3256416320800783 -0.80471804738044728 0.68865811824798595 1.4782944917678835 -0.36082422733306879 1.4049627184867861 9.3260346147872059e-06 -1.1268078684806822 140.00000000000003 0.60487711429595958 0.93729025125503551 0.63934224843978893 106.50000000000001 2.4633100110804666e-06 1.0605450370348992e-05 0.9338970184326173 2.0403335094451909 82.20740127563478 0.36187680065631872 -0.10617411509156226 92.944606781005874 0.15293750911951068 -0.20332761853933332 1.5778260231018069 0.91124179959297191 -3.029585059266537e-06 -2.2886949864187041e-06 -0.51340350508689869 140.00000000000003 0.75565373897552501 121.50000000000001 2.6953170163324106e-05 -1.3029149386056813e-06 1.1311982870101931 1.3863429427146914 119.50000000000001 1.2011437416076662 -0.066454183310270296 1.9489144682884219 0.62829822301864635 0.83700174093246471 1.6437716484069826 -0.077532801777124391 5.216590125201038e-06 51.500000000000007 1.1782889962196352 1.050403416156769 1.4599044919013979 1.2899659276008608 0.31695875525474554 -1.3168705105781553 -1.0327481627464292 150.50000000000003 -1.0000000180025095e-35 1.1357692480087282 65.411678314208999 2.535724888730329e-06 1.7415494767192289e-05 6.7836199377779857e-06 -0.92912465333938588
decision_type=2 2 2 2 2 2 2 2 2 2 2 2 2 2 2 2 2 2 2 2 2 2 2 2 2 2 2 2 2 2 2 2 2 2 2 2 2 2 2 2 2 2 2 2 2 2 2 2 2 2 2 2 2 2 2 2 2 2 2 2 2 2 2 2 2 2 2 2 2 2 2 2 2 2 2 2 2 2 2 2 2 2 2 2 2 2 2 2 2 2 2 2 2 2 2
left_child=6 3 5 -2 7 9 88 8 22 12 11 17 94 46 26 66 31 55 -19 56 33 -22 23 24 -4 -17 30 -26 29 81 -14 32 85 42 38 -24 71 -20 39 40 41 44 -16 47 45 74 -11 -28 -32 50 53 52 -52 75 -42 -9 82 -40 -33 73 -49 68 -63 76 -46 -50 69 -15 -62 -10 92 -18 -73 -34 -29 -41 89 -13 -12 -53 -81 -27 83 -6 -8 -7 -87 -45 -1 -21 -91 -77 -71 -36 -3
right_child=1 2 4 -5 19 16 84 10 15 13 78 77 14 67 20 25 36 18 37 63 21 -23 35 -25 27 28 43 34 -30 -31 48 58 59 -35 93 -37 -38 -39 57 49 54 -43 -44 87 64 -47 -48 60 65 -51 51 79 -54 -55 -56 -57 -58 -59 -60 -61 61 62 -64 -65 -66 -67 -68 -69 -70 70 -72 72 -74 -75 -76 91 -78 -79 -80 80 -82 -83 -84 -85 -86 86 -88 -89 -90 90 -92 -93 -94 -95 -96
leaf_value=-0.0041398247538281677 0.0062139395016349427 0.0022985353876880227 0.0049565702158079848 -0.010783869227452057 -0.0021323227397676216 -0.0028380803497597335 -0.00073468167163732881 0.00086029157596872476 0.00042333058630012805 0.0025633979848077469 -0.010204997999108342 -0.000982178526257291 0.00012051511515413413 0.012213463460526814 0.0046843719306942366 0.0010240214735872555 0.00065683670658122262 -0.00010314677762019532 -0.011013268709434055 0.0026763316163493033 0.0032638909574349627 -0.0079226095349361411 -0.00025301092178089111 0.0046823977802503977 0.0065388698801913565 -0.0056856154457448713 0.0048743355338717945 -0.0011691799091669934 0.0029658621355236159 0.014495400183084534 0.00095907261180649365 0.0086252542357816119 0.0019173397840365708 0.0052191843099991765 0.0017791409504836328 -0.010537412505804271 0.0022525597487341167 -0.0041359879980104007 -0.0064626325590616193 0.002490211734852392 0.0001642963136177192 0.0025717772139818964 0.00097371519583956255 0.0068401351287318826 -0.00074541102170740776 0.0022959190424928278 -0.007346904547027187 -0.0053371656920935609 -0.0066651309554990696 -0.0012072647203788191 0.0026705592984871481 -0.010086870514542648 0.007525271422596477 -0.0018710135487015962 -0.010021578291809628 -0.0064438857122051836 0.002212347310299941 -0.00092013967606791817 0.0026928052664132135 0.0049774542557157056 -0.00028801097750055533 -0.00091976656310324852 0.0010381141338071786 0.0081866420424583867 -0.0059196634919791323 0.00038821063961553263 0.003743972803155581 0.00060361318253945157 0.010474826617129462 0.0064783995648225144 -0.012225429946002541 0.0003486022846172023 -0.0071846860527347125 0.0070080866492230835 -0.0050581046088074696 -0.0035270395507910161 0.001403660627287442 0.0023007614948324742 0.0026503354803857843 -0.0069280064187478268 0.0043170398970444994 0.0019300728053611008 0.0032700670940940899 0.001745026712132741 -0.0048452677457057579 0.008497386928881594 0.004838653323248141 0.00027035994858231357 -0.0090773743902192779 -0.0027459508333484962 0.0062875214620239659 0.0018440205083230298 -0.0092288797441100277 0.007108442733442643 0.0056845277074016954
leaf_weight=561 500 1671 1461 2375 3656 186 856 1457 133 226 1470 2869 2734 203 2165 2156 3019 697 1774 3421 654 770 462 3125 726 3397 843 6289 561 80 524 1696 12009 3431 1346 474 13374 657 930 3447 244 2192 5805 767 1008 3106 2127 558 2001 3282 4969 226 1114 2892 554 414 3628 1346 646 2441 199 11606 9198 670 1412 350 88 237 351 88 1040 575 587 568 1092 923 3111 2320 87 190 250 251 783 1185 8999 1319 5003 483 9204 242 2657 844 119 638 2928
leaf_count=561 500 1671 1461 2375 3656 186 856 1457 133 226 1470 2869 2734 203 2165 2156 3019 697 1774 3421 654 770 462 3125 726 3397 843 6289 561 80 524 1696 12009 3431 1346 474 13374 657 930 3447 244 2192 5805 767 1008 3106 2127 558 2001 3282 4969 226 1114 2892 554 414 3628 1346 646 2441 199 11606 9198 670 1412 350 88 237 351 88 1040 575 587 568 1092 923 3111 2320 87 190 250 251 783 1185 8999 1319 5003 483 9204 242 2657 844 119 638 2928
internal_value=3.76413e-06 0.000736602 0.000877507 -0.00782546 3.99435e-06 0.00167729 -0.00663233 -0.000617052 -6.80534e-05 0.000692217 -0.00306854 -0.00208638 0.000997116 -0.00443974 0.000622116 -0.00336668 0.00286221 -0.0047556 -0.0071429 0.00206405 0.00231915 -0.00278762 0.000518081 0.000646914 0.000335172 -0.0021357 -0.000112929 0.000161891 -0.00372377 -0.00473149 -0.00220627 0.00379067 0.00344169 0.00295737 4.06569e-05 -0.0054725 0.00159958 -0.00915955 -0.000148455 5.5025e-05 -0.000928708 -0.000611479 0.00198261 0.000376345 -0.00115241 -0.000548495 -0.00639368 0.000160114 -0.0044175 0.00091727 0.00138676 0.00283387 0.0035618 0.000181494 -0.00691448 -0.000761074 0.000526165 -0.00318855 0.00699259 0.00260877 -2.16797e-05 0.000117706 -5.4119e-05 0.0034723 -0.00376683 -0.00561564 -0.00876084 0.005991 0.0065937 -0.00956251 -0.0106265 -0.000489202 -0.00346275 0.00214832 -0.00174575 0.00132022 0.00313571 0.000485944 -0.00948421 -0.00380552 -0.000548152 -0.00516085 -0.000561978 -0.00118288 -0.00448845 0.00536236 0.00560444 0.00430606 -0.00879462 0.0039876 0.00553206 -0.000962391 -0.00255329 0.00349833 0.0044558
internal_weight=197302 177682 174807 2875 83553 91254 19620 64200 52455 49831 11745 10188 47038 2793 42439 7913 41423 4999 3128 19353 12825 1424 44542 43606 40481 6445 29614 39020 4289 3728 5609 23868 21526 11401 38294 936 17555 2431 36310 34034 15897 15099 7970 24005 12907 10487 2353 22755 2875 18137 14855 6749 6083 8106 798 1871 9252 2276 2342 15018 21912 21354 20804 10101 2420 2351 1468 440 550 1380 1247 4181 1162 12577 7381 5214 9431 5189 1557 666 440 3648 5624 4841 9855 6508 6322 1250 9765 6320 2899 1767 207 1984 4599
internal_count=197302 177682 174807 2875 83553 91254 19620 64200 52455 49831 11745 10188 47038 2793 42439 7913 41423 4999 3128 19353 12825 1424 44542 43606 40481 6445 29614 39020 4289 3728 5609 23868 21526 11401 38294 936 17555 2431 36310 34034 15897 15099 7970 24005 12907 10487 2353 22755 2875 18137 14855 6749 6083 8106 798 1871 9252 2276 2342 15018 21912 21354 20804 10101 2420 2351 1468 440 550 1380 1247 4181 1162 12577 7381 5214 9431 5189 1557 666 440 3648 5624 4841 9855 6508 6322 1250 9765 6320 2899 1767 207 1984 4599
is_linear=0
shrinkage=0.03


Tree=5
num_leaves=96
num_cat=0
split_feature=0 2 10 1 9 13 0 11 2 8 26 20 6 35 28 17 23 1 7 1 1 16 1 18 39 2 1 2 2 2 1 23 19 9 1 58 9 7 32 66 10 12 1 1 2 2 53 1 31 7 1 0 19 65 11 48 31 2 60 1 6 1 53 72 1 1 2 1 6 1 7 1 1 2 2 2 2 18 1 8 1 1 1 6 14 14 30 6 2 6 1 51 73 44 2
split_gain=1003.77 223.608 126.585 123.455 111.307 110.961 109.23 104.544 86.9489 94.8786 92.932 72.8686 59.5446 52.4382 50.583 48.8424 45.0801 42.7363 41.4963 39.7476 55.2258 36.3823 36.081 35.9408 33.9712 31.0738 30.9558 30.4558 30.3685 30.9041 29.9907 37.7584 29.6213 32.0645 28.0738 27.3533 26.184 26.003 24.4069 23.5461 22.5924 22.3149 21.9475 21.7014 42.2946 28.3977 21.6732 21.5971 21.7875 21.3753 21.3089 20.4397 20.1295 19.7575 19.303 19.2274 18.8937 18.0494 17.8484 17.6077 16.8282 16.6284 16.2909 15.9337 15.5044 15.2171 16.0878 14.9966 17.117 14.8697 14.6485 22.9926 14.5531 14.5674 14.4802 14.3864 14.2136 14.1894 14.1412 14.7268 13.3979 18.723 13.3082 13.2686 13.2555 13.1338 12.4481 12.268 18.6364 11.9463 27.4741 11.703 11.5719 11.3864 11.1613
threshold=0.1003875993192196 -4.5941601456433992e-06 -0.15713466703891751 0.85267901420593273 1.0750397443771365 -0.35648250579833979 0.050210084766149528 3.2710436582565312 1.3704309822060169e-05 1.1758973002433779 -0.055393874645233147 -0.56617233157157887 0.12747628986835483 1.0257455706596377 -0.47612193226814264 -0.44504001736640925 -0.087217640131711946 1.5778260231018069 0.033617747947573669 1.6357997655868532 1.4497029781341555 0.56178531050682079 -0.19106600433588025 0.045842988416552551 1.0895282030105593 1.467104993935209e-06 1.4912094473838808 3.2483450240761162e-06 -3.2520399599889056e-06 -9.9544001841422848e-07 1.4049627184867861 0.34859246015548712 0.61669963598251354 -0.94752770662307728 1.4397072792053225 -0.45185342431068415 -1.3927430510520933 0.44128614664077764 -0.80471804738044728 0.14367761462926867 1.6437716484069826 -0.049269597977399819 0.95825901627540599 0.93099674582481395 6.7836199377779857e-06 1.1743034974642798e-05 1.1815109848976137 0.5986597239971162 -0.0017974625225178895 -0.68905159831047047 0.63934224843978893 0.025105042383074764 0.11041774973273279 1.1867301464080813 0.049186935648322112 -0.16609083116054532 0.0016661750269122424 2.1139145246706906e-05 -1.0988982915878294 0.63934224843978893 -1.2173886299133299 0.9518217444419862 1.9542238116264345 0.98586177825927745 0.76781049370765697 1.1209292411804201 1.0003525403590176e-05 1.2011437416076662 -0.066454183310270296 0.31695875525474554 -0.20821515470743177 1.2632279992103579 1.5663555264472964 3.1485499221162176e-06 2.9308899911484336e-06 -3.2520399599889056e-06 1.6278954717563469e-05 1.9612444639205935 0.78204876184463512 -0.019037675112485882 1.1821847558021548 0.863857001066208 0.83018851280212413 -0.26718840003013605 0.88716813921928417 -0.69022247195243824 0.072583775967359557 0.051272498443722732 1.0213389941782227e-05 1.5823482275009157 0.87524500489234935 -0.19904334098100659 1.4435946345329287 0.2062465772032738 4.8415498099529952e-07
decision_type=2 2 2 2 2 2 2 2 2 2 2 2 2 2 2 2 2 2 2 2 2 2 2 2 2 2 2 2 2 2 2 2 2 2 2 2 2 2 2 2 2 2 2 2 2 2 2 2 2 2 2 2 2 2 2 2 2 2 2 2 2 2 2 2 2 2 2 2 2 2 2 2 2 2 2 2 2 2 2 2 2 2 2 2 2 2 2 2 2 2 2 2 2 2 2
left_child=6 3 5 -2 7 11 51 8 9 19 25 16 15 18 32 64 28 -9 35 20 22 26 -4 -20 30 -11 39 54 -3 42 31 47 33 58 50 -13 -31 -32 67 87 -23 -15 59 44 55 -45 -27 -24 61 -22 85 -1 70 57 -21 86 77 -52 -7 -30 -37 94 -12 -25 -10 78 -67 -16 -69 -8 76 -72 73 -36 -34 -71 -38 89 -18 -80 81 -14 -62 -73 -51 -35 -33 -6 -89 -50 -91 -40 -64 -43 -49
right_child=1 2 4 -5 21 14 69 17 12 10 62 13 80 41 38 -17 65 -19 23 27 49 40 24 63 -26 46 -28 -29 29 36 37 43 74 34 72 60 52 -39 91 -41 -42 93 -44 45 -46 -47 -48 48 56 84 53 -53 -54 -55 -56 -57 -58 -59 -60 -61 82 -63 92 -65 -66 66 -68 68 -70 75 71 83 -74 -75 -76 -77 -78 -79 79 -81 -82 -83 -84 -85 -86 -87 -88 88 -90 90 -92 -93 -94 -95 -96
leaf_value=-0.0093456397723447049 0.0060303313604315682 -0.0054248357865516574 0.004850049231465833 -0.010444253452256103 4.878840215635962e-05 0.0088272823624564855 -0.00014874544763657658 0.0023176480210183757 -0.0096702181535825993 -0.010744063210120405 0.00026265163139093891 -0.0018694809267462466 0.00066858830883027669 0.0013130151104773036 0.00069179349782882602 0.00019143196920983513 0.00035043653698416783 -0.010222371229092359 0.0035283489671100962 -0.0016413991922685999 0.00061160280357941714 0.0044924136008368887 -0.0018513573008158179 0.00013282050290412247 0.0038026510175573334 -0.00078099734642110292 0.0057108125331621351 0.0047644220265533367 0.010020828423531433 0.0046454271651272762 -0.00039465434374773246 -0.0081979648769909541 0.002400692456142084 0.0010917080275804339 -0.0017785486180028024 -0.0039040327979811347 0.00087604280478776578 -0.0091723255810976251 0.0013091204700746259 0.0019489921629641553 0.0015318172911167049 -0.0067032617793081938 0.0094736198287492229 0.0014412577473968122 0.00080342254453710489 -0.004702195229531466 -0.0091355950669154175 -0.0018617600678397523 4.6462881157024411e-05 0.0062534991126647101 0.0016513778545848448 -0.0067592518728574313 0.0042838667120446627 -0.0039444384468441908 -0.011564779768038998 -0.002269213463415882 0.0021362531829115096 -0.011599546393102152 0.0042552135844310052 -0.0015553857085433265 0.0028784238328327574 0.0050609321419572131 -0.005793460949029469 -0.0062896594683614759 -0.0055694876995962886 0.0031020308457215149 -0.0072545545245462952 0.00036774202501998701 -0.0069485582859657932 -0.011231311091416797 0.0035459358647256323 0.0047926235062602371 0.0023203212125572736 0.0092347182588169967 0.0065295037168512631 -0.0040343638391331996 -0.0034565992733769234 0.0051386629680524451 -0.0021553594591783081 -0.0089457183226444564 0.002752839472306231 -0.0044681865694846242 8.1377828884485643e-05 -0.0093874625616014069 -0.0014194970077674165 0.004106900174091389 -0.0033454971890618749 -0.0047789692894174979 0.0016156635017148186 0.0019634575463403185 -0.007509577335851305 0.0030930165636558729 0.0034960979897817918 0.0012814182428815767 0.0023777110221947151
leaf_weight=6234 494 411 1577 2356 2784 1140 877 297 1197 1386 3789 9166 1646 466 2992 1157 1674 1367 4623 272 1070 5895 2455 2018 2252 706 996 209 169 3672 631 1211 944 1779 120 687 6047 584 6552 3631 3829 1783 1006 3736 2444 825 461 689 10442 2470 5951 4982 2324 679 504 2313 4965 92 2377 382 2294 1859 733 418 2752 1278 149 568 581 256 3116 82 599 1036 4090 8821 766 452 1523 353 992 1041 4595 204 220 4847 790 1480 566 502 607 6697 143 176 2929
leaf_count=6234 494 411 1577 2356 2784 1140 877 297 1197 1386 3789 9166 1646 466 2992 1157 1674 1367 4623 272 1070 5895 2455 2018 2252 706 996 209 169 3672 631 1211 944 1779 120 687 6047 584 6552 3631 3829 1783 1006 3736 2444 825 461 689 10442 2470 5951 4982 2324 679 504 2313 4965 92 2377 382 2294 1859 733 418 2752 1278 149 568 581 256 3116 82 599 1036 4090 8821 766 452 1523 353 992 1041 4595 204 220 4847 790 1480 566 502 607 6697 143 176 2929
internal_value=3.65864e-06 0.000745529 0.000882652 -0.00758643 3.55734e-05 0.0016588 -0.00616811 -0.000567927 -0.000368672 8.77512e-05 -0.00310956 0.000700679 -0.00313341 -0.00038218 0.00281147 -0.00522927 0.00192703 -0.00798406 4.61677e-05 0.000589477 0.000720002 0.00203886 0.000402737 0.00197497 0.000225778 -0.00770861 0.00071374 -0.00536599 0.00261957 0.00280623 1.0405e-05 0.000166045 0.00371448 0.00316185 0.00256048 -0.00076722 0.00241788 -0.00462186 0.00158291 0.000124291 0.00332718 -0.00458292 0.00684137 -0.00127048 -0.00234938 0.000328448 -0.0040913 0.000819108 0.00111134 0.00419967 0.00209085 -0.00819821 0.00176491 0.000900377 -0.00809964 -0.00413508 0.000580155 0.00144587 0.00574138 0.00201861 0.000566518 0.00275616 -0.000590432 -0.000973486 -0.00681675 -0.000602563 0.00201201 -0.000427267 -0.00333744 -0.00387943 0.0011911 0.00279818 0.00612588 0.00809038 0.00575651 -0.00423977 0.000388043 -6.37683e-05 -0.00165409 -0.00344124 -0.000223353 -0.00132335 0.00101334 -0.00531679 0.00562538 0.00329793 -0.00628745 -0.00124768 -0.00301012 -0.000268198 -0.0032257 0.00221116 -0.00427251 -0.00598533 0.00156978
internal_weight=197302 176132 173282 2850 82856 90426 21170 63675 62011 53226 7218 49382 8785 26226 41044 5106 23156 1664 23801 46008 45023 19181 41263 7059 39686 2553 9457 985 18179 17768 37434 36219 23654 18620 15103 16742 16211 1215 17390 8461 9724 2425 1557 11319 6758 4561 1167 24900 22445 3760 13348 11216 12539 6722 776 4314 16968 6043 3517 551 7576 5477 4665 2436 3949 4977 1427 4141 1149 9954 10215 3402 1755 1156 5034 9077 6813 12003 3550 1876 3679 2687 6889 286 2690 6626 2001 4830 2046 11551 1109 13249 876 1959 3618
internal_count=197302 176132 173282 2850 82856 90426 21170 63675 62011 53226 7218 49382 8785 26226 41044 5106 23156 1664 23801 46008 45023 19181 41263 7059 39686 2553 9457 985 18179 17768 37434 36219 23654 18620 15103 16742 16211 1215 17390 8461 9724 2425 1557 11319 6758 4561 1167 24900 22445 3760 13348 11216 12539 6722 776 4314 16968 6043 3517 551 7576 5477 4665 2436 3949 4977 1427 4141 1149 9954 10215 3402 1755 1156 5034 9077 6813 12003 3550 1876 3679 2687 6889 286 2690 6626 2001 4830 2046 11551 1109 13249 876 1959 3618
is_linear=0
shrinkage=0.03


Tree=6
num_leaves=96
num_cat=0
split_feature=0 1 0 9 5 12 14 44 45 32 12 40 1 26 1 14 22 4 1 48 13 30 1 32 9 20 29 1 8 1 12 22 21 1 64 1 1 7 14 1 23 65 5 1 9 7 1 22 43 5 4 4 9 1 46 1 58 4 0 1 1 1 5 41 1 4 1 1 4 1 14 5 12 5 33 32 1 1 23 46 34 30 13 1 26 5 20 26 20 1 21 17 20 7 7
split_gain=946.583 121.494 119.406 99.847 77.866 73.5976 67.0783 62.9989 85.686 75.9201 71.2242 71.0959 70.8645 64.2249 61.4859 52.5936 49.2979 48.0295 41.711 39.2781 38.1473 37.8742 37.6921 37.3045 35.3459 66.9042 35.2193 33.2995 52.4314 45.7592 45.3594 34.9761 31.7502 31.347 30.0167 28.871 26.7997 38.18 25.0283 27.0465 24.4528 24.0499 23.5765 23.5572 23.1025 43.3384 22.4475 21.6095 21.5814 21.3001 21.242 20.9138 19.6067 33.2844 25.0291 23.3107 19.2345 22.106 19.2319 18.8435 18.7856 18.3192 17.598 16.9542 16.69 16.6138 56.5854 18.3614 15.2259 15.1235 15.0873 14.8476 14.8024 14.634 14.6245 14.4661 14.305 14.216 14.0735 13.845 14.1953 13.7518 29.5504 13.4509 13.3888 16.1444 13.2554 13.2023 13.1284 13.1268 12.6485 12.6247 12.6055 12.4234 12.0636
threshold=0.10907729342579843 0.41744799911975866 0.050210084766149528 -1.3381546735763548 140.00000000000003 -0.52051648497581471 1.5708004832267763 0.65208089351654064 2.8778874874114995 0.88326746225357067 0.42515183985233312 0.18539280444383624 1.1702257394790652 -0.20046152174472806 0.70059299468994152 0.23117246478796008 -0.64963123202323902 74.639804840087905 1.5778260231018069 0.50684648752212536 0.09598413854837419 1.0000000180025095e-35 1.4497029781341555 0.17217529565095904 0.18455834686756137 0.10228248313069345 0.7661305069923402 1.2504929900169375 0.17295389622449878 1.0549467206001284 -1.3705319762229917 -0.16992479562759397 1.0038294792175295 0.89166399836540233 0.72346106171607982 1.6177572607994082 1.0633447170257571 0.16996019333601001 -0.91515627503395069 1.1311982870101931 -0.76864445209503163 -0.14595576375722882 119.50000000000001 0.10407574847340585 -0.55846574902534474 -0.28329434990882868 1.000120282173157 0.70869764685630809 0.82749736309051525 140.00000000000003 59.980134963989265 68.462463378906264 0.71649360656738292 0.92805975675582897 1.0293132662773135 0.71237674355506908 1.8977566361427309 85.289531707763686 0.025105042383074764 0.10407574847340585 1.1573680043220522 0.91855075955390941 106.50000000000001 1.5961769819259646 0.41744799911975866 73.311779022216811 0.87790599465370189 0.80174851417541515 85.818656921386733 1.6177572607994082 2.1001656055450444 140.00000000000003 -0.74457684159278859 106.50000000000001 -0.27054221928119654 -1.1365259885787962 1.3858817815780642 2.0479371547698979 -0.82982203364372242 1.1804662346839907 0.48320369422435766 0.72740542888641369 -0.72189608216285694 1.6177572607994082 0.009322945028543474 120.50000000000001 0.59770897030830394 -0.13329938054084775 0.46009053289890295 1.1865925192832949 0.90395188331604015 -0.77168691158294667 -0.55787527561187733 0.056728253141045577 -0.13949510455131528
decision_type=2 2 2 2 2 2 2 2 2 2 2 2 2 2 2 2 2 2 2 2 2 2 2 2 2 2 2 2 2 2 2 2 2 2 2 2 2 2 2 2 2 2 2 2 2 2 2 2 2 2 2 2 2 2 2 2 2 2 2 2 2 2 2 2 2 2 2 2 2 2 2 2 2 2 2 2 2 2 2 2 2 2 2 2 2 2 2 2 2 2 2 2 2 2 2
left_child=2 5 58 23 7 6 21 8 9 10 13 34 14 22 63 50 33 84 -10 56 41 71 27 47 25 -11 38 29 31 30 40 -29 44 74 36 -24 -12 89 39 -15 -5 61 -8 -44 68 78 -28 -3 -37 59 -14 87 54 55 70 -54 57 -19 -1 -7 72 -18 -32 -9 -4 66 -40 -67 -31 -62 75 73 -26 -2 -13 76 -6 -41 -46 80 -64 -77 -83 -17 86 -86 -16 -27 -48 -38 -30 -68 -25 -85 -90
right_child=1 3 64 4 52 49 42 12 18 24 11 16 15 26 17 83 20 19 -20 -21 -22 -23 35 92 60 51 46 28 90 32 62 -33 -34 -35 -36 48 37 -39 65 77 -42 -43 43 -45 45 -47 88 -49 -50 -51 -52 -53 53 -55 -56 -57 -58 -59 -60 -61 69 -63 79 -65 -66 67 91 -69 -70 -71 -72 -73 -74 -75 -76 81 -78 -79 -80 -81 -82 82 -84 93 85 -87 -88 -89 94 -91 -92 -93 -94 -95 -96
leaf_value=-0.0090653607371391689 0.0089394674014765772 0.0040259838029168549 -0.00050292833466147749 -0.0074364788525350268 0.0023144789206783018 0.0031058383017696675 0.0080990463991959891 0.0034430980436999212 0.0014777222641774255 -0.00088729297941788287 -0.0023578899077587017 0.00093947571776069631 -0.0053294036011281073 0.0010370164356187858 -0.00019808502974754939 0.0021404937008777229 -0.0041283276381735186 -0.0007551342299740091 -0.010188086120204609 0.00048392962208118406 0.00024336440252828049 0.0054064232298283487 0.0039229827195998946 0.0010678513870882851 -0.0054887216578877992 -0.0063952137112282285 0.001285342247370069 -0.0019165439554642396 0.003715986801617843 0.0037966713557803507 0.0040216630766435786 -0.0070702895128397208 -0.00819613411149934 -0.0019662758173831871 0.0022405242240136651 0.00049171808492587225 -0.0071005999005110173 0.0039661906316095646 0.0041043196637606302 0.0085353043877926631 -0.001346432826333264 -0.0056811890705292202 -0.0019231482461441502 -0.011739197718108009 0.00087554378798870033 0.0043221141235768017 0.0070094752056171338 0.0098731671178266395 -0.0092522486351147484 0.0091206705003614146 0.0068710160756213518 -0.0079571698835710462 0.0076073970434357638 0.0090198711499208661 -0.0052882723850093977 -0.0020310707555956202 -0.0084096526183653625 -0.0059664787959236524 -0.0065565556708929293 0.0055736390599187332 0.0029845809251137661 0.0035367515222975241 1.0231908942269733e-05 -0.0014934952938988396 -0.0040257872807468254 -0.0018821996774044314 -0.0019573547330484242 0.00088716454874374821 0.010151233296917835 -0.0038580484142622506 -0.0095976436677677867 0.007968585906715956 -0.00065143111027411032 -0.00061230092564585714 -0.011020682994453235 0.0041535623868863922 -0.0080084585055413809 -0.0008896699568556089 -0.004460218417965474 -0.0049545148431479899 -0.0025426156136599248 -0.012310912045681436 0.0031559131439928322 -0.0077597278922796253 0.0028912203966188488 -0.00024102822939703426 -0.0066873629616756485 0.00098703205581865969 -0.0017218789356803377 -0.00079942398476605229 -0.0077063502834495545 0.00080856303236632077 -0.0057918995604224841 0.002253776054782101 0.0060318667189264664
leaf_weight=6234 148 6482 1374 1250 299 7699 88 5464 364 3760 4894 99 132 1272 1564 4522 587 1450 1131 2165 3160 1751 3380 2400 773 421 1537 3320 1239 2223 853 1843 252 616 4035 1494 368 1926 5099 1069 1130 2786 356 578 771 1845 2077 623 235 778 3448 2661 355 1179 367 613 898 1480 4982 4373 1695 534 19782 706 10198 3054 2173 7304 400 349 85 206 2148 3836 1248 4039 200 166 1048 574 2174 147 436 248 3356 2649 344 449 347 1523 92 4681 266 200 373
leaf_count=6234 148 6482 1374 1250 299 7699 88 5464 364 3760 4894 99 132 1272 1564 4522 587 1450 1131 2165 3160 1751 3380 2400 773 421 1537 3320 1239 2223 853 1843 252 616 4035 1494 368 1926 5099 1069 1130 2786 356 578 771 1845 2077 623 235 778 3448 2661 355 1179 367 613 898 1480 4982 4373 1695 534 19782 706 10198 3054 2173 7304 400 349 85 206 2148 3836 1248 4039 200 166 1048 574 2174 147 436 248 3356 2649 344 449 347 1523 92 4681 266 200 373
internal_value=3.52705e-06 0.000754432 -0.00574658 0.000471135 0.000273218 0.00296616 0.000482057 0.000108254 -0.00022181 -0.00012217 0.000165006 -0.00134082 0.00136018 0.000613871 0.00038597 0.00364708 -0.00337706 -0.00071995 -0.00734954 -0.00274542 -0.0022076 0.00170383 -0.000110941 0.00340611 -0.00234391 -0.00367311 0.00170542 -0.000429956 -0.00238982 -3.58201e-05 -0.000604705 -0.00375827 0.00220503 -0.00758073 0.000102074 0.00231077 -0.000888759 0.000995148 0.00126946 0.0041104 -0.00454854 -0.00418906 -0.00660968 -0.00800985 0.00262441 0.0010847 0.00420015 0.00454133 -0.00084181 0.00431192 0.00641844 -0.00663741 0.00320439 0.00563946 0.00226459 0.0015121 -0.00457114 -0.00338976 -0.00795235 0.00400056 -0.000391318 -0.000477192 -0.000202933 0.00287793 -0.00360766 0.000949895 0.00171187 7.04268e-05 0.00477272 0.00181362 0.00279886 0.00015467 -0.00193443 -0.000253159 -0.0101416 0.00300829 -0.00183842 0.00726908 -0.00220013 -0.000363221 -0.00024275 0.00353212 -0.000772711 0.00164902 0.000814368 0.00150986 -0.00137384 -0.00259177 0.00579983 -0.00203188 0.00291609 -6.86619e-05 0.000379591 -0.00329926 0.00230057
internal_weight=197302 174514 22788 154701 144930 19813 6963 137210 108584 107089 94833 21776 28626 73057 20076 8550 9030 13906 1495 5993 7067 5941 43905 9771 12256 7291 29152 38796 6494 32302 25763 5163 6539 1963 12746 5109 8711 3817 24818 2507 2380 3907 1022 934 6287 3664 4334 7105 1729 12850 3580 3531 7720 2147 5573 968 3828 2930 11216 12072 4965 1121 23383 6170 11572 22311 11953 10358 2623 2044 5206 4190 2921 3984 1347 5121 499 1235 1819 22530 21956 4622 583 4970 7913 6005 1908 870 2797 1891 1331 6854 2666 448 720
internal_count=197302 174514 22788 154701 144930 19813 6963 137210 108584 107089 94833 21776 28626 73057 20076 8550 9030 13906 1495 5993 7067 5941 43905 9771 12256 7291 29152 38796 6494 32302 25763 5163 6539 1963 12746 5109 8711 3817 24818 2507 2380 3907 1022 934 6287 3664 4334 7105 1729 12850 3580 3531 7720 2147 5573 968 3828 2930 11216 12072 4965 1121 23383 6170 11572 22311 11953 10358 2623 2044 5206 4190 2921 3984 1347 5121 499 1235 1819 22530 21956 4622 583 4970 7913 6005 1908 870 2797 1891 1331 6854 2666 448 720
is_linear=0
shrinkage=0.03


Tree=7
num_leaves=96
num_cat=0
split_feature=3 2 10 1 13 3 1 1 35 1 35 4 1 2 8 37 2 6 7 7 19 19 29 25 1 1 17 2 1 10 1 51 1 4 1 1 4 2 4 2 8 6 39 30 22 1 6 2 2 40 4 2 1 2 2 37 1 14 2 4 14 1 2 2 4 17 34 14 56 1 1 1 1 2 29 2 7 4 19 2 3 8 32 2 49 2 2 53 1 65 2 2 2 1 6
split_gain=890.392 204.268 114.984 114.185 102.078 84.7363 83.7217 109.622 95.0697 86.5439 89.7126 75.2381 70.3368 58.1577 89.192 63.3834 57.8747 53.3917 48.5612 44.8748 50.3903 41.055 40.6536 37.2027 38.4812 37.1916 35.4598 31.758 31.2494 30.6107 28.1208 27.9666 27.2546 26.8792 25.5318 24.8556 47.8474 47.4695 54.8072 39.4004 36.9844 28.4215 33.0011 26.1112 25.4152 25.0878 24.318 23.8405 23.4376 21.9653 22.8882 21.4939 21.4513 21.0524 21.0167 20.7636 23.1318 40.4462 20.9825 19.7033 18.2654 34.5578 19.1714 17.5968 16.9706 16.8184 16.5783 15.8771 15.6351 15.3083 15.1937 15.1333 14.9957 14.756 14.7541 14.4443 14.2866 13.4894 13.3319 13.0413 12.9685 12.5664 12.5466 13.9013 12.5045 12.4107 12.4018 12.3697 11.9324 11.929 11.8185 11.3015 11.2856 13.6355 26.916
threshold=11.500000000000002 -4.5941601456433992e-06 -0.14740318804979322 0.85267901420593273 -0.21069345623254773 4.5000000000000009 1.6357997655868532 1.4497029781341555 0.59875363111495983 1.0000000180025095e-35 0.5444769859313966 94.730949401855483 1.1311982870101931 1.3704309822060169e-05 1.1758973002433779 0.7486557960510255 5.2874097491439906e-06 0.92899793386459362 -0.50078490376472462 -0.077532801777124391 0.7829655408859254 0.43236438930034643 0.88819256424903881 0.41929399967193609 1.3646162748336794 1.2392797470092776 -0.44504001736640925 1.6278954717563469e-05 0.66200000047683727 -0.79566720128059376 0.94073373079299938 -0.10763699188828467 0.73042824864387523 60.890478134155281 0.93099674582481395 0.9338970184326173 83.867813110351577 2.535724888730329e-06 67.466724395751967 4.0383749819739032e-06 0.1841220706701279 0.37700361013412481 1.1237587332725527 0.59050393104553234 0.63186910748481762 0.70059299468994152 1.3403603434562685 3.0786300158069939e-06 3.2987999247779958e-06 -0.093650463968515382 68.682407379150405 9.3260346147872059e-06 0.49575850367546087 2.9308899911484336e-06 8.3835999475923028e-07 0.1812945753335953 1.0887307524681094 -0.67684164643287648 2.3921350020827963e-06 75.422924041748061 1.5708004832267763 0.87250950932502758 2.6953170163324106e-05 6.6803499976231261e-07 61.529792785644538 -0.53365623950958241 0.30295276641845709 0.88716813921928417 -0.68209952116012562 0.31695875525474554 0.90005275607109081 0.76389324665069591 1.0158119797706606 3.0786300158069939e-06 -0.29309543967247004 3.1887250315776332e-06 0.18299893289804461 76.008281707763686 -0.26055842638015742 -3.2520399599889056e-06 7.5000000000000009 -1.1503180265426634 -1.1510201692581175 2.1958970137347936e-05 -0.2526856511831283 1.3279050108394588e-06 4.4018000266987661e-07 -0.98523259162902821 0.84138426184654247 1.1029831767082217 -2.8729249379466633e-06 2.1139145246706906e-05 2.1958970137347936e-05 0.98345249891281139 0.2849229127168656
decision_type=2 2 2 2 2 2 2 2 2 2 2 2 2 2 2 2 2 2 2 2 2 2 2 2 2 2 2 2 2 2 2 2 2 2 2 2 2 2 2 2 2 2 2 2 2 2 2 2 2 2 2 2 2 2 2 2 2 2 2 2 2 2 2 2 2 2 2 2 2 2 2 2 2 2 2 2 2 2 2 2 2 2 2 2 2 2 2 2 2 2 2 2 2 2 2
left_child=5 3 4 -2 11 -1 7 9 75 -4 13 19 28 14 23 16 30 26 59 20 27 29 66 35 34 -24 60 32 -13 49 -16 52 77 48 51 37 41 38 -11 78 -40 47 68 44 45 -39 -32 90 -34 50 -6 -25 -31 -23 -14 56 63 58 -58 -9 61 -15 -62 65 -49 -35 81 -20 -43 86 -50 -42 -65 -57 -55 -8 -10 87 -38 -71 -81 -21 -54 -84 -47 -74 -7 -3 -28 -76 -37 -88 93 -83 -95
right_child=1 2 6 -5 21 69 8 18 76 10 -12 12 54 17 15 -17 -18 -19 67 22 -22 53 25 24 -26 -27 88 -29 -30 31 46 -33 33 55 -36 36 39 43 40 -41 71 42 -44 -45 -46 84 -48 64 70 -51 -52 -53 82 74 -56 73 57 -59 -60 -61 62 -63 -64 72 -66 -67 -68 -69 -70 79 -72 -73 85 -75 89 -77 -78 -79 -80 80 -82 92 83 -85 -86 -87 91 -89 -90 -91 -92 -93 -94 94 -96
leaf_value=-0.0084043383484958302 0.0057567085745578363 0.0046651422994617988 0.0042520955359757039 -0.0099976976258756827 0.0061445854000517384 0.0034685017092106864 -0.0032136695958915038 -0.0014879324562989025 -0.0097730129061402004 0.0024947968008732654 0.0015299845657719723 0.00081594584647564489 0.010874793650471472 0.00058752431940185573 -0.010263707305110559 0.0016281820592619143 0.00083175131177460357 0.00098716818333353332 0.0057451307642956157 0.0060236739338496541 0.004161352746848538 0.0019898675424523666 0.0018077939739939905 -0.0041227789502159889 -0.010400165983563605 -0.0072176854263329574 0.0020263732761851934 -0.0028712164955399955 -0.0069141367050091504 0.0035085834121197641 0.00021257172393673971 0.0027783892865832446 0.00019419996700390603 -0.0059929728797079168 0.0037996793185602947 -0.0015998865421314994 0.010146662068556354 -0.0022164331908031331 -0.0021112912378693518 -0.0020928851080704693 -0.0015544718039049968 -0.0066178701965560844 0.0056857758774551187 0.003621726139620788 -0.0041906912777553585 0.0028592084667068496 -0.0090768816909115573 -0.0037989787242829229 0.0022943848301656545 0.0010966086787308142 0.0029366430445613894 0.0029381060084563379 -0.0035688361625631332 0.0026558473746025992 0.00034045100054127603 -0.0041926526377372899 0.0072734717113037669 0.00014396451647905669 0.0023628667884586898 0.0036342355617521079 -0.0095214000933557669 -0.0065065880883792542 0.0037492060492623526 0.0010164028253515462 0.00087641611639647198 -0.00055359796502818146 0.00031209173887275217 0.0017359843156679756 -0.0016855443900396826 -0.010968170565758216 -0.0052250610441559623 -0.0086059602243653693 -0.0093360326044571902 5.1017790137091866e-05 0.0069040656004917987 0.0034945077280357697 0.0012104760542228493 0.00013557785234343716 0.0043339964738021595 -0.0057902617783265218 -0.0036256993240057723 0.0017923281664557005 0.00025693241224518664 -0.011246654626447708 -0.00027459975595415571 -0.00097903977920524819 -0.0050044690205047005 0.001384404293293971 -0.0030451236078346696 0.0026788154353576646 0.0028005314004288222 0.0067702781904269661 0.0081363254585577281 0.0045433535260993837 -0.0030048091010077115
leaf_weight=8133 500 2222 3712 2375 3328 373 421 1975 1761 1788 15737 585 318 833 1984 1205 814 1977 4628 1265 2988 1995 937 2304 528 729 712 2957 2398 1520 544 7307 1907 802 618 606 904 1929 5042 470 343 751 467 2349 1106 3379 473 1113 274 2690 5038 465 976 1271 365 1377 1451 4262 1705 1025 1457 2389 104 6327 1870 1408 2102 1103 2505 293 1996 1378 223 1585 4160 910 113 1991 592 4385 5810 6423 6229 94 1733 555 543 1938 1004 707 5752 83 355 4708 466
leaf_count=8133 500 2222 3712 2375 3328 373 421 1975 1761 1788 15737 585 318 833 1984 1205 814 1977 4628 1265 2988 1995 937 2304 528 729 712 2957 2398 1520 544 7307 1907 802 618 606 904 1929 5042 470 343 751 467 2349 1106 3379 473 1113 274 2690 5038 465 976 1271 365 1377 1451 4262 1705 1025 1457 2389 104 6327 1870 1408 2102 1103 2505 293 1996 1378 223 1585 4160 910 113 1991 592 4385 5810 6423 6229 94 1733 555 543 1938 1004 707 5752 83 355 4708 466
internal_value=3.40323e-06 0.000673117 0.000803601 -0.0072557 0.0015341 -0.00606109 -6.78834e-06 0.000184516 -0.00475928 -0.000205931 -0.000452211 0.000744568 -0.0034106 -0.00105809 -0.000610436 -0.00436783 -0.00626158 -0.00332908 0.00335611 0.00103235 0.000432164 0.00279982 0.00230313 -0.000113756 -0.00288264 -0.00214545 -0.00464198 9.40662e-05 -0.00539865 0.00224001 -0.00818487 0.00140614 0.000386292 -7.25813e-05 -0.00170529 0.000204504 0.00111652 -0.000515207 -0.00217423 0.00547735 -0.003409 0.000459515 -0.00175632 0.000836542 3.28058e-05 0.000697234 -0.00411723 0.00134286 -0.00225788 0.0034558 0.00421393 -0.00293578 0.000268791 0.00466978 0.0052626 0.000391069 0.000800932 0.00205062 0.00462374 0.000263397 -0.00596886 -0.00467328 -0.00863359 -0.000194488 -0.000869417 -0.00253116 0.00278715 0.0049744 -0.00282655 -0.00440085 -0.00431621 -0.00720402 0.000532838 -0.00192331 0.00553989 0.00137105 -0.00911014 0.00216662 0.00785532 -0.0047388 -0.00455766 0.00318067 -0.000406664 8.24138e-05 0.00179714 -0.00339222 -0.000850423 0.00313816 -0.000940957 0.00629164 0.00238074 -0.00342669 0.00287881 0.0027165 0.00386262
internal_weight=197302 177682 174807 2875 91934 19620 82873 79668 3205 70937 67225 56619 3666 51488 43012 5020 3815 8476 8731 52953 35968 35315 16985 37992 3915 1666 6499 32980 2983 27182 3001 16126 30023 23872 3387 34077 15030 19047 8551 1966 6763 13064 3723 10496 8147 7041 1017 9341 4177 11056 8366 2769 8819 8133 683 19695 16733 7418 3156 3000 4783 3222 1561 9315 2983 2210 15319 5731 3256 11487 2270 1721 7105 2962 6138 1331 1874 6151 1496 10488 10195 13217 7299 6323 5112 778 999 4160 1716 4867 6358 626 11952 11597 5174
internal_count=197302 177682 174807 2875 91934 19620 82873 79668 3205 70937 67225 56619 3666 51488 43012 5020 3815 8476 8731 52953 35968 35315 16985 37992 3915 1666 6499 32980 2983 27182 3001 16126 30023 23872 3387 34077 15030 19047 8551 1966 6763 13064 3723 10496 8147 7041 1017 9341 4177 11056 8366 2769 8819 8133 683 19695 16733 7418 3156 3000 4783 3222 1561 9315 2983 2210 15319 5731 3256 11487 2270 1721 7105 2962 6138 1331 1874 6151 1496 10488 10195 13217 7299 6323 5112 778 999 4160 1716 4867 6358 626 11952 11597 5174
is_linear=0
shrinkage=0.03


Tree=8
num_leaves=96
num_cat=0
split_feature=3 10 9 13 3 15 20 18 1 35 12 20 42 9 20 1 1 7 7 9 35 9 71 12 28 5 33 25 26 1 1 1 1 58 1 9 26 26 1 17 56 5 32 12 6 19 76 1 32 7 1 1 5 33 1 10 12 13 51 10 1 1 1 41 18 5 1 49 61 5 35 13 39 16 5 5 3 1 6 37 22 33 1 18 5 1 58 20 5 1 7 21 63 20 33
split_gain=863.143 116.27 110.069 103.272 93.4377 80.3813 67.2553 53.4342 49.7817 77.4533 50.7059 53.1023 47.9285 46.3345 49.7543 36.3555 39.105 42.9532 33.3418 31.7977 31.7579 36.3595 31.6686 35.5631 29.7836 28.8962 28.6938 27.9572 25.4675 23.623 42.3522 30.6824 27.6745 22.4596 22.4545 29.6306 24.4841 21.1069 20.8473 24.0993 20.2827 20.0889 19.6806 19.3617 18.9991 18.4562 18.4177 18.0565 19.8945 17.5323 16.4104 20.4098 16.0003 15.7537 15.3925 14.8689 14.3943 13.989 13.5955 13.5079 18.0704 14.2595 13.3865 12.9416 12.9042 12.8974 12.8855 15.3823 12.7039 12.6089 12.5993 12.3549 12.2808 12.0453 12.6734 11.9286 11.8747 11.6604 11.3472 12.4508 11.3075 11.2898 15.9946 11.0712 10.8624 10.5807 11.684 11.0612 10.469 10.3608 10.2663 10.2369 10.1846 13.7547 10.1229
threshold=12.500000000000002 -0.37461826205253596 0.93087583780288707 -0.33150927722454065 5.5000000000000009 1.1039805412292483 -0.33278909325599665 0.50992709398269664 1.6357997655868532 0.63806670904159557 -1.3705319762229917 -0.26773668825626368 0.40818862617015844 0.074654679745435729 -0.096514213830232606 -0.19106600433588025 1.4497029781341555 -0.60867851972579945 0.056728253141045577 -1.3927430510520933 0.79290205240249645 -0.64316540956497181 -0.18016316741704938 -0.39097248017787928 -0.47612193226814264 106.50000000000001 0.9965437948703767 0.031648831441998489 -0.44502285122871393 1.0549467206001284 1.2632279992103579 0.73042824864387523 1.4347777366638186 0.28493441641330725 1.4446432590484621 -0.94752770662307728 0.16144225746393207 -0.23308547586202619 1.4599044919013979 -0.27531071007251734 1.564020097255707 140.00000000000003 -0.8769894242286681 -1.1677880287170408 -0.68799439072608937 -0.6323733627796172 0.41600720584392553 0.74200475215911876 -0.31298917531967158 0.62068539857864391 1.4049627184867861 0.94073373079299938 140.00000000000003 0.64380970597267162 1.3580982685089114 -0.8798030912876128 2.0209623575210576 -0.51756069064140309 -0.41290320456027979 1.4075130820274355 1.1573680043220522 0.51525974273681652 1.5909727811813357 1.4606830477714541 0.24817986041307452 140.00000000000003 1.0000000180025095e-35 -0.17309511452913282 -0.59834423661231984 100.50000000000001 0.20175853371620181 0.68134260177612316 1.4878541827201845 1.5447351336479189 140.00000000000003 106.50000000000001 3.5000000000000004 1.3502512574195864 0.25823344290256506 0.76908332109451305 -0.90678170323371876 0.59600523114204418 0.9792652726173402 -0.17159018665552137 140.00000000000003 1.6023640036582949 3.0352406501770024 0.56574577093124401 121.50000000000001 -0.22797899693250653 -0.93672570586204518 0.78700605034828197 0.70488962531089794 0.41844353079795843 0.29046070575714117
decision_type=2 2 2 2 2 2 2 2 2 2 2 2 2 2 2 2 2 2 2 2 2 2 2 2 2 2 2 2 2 2 2 2 2 2 2 2 2 2 2 2 2 2 2 2 2 2 2 2 2 2 2 2 2 2 2 2 2 2 2 2 2 2 2 2 2 2 2 2 2 2 2 2 2 2 2 2 2 2 2 2 2 2 2 2 2 2 2 2 2 2 2 2 2 2 2
left_child=4 3 5 6 66 8 19 18 10 -10 11 -3 38 14 53 -12 20 -18 37 90 21 28 23 42 34 -21 45 40 65 31 84 68 -32 -16 35 63 73 50 39 56 -9 59 54 -24 -41 77 92 -46 -49 -35 51 -8 85 -7 -23 -6 -4 -22 -26 60 61 -14 -36 -5 -38 69 67 -1 -27 -17 -29 -63 -30 74 75 -37 -68 80 -47 -80 94 -71 -83 -20 -31 86 -15 -87 -50 -70 -2 -75 93 -45 -25
right_child=1 2 12 24 55 13 7 27 9 -11 15 -13 41 52 33 16 17 -19 83 25 57 22 43 26 58 29 -28 70 72 30 32 -33 -34 49 62 36 64 -39 -40 44 -42 -43 -44 46 47 78 -48 48 88 -51 -52 -53 -54 -55 -56 -57 -58 -59 -60 -61 -62 71 -64 -65 -66 -67 76 -69 89 81 -72 -73 -74 91 -76 -77 -78 -79 79 -81 -82 82 -84 -85 -86 87 -88 -89 -90 -91 -92 -93 -94 -95 -96
leaf_value=-0.0091476864499315195 0.0020417130011097578 0.0017808038141676073 -0.001385816846588971 0.0048926506634696595 -0.0015842391068382148 0.00070563291764815146 -0.00090058018901970972 0.00045779323734314737 0.0011062461035465339 -0.0092192660100423943 0.0043467145657258488 -0.0080314814814358843 0.0045852934922732741 -0.00024263080130084577 -0.002755526817028519 0.0071433288677297717 -0.00031579065789709827 0.0053093290092277963 0.0035371060871219558 0.0069926189279953255 -0.0015316171950313154 -0.0014415982537303439 -0.0046131349112156286 -0.0012746116505636268 0.00052465399135117805 0.0035661055131726597 -0.0083956221611355859 -0.0031000118776069664 0.002045954385352414 0.0036918603393999373 -0.0047013244568147308 -0.0013053278274258791 0.0016727069439758137 -0.0091354689238823499 0.0078802057436856907 0.0073026136636708478 0.0050705690410048406 0.00074701228778319129 0.0035348627245126493 0.0041513675898647018 -0.0080178759566871295 0.0076667121870307676 0.0012202776897571601 -0.0010147213445811378 0.0029655418660757475 -0.0020579227201777623 0.0014276320342073957 -0.004658056587583473 -0.00057185459266954712 -0.0023989699336184789 0.0015411275747941214 -0.0053102128333643653 0.0069484987032632705 -0.0063125150751590069 -0.0096746656903815859 -0.0043811272565684413 -0.0087835395029036405 0.0023268460228770831 0.0025688206559087139 0.0013071095609692078 0.0051116106447269254 -0.00064659325722623868 0.0021579953947492726 0.010316814016410143 0.0020793373265830832 0.0047155964848885346 -0.0089016835128257546 0.0007477126364225492 0.0039123414142105562 -7.6710670414211819e-05 -0.0069955971357734932 0.0033007793511496378 0.0073717942634846647 0.00062679052998481147 0.0063523455816594989 0.0011997560583978013 -0.0066123714485593638 -0.0080063283436761865 -0.0052130778236004396 -0.00018591786161352425 0.00074482801097474293 -0.0051926958015560227 0.0015696077026997202 -1.1374278835259525e-05 0.010650731942612009 -0.0094502932437424067 -0.0062527193331905293 -0.00055167774336789793 0.0039101604464726212 9.0070632193092211e-05 0.0052718725983935105 -0.0088177329381845526 -0.0034095059787961736 0.0016656822755354731 -0.0099127302663716468
leaf_weight=245 1375 773 3936 3623 2096 1404 1978 1832 1268 1347 1815 1382 1494 3700 917 195 2351 2541 2858 739 993 1003 822 396 5156 2066 807 1387 4628 4537 990 6320 1603 2420 1579 299 3858 4386 1688 1417 293 795 3682 6876 1546 3117 5956 940 2200 408 878 1808 224 360 255 9378 250 5651 6779 3932 3391 1724 482 445 1962 470 6119 330 765 7769 1632 1215 424 240 508 6865 3113 179 3194 515 2389 959 467 1094 210 269 314 235 594 3803 2505 179 1089 2297 175
leaf_count=245 1375 773 3936 3623 2096 1404 1978 1832 1268 1347 1815 1382 1494 3700 917 195 2351 2541 2858 739 993 1003 822 396 5156 2066 807 1387 4628 4537 990 6320 1603 2420 1579 299 3858 4386 1688 1417 293 795 3682 6876 1546 3117 5956 940 2200 408 878 1808 224 360 255 9378 250 5651 6779 3932 3391 1724 482 445 1962 470 6119 330 765 7769 1632 1215 424 240 508 6865 3113 179 3194 515 2389 959 467 1094 210 269 314 235 594 3803 2505 179 1089 2297 175
internal_value=-2.79226e-06 0.000686535 2.2801e-05 0.00158133 -0.00570947 -0.000546019 0.000622198 -0.000766988 -0.000160939 -0.00421546 7.03079e-06 -0.00451342 0.00174434 -0.00301673 -0.0048875 0.000166832 3.85395e-05 0.00260698 0.000257083 0.00163403 -0.00019291 -0.000463782 -0.00102286 -0.00199425 0.00287282 0.00117346 -0.00296064 -0.00335453 0.000764114 0.000960889 0.00232039 0.000190329 -0.000762628 -0.00684334 0.00357943 0.00323874 0.00257949 -0.000746857 0.000434893 -4.64866e-05 -0.000717292 0.00305559 0.000113377 -0.00012704 0.00106953 -0.0025189 0.000100876 0.000241197 -0.000887756 -0.00816597 -0.0021514 -0.00300809 -0.000842221 -0.000732169 -0.00312317 -0.00387057 -0.00183161 0.00174988 0.00168596 0.00274252 0.00346337 0.00220082 0.00654536 0.00549078 0.00406325 -0.000123419 -0.00785972 -0.00348568 0.00161516 -0.00036658 -0.00520911 0.000986409 0.00249568 0.00151145 0.00178219 0.00145643 -0.00813133 -0.000614489 -0.00339423 -0.00451553 -0.000162378 -0.000527363 -0.00297902 0.0025553 0.00400407 -0.00123138 -0.000715657 -0.00531972 0.00038313 0.000731616 0.00412881 -0.0034307 -0.000669293 -0.000343308 -0.00394738
internal_weight=197473 176192 101158 75034 21281 76036 43059 18146 65785 2615 63170 2155 25122 10251 5509 61015 59200 4892 13002 24913 54308 47664 32752 15712 31975 21033 10772 5144 14912 20294 7340 12954 2593 3745 20040 17979 13911 9050 12571 10883 2125 12551 4940 17040 6697 9965 16218 5280 3734 2828 4664 3786 4742 1764 1258 11474 4186 6644 11935 11756 7824 4433 2061 4068 5820 9860 9807 575 6634 9390 3019 2939 5052 8091 7672 7164 9232 3139 6826 3709 2960 9195 1426 3952 4747 4518 4014 504 2794 4568 3880 419 10262 9173 571
internal_count=197473 176192 101158 75034 21281 76036 43059 18146 65785 2615 63170 2155 25122 10251 5509 61015 59200 4892 13002 24913 54308 47664 32752 15712 31975 21033 10772 5144 14912 20294 7340 12954 2593 3745 20040 17979 13911 9050 12571 10883 2125 12551 4940 17040 6697 9965 16218 5280 3734 2828 4664 3786 4742 1764 1258 11474 4186 6644 11935 11756 7824 4433 2061 4068 5820 9860 9807 575 6634 9390 3019 2939 5052 8091 7672 7164 9232 3139 6826 3709 2960 9195 1426 3952 4747 4518 4014 504 2794 4568 3880 419 10262 9173 571
is_linear=0
shrinkage=0.03


Tree=9
num_leaves=96
num_cat=0
split_feature=3 2 5 3 1 24 11 1 1 1 7 2 7 5 19 8 16 26 8 1 25 1 2 1 8 2 2 2 14 15 16 2 1 2 1 2 2 2 38 7 30 7 1 16 35 9 46 7 2 2 72 2 9 5 15 8 8 1 3 2 1 60 7 1 2 2 7 36 2 8 1 2 2 1 1 2 2 1 23 40 30 7 35 5 1 13 7 1 2 13 23 73 2 40 46
split_gain=813.44 183.915 102.894 101.998 97.4352 92.6766 69.6675 80.261 71.3978 70.5144 68.7021 52.621 46.7494 46.1949 43.2726 43.5344 46.9126 40.498 78.2662 54.3536 64.6809 46.5997 53.8516 47.9172 70.5506 58.3195 41.5107 38.4442 37.8206 37.7108 37.4235 36.4043 54.8705 34.8254 34.5762 37.5956 44.6529 28.8607 27.4811 38.8612 27.1224 26.7203 25.4323 25.4131 24.6011 23.8714 32.6997 22.7979 26.6817 20.7514 20.2572 22.0724 19.9788 19.3614 19.2143 19.1768 19.0568 18.2071 18.0491 17.4578 17.3664 17.2252 17.0483 16.9025 16.5332 24.1547 16.8689 16.4288 15.6942 15.7387 14.5831 14.7547 13.672 24.1464 16.5244 18.2392 16.4876 17.3395 17.0609 15.8516 15.1578 14.6037 13.2692 12.8056 12.6954 12.6375 12.6037 12.4743 12.2958 11.8332 11.8262 11.6651 11.5483 20.5056 24.4419
threshold=13.500000000000002 -4.5941601456433992e-06 140.00000000000003 6.5000000000000009 0.85032725334167492 -0.84090074896812428 3.2710436582565312 1.4497029781341555 0.47565574944019323 1.5663555264472964 -0.60867851972579945 2.1139145246706906e-05 -0.32717077434062952 100.50000000000001 0.61669963598251354 -1.0042237639427183 -0.29634234309196467 -0.045875480398535722 1.4572768211364748 1.3067432641983034 -0.041453441604971879 1.0549467206001284 1.5518110558332413e-05 0.75565373897552501 0.10907073691487314 1.3279050108394588e-06 2.8856550216005421e-06 1.7415494767192289e-05 0.38956631720066076 1.0767070055007937 -0.96106445789337147 -1.1784500131284402e-07 0.9518217444419862 1.6213949720622625e-06 0.67421549558639537 2.1139145246706906e-05 8.3835999475923028e-07 4.8420000453575092e-08 -0.6730588674545287 0.42570856213569647 0.20785763114690783 -0.45252689719200129 0.9062737524509431 0.066435422748327269 0.58015665411949169 0.39941559731960302 0.773390293121338 -0.36112888157367701 1.7415494767192289e-05 2.6953170163324106e-05 1.3316159844398501 1.0115650184161498e-06 -1.3563737869262693 119.50000000000001 1.3977161645889284 1.7275916337966921 0.482306718826294 0.93099674582481395 3.5000000000000004 1.256461519005825e-05 0.83472973108291637 -1.1540336012840269 -0.56276220083236683 0.83018851280212413 -2.2886949864187041e-06 -3.029585059266537e-06 -0.055761607363820069 0.0093370615504682081 1.9859598978655417e-06 -0.35494232177734369 0.31695875525474554 -3.2520399599889056e-06 1.353944026050158e-05 0.85267901420593273 0.92805975675582897 6.6803499976231261e-07 1.0974799806717785e-06 0.97146147489547741 -0.72493264079093922 0.87500235438346874 1.3290007114410403 0.44128614664077764 -0.059365916997194283 129.50000000000003 1.0549467206001284 -0.18303652107715604 -0.68197998404502858 1.1311982870101931 6.9821949182369289e-06 -0.21947876363992688 0.20745180547237399 -0.43536686897277826 6.7836199377779857e-06 -0.1687846705317497 0.15979743003845218
decision_type=2 2 2 2 2 2 2 2 2 2 2 2 2 2 2 2 2 2 2 2 2 2 2 2 2 2 2 2 2 2 2 2 2 2 2 2 2 2 2 2 2 2 2 2 2 2 2 2 2 2 2 2 2 2 2 2 2 2 2 2 2 2 2 2 2 2 2 2 2 2 2 2 2 2 2 2 2 2 2 2 2 2 2 2 2 2 2 2 2 2 2 2 2 2 2
left_child=3 4 5 58 -2 14 7 8 12 -8 44 13 27 59 15 16 62 18 19 21 26 23 43 61 30 42 82 40 -12 -27 -25 32 60 -20 -4 36 37 41 39 -33 53 -36 90 64 -9 46 86 48 68 91 51 84 67 -7 -35 -34 -28 -47 -1 -10 -19 -15 -3 -39 65 -23 -66 -32 69 -17 -5 -72 74 -74 75 80 78 -78 -76 -75 -54 -79 -21 -55 -16 -41 -38 -53 -31 -52 -26 -13 -40 -94 -95
right_child=1 2 34 70 -6 6 9 10 11 -11 28 49 -14 17 50 47 -18 31 33 20 -22 22 -24 24 25 29 56 -29 -30 88 52 38 55 54 35 -37 45 63 92 85 -42 -43 -44 -45 -46 57 -48 -49 -50 -51 89 87 72 83 -56 -57 -58 -59 -60 -61 -62 -63 -64 -65 66 -67 -68 -69 -70 -71 71 -73 73 79 76 -77 77 81 -80 -81 -82 -83 -84 -85 -86 -87 -88 -89 -90 -91 -92 -93 93 94 -96
leaf_value=-0.0083627404055855638 0.0052470958057264615 -0.00058691612921590527 0.0074428360959964083 0.00014233021521707531 -0.0095329264064803829 0.004710020267289939 0.00089465100595628028 0.00047036002783095305 0.0055778409545969186 -0.0091001900400143297 0.0053814923265920267 -0.010128776394428629 0.0037612505978477464 0.0051040916122990256 0.0035417284162286419 0.001609031359497371 0.0082816587823963134 0.00096427791009391216 -0.010153706595310171 0.00025394184705152472 -0.0069768864113433689 -0.0046946653093370358 -0.005185570438885124 -0.0034913999263025447 -0.0064424606225296213 -0.00019254450310318371 -0.0054176995293385754 -0.0071591670535875243 0.0010705294024125297 -0.011982595518044115 0.0034292891084530806 0.0003032253045169478 0.0077300474925497721 0.0002651477773540786 0.0075220437605877958 -0.0088682259207670672 0.0013153080626721052 0.004513941682974594 1.6903414607420245e-05 -0.0049072258275855559 0.0051053961924618831 -0.0039285314083099361 -0.0015823803171262224 -0.00035144556995039041 -0.0080732791222410047 0.0023231170589765142 -0.0049821981595772682 0.001699223489778129 -0.0046388660109724913 0.0047665934264659879 -0.0069385677839673317 0.0038013171264575157 -0.0034658340183017981 -0.00041543807252302466 -0.0095140809558051844 -0.0039122193771839626 0.0050676604090691647 0.0089766118403244374 -0.0059501066027823181 -0.0019258883090953883 -0.0067773733471248833 0.0006349872595213514 0.0036223072829992624 -0.0067813936277212198 0.00052527911291349791 0.0098445185149855906 0.0039993568473673021 -0.0082438959319792362 0.0012338893257596158 -0.0029636266755098885 -0.010233252480588604 -0.0034538912438873987 0.0017539608486599875 -0.0066845648425699778 0.0081467027438895234 0.00016111167448282376 0.0034606723044098369 -0.0026706310894035711 0.0017451795902859849 0.0066294360054995529 0.0028992722475028282 0.0055579907920346406 0.0053701370950522244 -0.0073576308844531015 -0.0037764144747639639 -0.00025542772173408468 0.0053945760276880739 0.006424894745498397 -0.0024865106509830009 0.0025181229131393604 -0.011346888342204127 -0.0034459647732825636 -0.00037066061848556325 0.0038540465068460242 0.00068893162892295142
leaf_weight=6500 485 1381 1939 1001 2297 651 1149 6172 1693 1418 6239 699 7228 830 407 1019 1540 1140 1088 2544 2378 121 912 3236 733 2635 1718 575 2594 366 1957 5709 1771 698 476 233 981 142 9229 2389 1138 296 460 2150 317 499 394 12553 1094 130 231 4115 2657 3636 242 136 170 1451 4944 333 336 11588 2318 704 1877 646 3816 113 5826 2013 296 10161 636 991 542 6391 875 1599 1209 86 384 219 554 254 444 674 2244 2718 186 242 1158 358 4003 4250 4543
leaf_count=6500 485 1381 1939 1001 2297 651 1149 6172 1693 1418 6239 699 7228 830 407 1019 1540 1140 1088 2544 2378 121 912 3236 733 2635 1718 575 2594 366 1957 5709 1771 698 476 233 981 142 9229 2389 1138 296 460 2150 317 499 394 12553 1094 130 231 4115 2657 3636 242 136 170 1451 4944 333 336 11588 2318 704 1877 646 3816 113 5826 2013 296 10161 636 991 542 6391 875 1599 1209 86 384 219 554 254 444 674 2244 2718 186 242 1158 358 4003 4250 4543
internal_value=-2.71445e-06 0.000694703 0.000818653 -0.00531839 -0.00695433 0.000642388 0.000260668 0.000362001 7.53065e-05 -0.00462924 0.00239452 -0.000214191 0.00211835 -0.000134834 0.00198763 0.0014227 0.00388521 -0.000233614 -0.000717919 -0.000507161 -0.00290788 -0.000141585 0.00173902 -0.000602569 -0.00132467 -0.00433456 -0.000965211 0.000218996 0.00411601 -0.00168855 -0.000526595 0.000584868 0.00353794 -0.00650412 0.00387702 0.00294345 0.00332874 -0.0010573 0.000260269 -0.00115958 0.000968294 0.00313286 -0.00791698 0.00247353 5.06281e-05 0.00460296 0.0031583 0.000849148 -0.000223225 -0.00648581 0.00390829 0.00427921 1.7037e-05 -7.02782e-05 -0.00226734 0.00689654 -0.00446921 0.00727812 -0.00732166 0.00434382 -0.000804835 0.000934469 0.00205135 -0.00487931 0.00341355 0.00754461 0.00285453 0.00278471 0.00032305 -0.00142679 -0.00331664 -0.00364771 -0.000350782 -0.00287776 -3.84553e-05 -0.000749051 0.00146938 -4.58434e-06 0.00373372 -0.00561111 -0.00266071 -0.00167438 0.00117172 -0.000872281 -0.000276335 -0.00388445 0.0041553 0.00484649 -0.00880336 -0.00211003 -0.00945462 -0.00787613 0.000825811 0.00140913 0.00221928
internal_weight=197473 174571 171789 22902 2782 162430 126529 123962 108640 2567 15322 95158 13482 93971 35901 27744 5239 91945 57765 55737 7364 48373 9522 38851 26433 5538 4986 6254 8833 3187 20895 34180 3383 2028 9359 7420 7187 1618 30797 8772 5679 772 2351 8610 6489 5569 3619 22505 9952 1187 8157 7684 17659 4541 940 1907 1888 1950 11444 2026 1476 12418 3699 846 6460 767 5693 2070 8858 3032 11458 10457 15589 1713 13876 9432 4444 2693 1751 1077 3041 1818 3098 3890 851 3063 3225 6833 552 473 1891 1057 22025 12796 8793
internal_count=197473 174571 171789 22902 2782 162430 126529 123962 108640 2567 15322 95158 13482 93971 35901 27744 5239 91945 57765 55737 7364 48373 9522 38851 26433 5538 4986 6254 8833 3187 20895 34180 3383 2028 9359 7420 7187 1618 30797 8772 5679 772 2351 8610 6489 5569 3619 22505 9952 1187 8157 7684 17659 4541 940 1907 1888 1950 11444 2026 1476 12418 3699 846 6460 767 5693 2070 8858 3032 11458 10457 15589 1713 13876 9432 4444 2693 1751 1077 3041 1818 3098 3890 851 3063 3225 6833 552 473 1891 1057 22025 12796 8793
is_linear=0
shrinkage=0.03


Tree=10
num_leaves=96
num_cat=0
split_feature=0 2 0 28 1 1 11 1 1 26 8 1 2 1 1 2 2 22 8 19 4 16 17 14 47 14 1 8 2 2 2 1 4 38 15 2 2 1 1 16 2 1 2 4 41 2 8 2 65 29 11 1 14 40 1 1 2 0 23 1 4 1 2 1 2 14 69 4 2 1 21 1 8 4 54 1 1 4 34 4 4 1 2 15 13 18 1 30 31 2 47 2 22 56 1
split_gain=774.061 172.782 103.434 92.323 90.7669 64.6308 62.8069 84.0143 70.6304 63.0531 85.4628 59.5251 60.2379 51.5504 71.1174 74.9807 48.9063 46.4162 46.0284 49.9764 53.8001 43.0914 41.1851 40.9221 38.9865 38.3531 51.551 53.0301 50.4756 37.4509 33.7659 45.4331 44.6231 37.6033 33.0905 31.0807 30.4839 30.0191 29.925 29.1826 26.9298 26.8409 26.347 24.8473 24.5195 24.0028 24.8044 23.4557 23.4217 22.1503 20.6087 20.0065 24.1392 19.7313 19.2087 18.4694 17.2479 16.512 15.8283 15.7557 15.7381 15.2547 15.2358 15.207 16.2912 15.142 14.83 14.5116 18.9018 16.6577 15.8904 15.3457 14.6482 14.3625 14.0296 13.8702 13.8694 13.7988 13.5663 13.3806 13.0232 12.8405 12.618 16.9358 12.33 12.0994 11.9154 11.2808 11.279 11.662 10.9607 13.8553 10.8961 10.7459 10.6899
threshold=0.11715686321258546 -4.5941601456433992e-06 0.050210084766149528 -0.81394436955451954 0.85032725334167492 -0.22797899693250653 3.2710436582565312 1.4446432590484621 1.5362257361412051 0.076529603451490416 1.4119762778282168 1.6357997655868532 3.1887250315776332e-06 1.3067432641983034 1.0549467206001284 1.5518110558332413e-05 8.2373799159540812e-06 -0.11378940939903258 -1.0042237639427183 0.5118795931339265 96.39349746704103 -0.21111487597227094 0.40696009993553167 2.4254437685012822 -0.4414780586957931 1.5236918926239016 0.77135375142097484 -0.10228473320603369 1.3279050108394588e-06 4.3117702261952226e-06 -1.1784500131284402e-07 0.9518217444419862 96.39349746704103 0.12523104250431064 1.0767070055007937 4.8415498099529952e-07 -1.7725050156514042e-06 0.41744799911975866 0.85494574904441845 -0.44803607463836664 2.1958970137347936e-05 0.9062737524509431 6.3341649365611383e-06 75.533596038818374 1.6468274593353274 1.4191700188348479e-06 0.028853193856775764 1.0115650184161498e-06 0.57211664319038402 -1.178591728210449 -0.037558706477284425 0.41744799911975866 1.7386517524719241 0.33059591054916387 1.0633447170257571 0.95519599318504345 6.6775351115211387e-06 0.025105042383074764 0.039546759799122817 0.77847072482109081 85.289531707763686 1.0942735075950625 1.7415494767192289e-05 0.31695875525474554 -3.2520399599889056e-06 0.38956631720066076 -0.046629237011075013 71.913486480712905 1.3704309822060169e-05 0.92182224988937389 2.0501546859741215 0.863857001066208 2.6494331359863286 75.193828582763686 1.550378739833832 1.3067432641983034 0.84582599997520458 58.44386291503907 0.92162257432937633 89.437824249267592 80.164813995361342 2.0479371547698979 6.8768999881285717e-06 1.7120923995971682 -1.3612886667251585 -0.9841194450855254 1.1311982870101931 1.6079273819923403 -0.0052059125155210486 1.2274044820514975e-05 2.0629576444625859 1.0115650184161498e-06 0.95389109849929821 -0.12154838070273398 0.8658527433872224
decision_type=2 2 2 2 2 2 2 2 2 2 2 2 2 2 2 2 2 2 2 2 2 2 2 2 2 2 2 2 2 2 2 2 2 2 2 2 2 2 2 2 2 2 2 2 2 2 2 2 2 2 2 2 2 2 2 2 2 2 2 2 2 2 2 2 2 2 2 2 2 2 2 2 2 2 2 2 2 2 2 2 2 2 2 2 2 2 2 2 2 2 2 2 2 2 2
left_child=2 4 57 18 -2 -5 7 9 -8 10 13 24 50 14 22 36 53 42 21 23 47 -3 25 37 85 26 -7 29 41 35 31 60 49 87 74 55 43 -20 -31 78 45 58 -15 -16 88 46 -39 54 61 -32 -13 52 -51 -12 -21 79 -36 -1 -29 -48 94 76 -27 -4 -65 -26 -50 68 82 70 72 -70 92 -33 -30 -56 -47 -63 -24 93 -37 -14 -53 -84 -38 -9 -49 -34 -19 -90 91 -71 -69 -28 -11
right_child=1 3 63 5 -6 6 8 11 -10 30 16 12 81 17 15 -17 -18 44 19 20 -22 -23 39 -25 65 62 27 28 34 38 32 73 33 -35 56 80 84 40 -40 -41 -42 -43 -44 -45 -46 48 59 86 66 51 -52 67 -54 -55 75 -57 -58 -59 -60 -61 -62 77 -64 64 -66 -67 -68 69 71 90 -72 -73 -74 -75 -76 -77 -78 -79 -80 -81 -82 -83 83 -85 -86 -87 -88 -89 89 -91 -92 -93 -94 -95 -96
