tree
version=v4
num_class=1
num_tree_per_iteration=1
label_index=0
max_feature_idx=79
objective=regression
feature_names=IRPleth_mean EEG_AF8_Beta EEG_TP9_Gamma EEG_Fp2_Gamma EEG_T7_Gamma EEG_F7_Gamma EEG_TP9_Beta EEG_F6_Gamma EEG_Oz_Gamma EEG_F5_Gamma heartrate_mean EEG_AF7_Gamma EEG_Fp1_Gamma EEG_PO3_Gamma EEG_AF3_Gamma EEG_TP10_Beta EEG_CP6_Gamma EEG_T7_Alpha EEG_F8_Gamma EEG_FT10_Gamma EEG_FT9_Beta EEG_PO4_Gamma EEG_FT8_Gamma EEG_PO7_Beta EEG_FC3_Beta EEG_C6_Gamma EEG_FT7_Gamma EEG_F3_Gamma EEG_C3_Gamma EEG_FC4_Gamma EEG_O1_Gamma EEG_FC6_Gamma EEG_FC3_Gamma EEG_P8_Beta EEG_P2_Gamma EEG_P3_Gamma EEG_AF4_Gamma EEG_T7_Beta EEG_TP10_Gamma EEG_F5_Alpha EEG_P7_Gamma EEG_T8_Beta EEG_FT9_Theta EEG_P6_Gamma EEG_FC2_Gamma EEG_FCz_Gamma EEG_CP5_Gamma EEG_C5_Gamma EEG_F1_Gamma EEG_C5_Beta EEG_F5_Beta EEG_PO8_Gamma EEG_TP8_Gamma EEG_Fp1_Beta EEG_T8_Gamma Respir_mean EEG_AF7_Beta EEG_AFz_Gamma EEG_FC4_Beta EEG_Fp2_Beta EEG_FT9_Gamma EEG_FC5_Gamma EEG_AF4_Beta EEG_F4_Gamma EEG_F6_Beta EEG_F3_Beta EEG_PO4_Beta EEG_FC1_Beta EEG_O2_Gamma EEG_FT7_Alpha EEG_Cz_Gamma EEG_P5_Gamma EEG_Oz_Alpha EEG_F5_Theta EEG_FC4_Alpha EEG_FT9_Alpha EEG_TP9_Theta EEG_C2_Gamma EEG_P8_Gamma EEG_C1_Gamma
feature_infos=[-0.69842147827148438:2.0479373931884766] [-1.723729133605957:3.3657360076904297] [-1.7101210355758667:3.4098765850067139] [-1.3631796836853027:4.0717878341674805] [-1.3571066856384277:4.43597412109375] [-1.4131759405136108:4.9209904670715332] [-1.9190413951873779:3.0940680503845215] [-1.3650146722793579:4.8034868240356445] [-1.5148992538452148:4.031550407409668] [-0.85923522710800171:8.0162773132324219] [14.522276878356934:139.55850219726562] [-1.5923292636871338:3.6395905017852783] [-1.3877483606338501:3.6916775703430176] [-1.5294293165206909:4.4979305267333984] [-1.425458550453186:3.8464634418487549] [-1.8358802795410156:3.2150313854217529] [-1.3680093288421631:4.7098221778869629] [-1.2593696117401123:3.7247560024261475] [-1.5336791276931763:4.0452995300292969] [-1.6358927488327026:4.0629754066467285] [-1.6108707189559937:3.3325045108795166] [-1.4913597106933594:4.607975959777832] [-1.4620306491851807:4.1875581741333008] [-2.0311896800994873:3.2817888259887695] [-1.5334570407867432:3.8162777423858643] [-1.3200843334197998:4.3512563705444336] [-1.4988671541213989:4.1742334365844727] [-1.4309549331665039:4.0374622344970703] [-1.1493616104125977:5.6746034622192383] [-1.204067587852478:4.6205048561096191] [-1.5496220588684082:4.0833187103271484] [-1.2708104848861694:4.3089971542358398] [-1.1910800933837891:5.2775187492370605] [-1.9402797222137451:3.3654701709747314] [-1.339540958404541:5.6712288856506348] [-1.3258258104324341:5.4620661735534668] [-1.3617302179336548:3.9795866012573242] [-1.6236675977706909:3.6559717655181885] [-1.5544908046722412:3.9147276878356934] [-0.90830844640731812:7.5775895118713379] [-1.4788278341293335:4.18402099609375] [-1.7019875049591064:3.5119760036468506] [-1.4037396907806396:3.3934395313262939] [-1.4015228748321533:4.6193594932556152] [-1.3085663318634033:5.4075427055358887] [-1.4026856422424316:5.4614834785461426] [-1.3333886861801147:4.6076512336730957] [-1.3418046236038208:4.119102954864502] [-1.4073140621185303:4.9919037818908691] [-1.6300175189971924:3.5118856430053711] [-0.99620348215103149:8.0751886367797852] [-1.5951797962188721:4.0295677185058594] [-1.3814049959182739:4.0483989715576172] [-1.5829101800918579:3.6807739734649658] [-1.3690890073776245:4.1564116477966309] [-0.058090426027774811:0.088659822940826416] [-1.7681922912597656:3.2818937301635742] [-1.3817868232727051:4.3824005126953125] [-1.6278842687606812:3.8273053169250488] [-1.5947402715682983:4.1012344360351562] [-1.45820152759552:4.2495479583740234] [-1.337643027305603:4.0803699493408203] [-1.6816434860229492:3.4982030391693115] [-1.4295977354049683:4.353813648223877] [-1.6640421152114868:4.1309523582458496] [-1.7541474103927612:3.403611421585083] [-1.8855804204940796:3.3769593238830566] [-1.6216366291046143:3.6444172859191895] [-1.5135469436645508:4.0766935348510742] [-1.2360647916793823:3.7050840854644775] [-1.3356220722198486:5.6665821075439453] [-1.3809052705764771:4.8602700233459473] [-1.655906081199646:3.2548346519470215] [-1.0259274244308472:7.7953376770019531] [-1.3198870420455933:3.4382772445678711] [-1.2097644805908203:3.5233697891235352] [-1.7368303537368774:2.9156978130340576] [-1.2169578075408936:6.160923957824707] [-1.4668811559677124:4.1928682327270508] [-1.2244992256164551:5.8624191284179688]
tree_sizes=9552 9648 9666 9651 9685

Tree=0
num_leaves=96
num_cat=0
split_feature=0 0 0 7 3 0 0 1 9 4 2 0 13 6 2 0 21 23 61 0 0 0 12 12 11 26 28 0 45 31 3 4 12 27 59 58 26 0 20 0 22 12 10 37 22 42 37 11 5 20 0 22 11 46 0 4 4 0 27 43 26 11 2 0 3 0 5 21 55 55 0 4 9 5 46 18 0 5 61 11 11 10 20 4 51 30 14 57 70 52 26 10 5 75 14
split_gain=3.85175e-07 6.48747e-07 3.26816e-07 2.43556e-07 1.93063e-07 1.61951e-07 1.57685e-07 1.54656e-07 1.21113e-07 1.06634e-07 8.62042e-08 8.61251e-08 7.19613e-08 1.24787e-07 6.59251e-08 6.73022e-08 6.55054e-08 5.66037e-08 5.30881e-08 5.13946e-08 4.93394e-08 4.65012e-08 4.32165e-08 3.90833e-08 3.89924e-08 5.23908e-08 3.83473e-08 3.49734e-08 5.07067e-08 3.89282e-08 3.6836e-08 3.38799e-08 3.35286e-08 5.1868e-08 3.23227e-08 3.23159e-08 3.02514e-08 3.93783e-08 2.43971e-08 2.36188e-08 2.24731e-08 2.23483e-08 2.21442e-08 2.16827e-08 2.03681e-08 2.01587e-08 3.87573e-08 3.28371e-08 2.12665e-08 1.97734e-08 1.96771e-08 1.89184e-08 1.87591e-08 1.82651e-08 2.03103e-08 1.71457e-08 1.71457e-08 1.7069e-08 2.56664e-08 1.99082e-08 1.66293e-08 1.64883e-08 1.64581e-08 2.22473e-08 1.58589e-08 1.55513e-08 2.32303e-08 1.89804e-08 1.50361e-08 5.16635e-08 1.72949e-08 1.4922e-08 1.43013e-08 1.3875e-08 1.3842e-08 1.37222e-08 1.76155e-08 1.41036e-08 1.3555e-08 1.33165e-08 1.3223e-08 1.31257e-08 1.26806e-08 1.26136e-08 1.49335e-08 1.25844e-08 1.23492e-08 1.2214e-08 1.18011e-08 1.1601e-08 1.11066e-08 1.1045e-08 1.09563e-08 1.08864e-08 1.0788e-08
threshold=1.0000000180025095e-35 0.68797901272773754 2.0361797809600835 0.2880756556987763 1.5581006407737734 0.10407574847340585 0.25178974866867071 -0.082772936671972261 1.3611485958099367 0.99639642238616954 -0.47447283565998072 -0.19106600433588025 1.6315134763717654 -0.059647619724273675 -1.2717872858047483 0.53415927290916454 0.831486076116562 -0.57524853944778431 -0.23094040155410764 1.038742244243622 0.91206848621368419 1.2392797470092776 1.7801783084869387 1.6301094293594363 -0.44247829914093012 0.23278903216123584 1.4054782986640932 0.49575850367546087 -0.29424256086349482 0.16220118850469592 -0.58321824669837941 2.3024705648422246 -0.60129648447036732 0.6324419677257539 1.3413636088371279 0.16070172935724261 0.059798922389745719 1.1154869794845583 0.44484291970729833 1.2284002900123598 -0.45105579495429987 1.5055063962936404 61.315607070922859 0.52517616748809826 -0.94019207358360279 0.41919124126434332 0.90558913350105297 -1.1950404047966001 0.30988839268684393 0.13472021371126178 0.77847072482109081 -0.54620587825775135 -0.96438336372375477 0.51527744531631481 1.4153874516487124 0.17224750667810443 0.008975249249488117 1.0070005059242251 0.10692910850048067 0.017840159125626091 0.29059781134128576 -0.8343181014060973 0.14018464833498004 1.2120822668075564 -0.24068658798933026 1.0070005059242251 1.1780755519866946 0.59726867079734813 5.6375001804553912e-06 7.1037502493709339e-05 0.88891175389289867 1.2661627531051638 -0.20194082707166669 1.5823482275009157 -0.47105897963047022 -0.48332528769969935 1.0549467206001284 -0.6813865303993224 4.0799086093902597 0.68271619081497203 -0.68204864859580983 72.33695220947267 0.88280689716339122 0.31859762966632849 2.0663861036300664 1.1539185643196108 -0.63088133931159962 0.72041815519332897 1.772335469722748 -0.92341348528861988 -0.020692534744739529 70.866550445556655 0.040687080472707755 0.50180536508560192 1.0272612571716311
decision_type=2 2 2 2 2 2 2 2 2 2 2 2 2 2 2 2 2 2 2 2 2 2 2 2 2 2 2 2 2 2 2 2 2 2 2 2 2 2 2 2 2 2 2 2 2 2 2 2 2 2 2 2 2 2 2 2 2 2 2 2 2 2 2 2 2 2 2 2 2 2 2 2 2 2 2 2 2 2 2 2 2 2 2 2 2 2 2 2 2 2 2 2 2 2 2
left_child=11 3 4 5 7 -2 -7 10 12 38 18 42 21 16 15 -8 -14 32 36 -18 85 22 24 27 31 83 64 28 90 30 43 75 33 68 -22 -13 37 56 41 -21 -4 -5 -1 80 -23 46 57 -48 -47 74 91 81 55 54 72 -38 94 59 62 73 -30 -58 -59 -64 -11 66 67 -34 70 -70 71 -12 -39 88 -32 76 77 -9 -10 -15 -29 -20 -49 84 87 -6 -31 -26 -19 -27 -16 -24 -51 -67 -3
right_child=1 2 40 9 20 6 14 8 78 26 17 35 13 79 23 -17 19 45 51 39 34 44 50 -25 25 89 -28 29 60 86 49 -33 65 -35 -36 -37 52 53 -40 -41 -42 -43 -44 -45 -46 48 47 82 -50 92 -52 -53 -54 -55 -56 -57 61 58 -60 -61 -62 -63 63 -65 -66 93 -68 -69 69 -71 -72 -73 -74 -75 -76 -77 -78 -79 -80 -81 -82 -83 -84 -85 -86 -87 -88 -89 -90 -91 -92 -93 -94 -95 -96
leaf_value=5.9520423346852568e-06 5.9280839048993577e-06 5.9500237648456946e-06 6.440214433467629e-06 6.0332283148077943e-06 6.0485182394307429e-06 6.5326178899624487e-06 6.38223587329675e-06 5.8694618526152369e-06 6.125544578604838e-06 6.3454532335797269e-06 6.1248563346913396e-06 5.8317654538483727e-06 5.9317799246186493e-06 5.8759151193575312e-06 6.2808273327916824e-06 5.9038257025171691e-06 5.964076905839578e-06 5.9054697684802567e-06 6.0939691632869329e-06 5.4363594191388368e-06 6.0139157143211061e-06 5.8082635932062232e-06 5.7058434981732603e-06 5.9603360981345679e-06 5.9836672426388004e-06 6.1149959589081793e-06 6.00112534185605e-06 6.0636547373304882e-06 6.0574586128976527e-06 5.9519138490681195e-06 6.0810486401727423e-06 6.4635304167686581e-06 5.9189097922140073e-06 5.8760470044677824e-06 6.1558936867053201e-06 5.5910676137888171e-06 5.7286025890654312e-06 5.7809031218707564e-06 5.8759021155350674e-06 5.9297233791637971e-06 6.2301971138157767e-06 5.9056481344678732e-06 5.8347348639334864e-06 6.329367977223012e-06 5.895047501924919e-06 5.9291018790810232e-06 6.4718389669839767e-06 6.1317528129917255e-06 6.0305575113784103e-06 5.9100264034886164e-06 5.9548366399897239e-06 5.9694336616678457e-06 5.8948235488441718e-06 6.0887307962960017e-06 5.9240866232164339e-06 6.1767512782700421e-06 6.2501285854094349e-06 5.9889472438236624e-06 5.876496558995478e-06 6.0219006549278746e-06 6.3268768031331419e-06 5.980187647466891e-06 6.1952923515917403e-06 6.0100121075094649e-06 6.1612129544091082e-06 6.0920039994994505e-06 6.1173036580039584e-06 6.1036435700666858e-06 6.3285606130066831e-06 6.0862374080396992e-06 6.0027090391716855e-06 6.4788794204358114e-06 5.9575567669130071e-06 6.1256376834596973e-06 6.200008709529599e-06 5.868867854348994e-06 6.0764059757308668e-06 5.9887324064994131e-06 5.8603903370883064e-06 6.0168797016331731e-06 6.2294114193279881e-06 5.9816644974896148e-06 5.9610862381607879e-06 6.0902213074633737e-06 5.5935807395930787e-06 5.9384915697671563e-06 6.1122449126053676e-06 6.0552350476080577e-06 6.1920565580652628e-06 5.9048733056295429e-06 6.3976603056922598e-06 5.8769171972451712e-06 6.1308557970039562e-06 5.9663553342742804e-06 6.1417160204975218e-06
leaf_weight=1808 2304 10636 1142 3084 1746 1161 325 2489 2687 777 1340 703 487 1295 3756 1386 218 4826 2408 1319 1902 2792 1132 643 9530 242 875 541 1235 825 1329 94 3212 785 5993 1786 1364 2715 3127 94 781 2059 7302 1888 19044 8234 217 1401 2400 497 631 7655 2057 322 2339 80 355 1623 800 2992 246 474 1312 1050 931 2723 896 591 1267 2113 1293 115 487 291 2637 6360 691 1390 184 1126 2223 1532 543 1462 80 2011 905 2768 131 7922 931 490 338 803 269
leaf_count=1808 2304 10636 1142 3084 1746 1161 325 2489 2687 777 1340 703 487 1295 3756 1386 218 4826 2408 1319 1902 2792 1132 643 9530 242 875 541 1235 825 1329 94 3212 785 5993 1786 1364 2715 3127 94 781 2059 7302 1888 19044 8234 217 1401 2400 497 631 7655 2057 322 2339 80 355 1623 800 2992 246 474 1312 1050 931 2723 896 591 1267 2113 1293 115 487 291 2637 6360 691 1390 184 1126 2223 1532 543 1462 80 2011 905 2768 131 7922 931 490 338 803 269
internal_value=5.98293e-06 5.9934e-06 5.96686e-06 6.1118e-06 5.96187e-06 6.16673e-06 6.19308e-06 5.95198e-06 5.91807e-06 5.99451e-06 5.98169e-06 5.81523e-06 5.9092e-06 5.79425e-06 6.17302e-06 5.99506e-06 5.62619e-06 6.01068e-06 5.94536e-06 5.53512e-06 6.07913e-06 5.91834e-06 5.93964e-06 6.18994e-06 5.94832e-06 5.9714e-06 6.1627e-06 6.19845e-06 6.25585e-06 6.16675e-06 6.19069e-06 5.90227e-06 6.05674e-06 6.10543e-06 6.12171e-06 5.65888e-06 5.91702e-06 5.93306e-06 5.94195e-06 5.46906e-06 6.35526e-06 5.98214e-06 5.858e-06 6.25088e-06 5.88394e-06 5.98368e-06 6.00586e-06 6.12346e-06 5.952e-06 6.13229e-06 5.81257e-06 5.99693e-06 5.8365e-06 5.86958e-06 5.85681e-06 5.75366e-06 5.96479e-06 5.98633e-06 6.03138e-06 5.96016e-06 6.10261e-06 6.09615e-06 6.06252e-06 6.11302e-06 6.24535e-06 6.01579e-06 5.98006e-06 5.94767e-06 6.13484e-06 6.17722e-06 6.0826e-06 6.15348e-06 5.80774e-06 5.92496e-06 6.16021e-06 5.89736e-06 5.93704e-06 5.91218e-06 6.10848e-06 5.94145e-06 6.19705e-06 6.05032e-06 6.08411e-06 6.00695e-06 5.9971e-06 5.98963e-06 6.03584e-06 5.99978e-06 5.91312e-06 5.91113e-06 6.3042e-06 5.75733e-06 5.99956e-06 6.0634e-06 5.95478e-06
internal_weight=197375 185776 151753 34023 149830 23170 20866 138178 64527 10853 73651 11599 61656 4539 19705 1711 2118 40958 32693 1631 11652 57117 35281 17994 33028 22004 2583 17351 6168 11183 9453 11024 15138 6913 7895 2489 21098 17597 8270 1413 1923 5143 9110 4652 21836 25820 15186 2161 10634 4801 2253 11595 3501 5863 5541 1444 11734 13025 4785 8240 1481 829 3985 2362 1708 8225 4699 3803 6128 3380 2748 1455 3202 5248 3966 10930 4570 3879 2871 2421 2764 3940 1944 13840 12378 3757 1730 12298 4957 8164 4687 1622 835 3526 10905
internal_count=197375 185776 151753 34023 149830 23170 20866 138178 64527 10853 73651 11599 61656 4539 19705 1711 2118 40958 32693 1631 11652 57117 35281 17994 33028 22004 2583 17351 6168 11183 9453 11024 15138 6913 7895 2489 21098 17597 8270 1413 1923 5143 9110 4652 21836 25820 15186 2161 10634 4801 2253 11595 3501 5863 5541 1444 11734 13025 4785 8240 1481 829 3985 2362 1708 8225 4699 3803 6128 3380 2748 1455 3202 5248 3966 10930 4570 3879 2871 2421 2764 3940 1944 13840 12378 3757 1730 12298 4957 8164 4687 1622 835 3526 10905
is_linear=0
shrinkage=1


Tree=1
num_leaves=96
num_cat=0
split_feature=1 3 16 8 6 4 33 56 9 18 9 5 36 5 9 45 14 41 9 31 13 60 28 39 67 4 20 69 51 25 15 9 5 39 45 53 79 14 60 67 63 60 20 38 4 3 18 26 71 8 32 5 44 32 25 53 6 14 31 59 49 4 63 59 7 13 9 53 15 6 49 60 60 5 16 9 5 72 30 69 18 14 67 18 6 53 26 7 61 30 6 63 35 46 13
split_gain=2.8589e-07 1.50436e-07 1.44816e-07 9.84086e-08 1.74236e-07 9.40285e-08 7.6474e-08 6.42906e-08 6.15975e-08 7.45135e-08 4.85454e-08 4.77994e-08 4.6388e-08 4.51995e-08 4.19178e-08 4.16596e-08 3.96427e-08 4.11341e-08 3.73025e-08 3.68901e-08 3.37294e-08 3.15563e-08 3.12252e-08 4.90272e-08 3.01807e-08 2.96381e-08 2.91022e-08 2.89673e-08 2.81444e-08 2.57265e-08 2.71508e-08 2.4781e-08 2.44978e-08 2.27384e-08 2.1964e-08 2.13036e-08 2.08826e-08 3.3766e-08 2.86449e-08 2.086e-08 1.92607e-08 1.88756e-08 1.87355e-08 1.8452e-08 1.83587e-08 1.71865e-08 1.6613e-08 1.5481e-08 1.5318e-08 1.76495e-08 1.52965e-08 1.4992e-08 1.46897e-08 1.72051e-08 2.05985e-08 2.16935e-08 1.45567e-08 1.35235e-08 1.34331e-08 1.26906e-08 1.34019e-08 1.2548e-08 1.20589e-08 1.20314e-08 1.17259e-08 1.1667e-08 1.16015e-08 1.13777e-08 1.12913e-08 1.12903e-08 1.1169e-08 1.0916e-08 1.07251e-08 1.17226e-08 1.07078e-08 1.06089e-08 1.05373e-08 1.03367e-08 9.64261e-09 9.63944e-09 9.49855e-09 9.34553e-09 9.3333e-09 9.26831e-09 9.22912e-09 9.01351e-09 8.99939e-09 8.93829e-09 9.55842e-09 8.93327e-09 8.59254e-09 8.40145e-09 8.31779e-09 8.24051e-09 8.20172e-09
threshold=-0.13330005109310147 1.7280437350273135 -0.76994726061820973 2.0658639669418339 1.0000000180025095e-35 1.9342140555381777 -0.01864626724272966 -0.84099933505058277 1.7641186714172366 -0.029150438494980332 -0.27530345320701594 -0.40543922781944269 1.9806422591209414 0.051272498443722732 0.33360750973224645 -0.69879326224327076 -0.88909929990768422 0.06196593493223191 -0.11650147661566733 0.42069932818412786 1.1165482997894289 -0.51832404732704151 0.5385311245918275 2.1628277301788335 1.2342839241027834 -0.47200874984264368 0.39298005402088171 2.1873062849044804 0.37749363481998449 -0.39027445018291468 -1.1827144026756284 -0.21961573511362073 -0.15016098320484159 1.9392114877700808 -0.76716071367263783 1.1048640608787539 -0.22213696688413617 -0.010298814624547957 -0.7384011149406432 2.0860735177993779 -0.40188194811344141 -0.38322056829929346 -0.83953425288200367 0.31218200922012335 0.047300020232796676 -0.63256838917732228 -0.31046065688133234 -0.82354572415351857 1.2719356417655947 1.564020097255707 4.4196209907531747 -1.1241112351417539 0.96247670054435741 -0.32831740379333491 -0.36796654760837549 -0.39901168644428248 -0.22748589515686032 0.010973911266773941 0.16220118850469592 0.35619042813777929 -0.21685076504945752 -0.72460535168647755 0.020654189400374893 1.5414193868637087 -0.44306103885173792 0.7858698070049287 0.89384683966636669 1.6126630902290346 -0.94400450587272633 -1.1561587452888487 -0.55503419041633595 -0.9666866362094878 -0.41680522263050074 0.57238614559173595 -0.40284916758537287 -0.32908068597316736 0.13910380750894549 1.7933014631271365 -0.22610554844141004 -0.064848713576793657 -0.078076262027025209 -0.19548709690570829 -0.59542241692543019 2.7128932476043706 -1.1401470899581907 -0.12536885589361188 0.22121174633502963 -0.28464403748512263 1.3397422432899477 2.7722623348236088 -0.66191470623016346 -0.2805465012788772 -0.2512108832597732 1.0537694692611697 1.3734897375106814
decision_type=2 2 2 2 2 2 2 2 2 2 2 2 2 2 2 2 2 2 2 2 2 2 2 2 2 2 2 2 2 2 2 2 2 2 2 2 2 2 2 2 2 2 2 2 2 2 2 2 2 2 2 2 2 2 2 2 2 2 2 2 2 2 2 2 2 2 2 2 2 2 2 2 2 2 2 2 2 2 2 2 2 2 2 2 2 2 2 2 2 2 2 2 2 2 2
left_child=2 3 10 8 14 6 16 43 9 11 29 18 28 26 20 36 25 34 64 27 -5 69 63 39 -14 -4 35 57 41 30 -1 46 47 -6 40 44 37 -12 -39 -24 42 67 70 91 78 -31 -15 85 49 -30 -10 -46 53 54 55 -36 65 74 90 92 -61 -49 -55 -3 68 -51 83 -11 -2 -19 -18 -59 -29 -74 -13 -73 -23 -20 -8 -79 -34 -42 -57 -41 -56 -32 -53 -43 -89 -22 -27 -7 -33 -77 -48
right_child=1 22 5 4 33 7 13 -9 50 12 15 19 24 31 -16 -17 17 21 77 -21 89 76 23 -25 -26 58 -28 72 48 45 32 59 80 -35 52 -37 -38 38 -40 66 81 87 -44 -45 51 -47 94 61 -50 56 -52 86 -54 62 84 82 -58 71 -60 60 -62 -63 -64 -65 -66 -67 -68 -69 -70 -71 -72 75 73 -75 -76 93 -78 79 -80 -81 -82 -83 -84 -85 -86 -87 -88 88 -90 -91 -92 -93 -94 -95 -96
leaf_value=9.8545287390443293e-09 -1.8798062491784521e-08 3.2777840270871369e-08 -2.4691426808732205e-08 -1.0138398449041667e-07 -5.6421585856607891e-08 9.6502762747065362e-08 -2.4735253440478216e-08 7.8500604946246527e-08 1.7038064728262473e-07 -3.7854949970991167e-08 7.3414177280238831e-08 -3.4281388114010673e-08 -7.6090760484713789e-08 1.9049030757231119e-07 -1.2386688428144272e-07 -2.3738352912243873e-08 3.0864125636551345e-07 -3.4722283097692266e-08 1.9064349684978359e-08 -8.1241870716570205e-08 -5.1987555144880192e-07 -3.9619581901732914e-08 -8.7820439940077842e-09 1.9171572042579686e-07 -2.925937481942427e-07 3.0214513533241409e-08 -6.7520619467012443e-08 2.943708790292162e-07 -3.0001561205200788e-08 1.0901712477901275e-07 -4.0943724202095401e-08 6.706237619620827e-08 5.3326808316504644e-08 1.7535889306020902e-07 1.2857455188719889e-07 -8.0548450920806584e-08 -2.2652023449595715e-08 4.6330501517037295e-07 1.3698669410478571e-07 -1.462074993793005e-07 2.1176111372272293e-08 -1.3467243199048976e-07 1.3021484157449484e-07 2.1134726069630339e-08 3.5227258607732964e-07 -4.6232798811751758e-08 7.8255525042740456e-08 -1.9210819803239752e-07 4.3961218942326618e-08 -1.0054753655764583e-07 -1.1921081679018525e-07 1.0984492679614911e-07 1.7234824662211338e-07 7.9309535433313727e-08 3.8829808511140658e-08 -5.4284302448576799e-08 -6.3726614913535557e-08 2.0456910736019086e-07 -8.3816839243558041e-09 2.018322740540466e-07 7.5750339181450513e-09 -1.0304013129729508e-07 2.8450547192243409e-09 1.5118394070167043e-07 -3.8862366632054951e-08 -4.2272209020434858e-07 -5.2876584503260216e-08 -1.5384788023563176e-07 -1.0444510397026262e-07 1.459774947129277e-07 1.5759194169842467e-07 1.45409500138108e-07 1.0105032421697853e-08 2.7161766765679935e-07 3.0670297020423627e-08 1.2272054376608047e-08 4.2741029855001275e-08 2.7812242721972624e-07 4.9180451059038847e-08 1.9515587761402715e-08 -8.655856936098993e-08 1.4211598397539446e-07 6.4768477621331818e-08 -5.0374093265103373e-07 1.839810854305819e-07 -1.544368303791808e-07 -4.1079711394935483e-09 -7.5105934544703353e-08 -1.4557355944120963e-07 -2.2539838643003713e-07 1.5107696999251966e-07 4.0867889982877744e-07 -1.4024500230769851e-08 1.0924581239044948e-07 -1.6406860423686615e-07
leaf_weight=3120 1692 955 5455 221 2085 84 4388 1445 1492 8432 1861 4229 999 1817 456 4937 1401 362 3031 2898 1383 3456 2722 1093 1384 719 6474 453 8801 1324 3216 1605 1318 464 2999 1894 829 459 515 116 1024 5127 1919 134 183 1242 1423 2425 2203 169 183 1952 1897 5361 449 1147 570 423 1015 706 583 3470 2839 4065 7639 256 205 835 7667 2186 653 846 426 240 4963 4130 2345 290 2487 234 651 1312 1222 154 3305 782 916 9996 2098 104 2018 1309 3904 973 136
leaf_count=3120 1692 955 5455 221 2085 84 4388 1445 1492 8432 1861 4229 999 1817 456 4937 1401 362 3031 2898 1383 3456 2722 1093 1384 719 6474 453 8801 1324 3216 1605 1318 464 2999 1894 829 459 515 116 1024 5127 1919 134 183 1242 1423 2425 2203 169 183 1952 1897 5361 449 1147 570 423 1015 706 583 3470 2839 4065 7639 256 205 835 7667 2186 653 846 426 240 4963 4130 2345 290 2487 234 651 1312 1222 154 3305 782 916 9996 2098 104 2018 1309 3904 973 136
internal_value=1.15171e-10 -3.67239e-08 3.55012e-08 -4.89371e-08 -1.82247e-07 5.68142e-08 4.99426e-08 2.22106e-07 -4.13337e-08 -4.50585e-08 -2.524e-08 -1.60216e-08 -7.35703e-08 1.17867e-08 -3.80083e-07 3.31406e-08 7.51525e-08 9.0154e-08 -4.79757e-08 1.75203e-08 -4.48262e-07 3.23397e-08 7.79058e-08 1.84587e-08 -2.01971e-07 1.99473e-08 -1.64038e-08 3.46839e-08 -6.561e-08 -5.38553e-08 -6.8887e-08 6.24698e-08 -8.95961e-08 -1.41257e-08 1.09058e-07 1.16003e-08 1.09752e-07 1.48458e-07 2.91399e-07 -4.08577e-08 1.57638e-07 -8.28761e-08 1.97834e-07 3.57719e-07 2.91961e-08 3.38953e-08 1.28885e-07 -1.08826e-07 -2.74874e-08 -4.35611e-08 1.38637e-07 9.04148e-08 9.30963e-08 8.43982e-08 1.12746e-07 7.50012e-08 -1.63197e-07 2.4072e-08 8.48258e-08 2.94586e-08 1.1412e-07 -1.39732e-07 5.28432e-08 1.28681e-07 -6.64577e-08 -2.95681e-07 -2.23861e-07 -4.83374e-08 -8.89684e-08 1.20298e-07 2.6082e-07 5.76517e-08 1.81976e-07 1.04875e-07 7.8676e-10 4.714e-08 -6.32282e-09 4.03822e-08 2.00994e-09 1.63151e-07 7.03635e-09 8.91647e-08 7.12946e-09 -3.52338e-07 1.6665e-07 -6.32088e-08 7.34724e-08 -1.01454e-07 -8.73523e-08 -4.9961e-07 1.19372e-07 3.9002e-07 9.61523e-09 3.07978e-08 5.69332e-08
internal_weight=197375 96702 100673 87392 4713 74524 71552 2972 82679 81004 26149 40134 40870 28468 2164 8601 43084 33877 20553 19581 1708 8349 9310 4290 2383 9207 18294 16683 38487 17548 14982 10174 11862 2549 25528 11820 3664 2835 974 3197 6309 26488 3973 1527 9926 2566 3376 9893 11999 9796 1675 3051 19219 17322 9122 5368 995 15564 3752 6798 1289 5895 8200 5020 16998 425 475 9267 9359 2548 2054 6372 1119 666 9192 5949 5801 3555 6875 524 1969 2336 2369 270 3754 3998 2868 17221 12094 1487 2737 1393 5509 5103 1559
internal_count=197375 96702 100673 87392 4713 74524 71552 2972 82679 81004 26149 40134 40870 28468 2164 8601 43084 33877 20553 19581 1708 8349 9310 4290 2383 9207 18294 16683 38487 17548 14982 10174 11862 2549 25528 11820 3664 2835 974 3197 6309 26488 3973 1527 9926 2566 3376 9893 11999 9796 1675 3051 19219 17322 9122 5368 995 15564 3752 6798 1289 5895 8200 5020 16998 425 475 9267 9359 2548 2054 6372 1119 666 9192 5949 5801 3555 6875 524 1969 2336 2369 270 3754 3998 2868 17221 12094 1487 2737 1393 5509 5103 1559
is_linear=0
shrinkage=0.03


Tree=2
num_leaves=96
num_cat=0
split_feature=0 0 0 3 49 1 0 50 29 53 65 0 16 0 21 0 0 37 36 57 4 11 0 0 6 23 48 53 5 59 43 0 36 34 5 0 19 0 0 10 5 21 0 3 50 0 13 5 10 0 77 31 63 22 49 10 5 15 15 19 19 6 31 61 53 22 13 5 47 18 52 5 11 52 62 4 17 36 3 0 79 57 0 10 10 55 55 55 55 0 71 34 10 6 49
split_gain=3.55233e-07 5.95494e-07 3.03662e-07 1.72808e-07 1.56256e-07 1.36017e-07 1.05484e-07 8.24411e-08 7.95028e-08 7.68183e-08 9.5488e-08 7.68107e-08 7.45596e-08 6.9009e-08 1.0479e-07 1.59153e-07 6.4322e-08 6.51728e-08 5.27002e-08 4.78661e-08 4.58381e-08 1.05565e-07 4.57235e-08 4.49448e-08 4.00812e-08 3.96443e-08 3.93855e-08 3.21847e-08 3.29909e-08 2.9326e-08 2.79341e-08 2.75471e-08 2.96725e-08 2.7317e-08 2.65876e-08 2.50486e-08 3.26913e-08 2.96174e-08 2.4872e-08 4.44157e-08 3.23152e-08 2.40767e-08 2.34891e-08 2.34481e-08 2.33992e-08 2.32666e-08 2.32451e-08 2.31027e-08 2.29092e-08 2.19976e-08 2.14753e-08 2.17359e-08 2.10903e-08 2.07783e-08 2.06591e-08 1.99196e-08 1.89631e-08 2.87338e-08 1.86762e-08 1.84274e-08 1.83896e-08 1.82166e-08 1.80907e-08 1.8029e-08 1.71386e-08 1.6434e-08 1.58905e-08 1.56003e-08 1.52673e-08 1.43315e-08 1.41853e-08 1.41328e-08 1.38974e-08 1.32231e-08 1.28721e-08 1.28533e-08 1.24882e-08 1.20291e-08 1.16735e-08 1.15887e-08 1.1172e-08 1.11592e-08 1.09808e-08 1.07505e-08 1.06011e-08 1.04417e-08 1.46381e-08 1.14168e-08 1.75148e-08 1.03968e-08 1.02418e-08 1.00989e-08 9.96463e-09 9.62889e-09 9.52713e-09
threshold=1.0000000180025095e-35 0.68797901272773754 2.0361797809600835 1.5581006407737734 -0.7284339666366576 -0.082772936671972261 0.51525974273681652 2.3596243858337407 1.1793646812438967 1.7614178061485293 1.2502743005752566 0.10407574847340585 -0.69974961876869191 1.1104079484939577 1.4598085880279543 1.2059112787246706 0.10407574847340585 1.2623990178108218 -0.18916573375463483 1.0612759590148928 1.5236918926239016 -1.0893227458000181 0.25178974866867071 0.91206848621368419 -1.2392272949218748 -0.58502265810966481 -0.41742654144763941 1.7614178061485293 -0.68799439072608937 1.1014571785926821 3.290918350219727 0.25178974866867071 1.0000000180025095e-35 0.45930615067482 0.30988839268684393 1.038742244243622 0.85488140583038341 1.4446432590484621 1.2392797470092776 77.422595977783217 -0.5703517198562621 0.87715905904769909 0.54995176196098339 -0.19662956893444059 0.67025634646415722 -0.19106600433588025 -0.57731369137763966 1.7419714331626894 77.066513061523452 0.51525974273681652 1.4208853244781496 0.0325118936598301 0.020654189400374893 -0.45105579495429987 0.31511509418487554 61.315607070922859 -0.27516591548919672 -0.76979532837867726 -1.2574536800384519 0.10598089173436166 -0.64926850795745839 -1.2740185856819151 0.0325118936598301 -0.77449741959571827 1.929860055446625 -0.78047841787338246 1.3290190100669863 -0.029290623962879177 0.544876128435135 -0.05910146422684192 -0.54296809434890736 1.1496595144271853 -1.0893227458000181 -0.55037230253219593 1.2019474506378176 1.2661627531051638 1.2723662257194521 0.30463963747024542 -0.4051289558410644 0.83249774575233471 -0.18201615661382672 -0.09179342538118361 0.77495425939559948 90.786331176757827 91.820484161376967 -0.0010348749929107723 0.00054471250041387986 5.6375001804553912e-06 3.9012498746160425e-05 1.8340986967086794 1.9884761571884157 -0.28155788779258722 87.250888824462905 -0.50147342681884755 0.23107643425464633
decision_type=2 2 2 2 2 2 2 2 2 2 2 2 2 2 2 2 2 2 2 2 2 2 2 2 2 2 2 2 2 2 2 2 2 2 2 2 2 2 2 2 2 2 2 2 2 2 2 2 2 2 2 2 2 2 2 2 2 2 2 2 2 2 2 2 2 2 2 2 2 2 2 2 2 2 2 2 2 2 2 2 2 2 2 2 2 2 2 2 2 2 2 2 2 2 2
left_child=8 4 3 5 6 12 11 13 55 10 16 -2 25 19 38 54 -6 24 61 27 26 -22 -13 90 42 80 35 28 75 -25 41 -26 62 -24 58 36 60 46 39 47 78 69 -18 -19 71 -10 48 74 63 67 51 56 65 -4 -16 -1 57 -28 -27 81 -14 -8 -33 -37 -21 -40 -42 -34 -32 -30 -58 -12 -60 -71 -15 77 -51 -7 -41 -62 85 93 -29 -72 -59 -3 87 -87 -89 -39 -5 -11 -66 -48 -54
right_child=1 2 53 23 9 7 18 -9 45 91 44 22 20 14 15 -17 17 43 -20 64 21 -23 33 29 31 34 50 82 30 -31 68 32 49 -35 -36 37 -38 89 52 40 66 -43 -44 -45 -46 -47 59 -49 -50 76 -52 -53 94 -55 -56 -57 70 84 72 -61 79 -63 -64 -65 92 -67 -68 -69 -70 73 83 -73 -74 -75 -76 -77 -78 -79 -80 -81 -82 -83 -84 -85 -86 86 -88 88 -90 -91 -92 -93 -94 -95 -96
leaf_value=-3.0567991001817382e-08 -4.707258634144415e-08 -3.0824719776711841e-08 4.4081743891768706e-07 5.4232667457176368e-08 -5.1984102327453266e-08 -7.3599098996120905e-08 -2.7040459303421671e-08 1.938133478408711e-07 -1.764163778277887e-07 2.1813961487434798e-07 -1.116815330839764e-07 5.4158264320646911e-07 -5.3986947690063811e-08 8.6074089688920707e-08 -5.2302358192006476e-07 -5.1445921046245922e-08 3.0862589915506344e-07 3.3102942761788772e-07 -1.4408338349510966e-08 6.9425020964241748e-08 5.169846453371877e-07 3.5538420083811427e-08 3.3092998090185222e-07 1.1157479249210527e-08 4.6684857942686242e-07 1.1432449322342556e-08 6.7210015202382183e-08 -2.3759365862121744e-07 -2.4681750315823337e-09 1.5927803757473751e-07 -5.1530307981506033e-07 2.0609234269373948e-07 1.0756265670226803e-07 9.8858789552109668e-08 1.3688620198707453e-08 -1.502142785183096e-07 1.6331029296184291e-07 -1.8554991215541407e-08 -1.7751034410449219e-07 -1.7363542312503774e-07 -1.7197971377804005e-07 6.9969154883274826e-08 -6.3097586236895892e-08 1.2778819740590616e-07 7.2308120121792022e-08 -3.7444637138826602e-07 1.3960403662356364e-07 -1.5248142133907358e-07 2.0768257621885147e-07 2.2324028823838122e-08 1.2199658804548958e-07 -4.9827626682287826e-08 -3.1828853193312496e-08 2.388671548862364e-07 -2.6167904588569068e-08 -1.4195206785567372e-07 9.520755306708012e-08 -7.3460325300647514e-08 -1.7379321981249888e-07 5.0411682337666276e-08 7.1417270525929477e-08 2.2881297546510271e-07 8.6637079187058934e-08 5.2363515666198824e-08 -1.5297760407078768e-07 -9.9693601245334399e-08 -4.3822829089475237e-07 3.0652846246507235e-07 -2.3476930050991949e-08 1.0992137571393078e-08 -1.6375551463126474e-09 1.9115193607004779e-07 -9.1126317842683079e-08 -8.1550301797072554e-08 -6.2019845828883879e-08 2.7249385949192269e-07 2.1588803112138066e-07 -1.5583176723854601e-07 1.3529681579217283e-07 -1.671509218269924e-08 -4.3725528545548152e-08 -2.4971196637101246e-08 -8.6736455339878997e-08 1.3665960398409166e-07 1.531027233028594e-07 3.1332145967245447e-08 -1.1033220496128053e-08 2.7387710544155891e-07 5.2445745085309413e-08 2.3173043743708885e-07 -4.479005210521825e-08 -7.2440910826401036e-08 8.2612927893359998e-08 2.539140331632368e-07 -9.356075573728552e-08
leaf_weight=1802 497 2405 1142 1906 1577 4806 282 1119 789 110 2253 871 3934 2865 1347 1482 170 2087 1764 4522 540 1683 3757 1481 226 1262 2030 1037 7939 6414 156 4782 1084 522 2343 557 1172 2465 3316 149 1185 2469 1383 681 1131 1689 1064 535 583 3306 1064 10095 4909 781 80 7319 2601 5156 2411 1038 2943 2209 1504 1349 544 9324 243 528 89 1815 5415 146 7639 5921 646 82 328 2405 405 2467 3737 191 752 556 191 1303 2208 609 681 157 1851 2825 228 1802 4157
leaf_count=1802 497 2405 1142 1906 1577 4806 282 1119 789 110 2253 871 3934 2865 1347 1482 170 2087 1764 4522 540 1683 3757 1481 226 1262 2030 1037 7939 6414 156 4782 1084 522 2343 557 1172 2465 3316 149 1185 2469 1383 681 1131 1689 1064 535 583 3306 1064 10095 4909 781 80 7319 2601 5156 2411 1038 2943 2209 1504 1349 544 9324 243 528 89 1815 5415 146 7639 5921 646 82 328 2405 405 2467 3737 191 752 556 191 1303 2208 609 681 157 1851 2825 228 1802 4157
internal_value=1.12207e-10 1.01694e-08 -1.52631e-08 -2.0073e-08 1.23601e-07 -2.94293e-08 2.23936e-07 -6.12278e-08 -1.60944e-07 8.23966e-08 1.02323e-07 3.08918e-07 -1.56908e-09 -6.57347e-08 -9.80962e-08 -2.69341e-07 1.30798e-07 1.4873e-07 1.1106e-07 -3.54649e-08 1.98056e-08 1.52849e-07 3.43278e-07 9.08662e-08 1.21154e-07 -4.41922e-08 1.34838e-08 -5.13825e-08 -4.28038e-08 1.31502e-07 -2.1386e-08 1.4007e-07 1.33586e-07 3.02679e-07 -7.82828e-08 4.57368e-08 1.40985e-08 8.18663e-08 -8.01164e-08 -2.6195e-08 -1.42469e-07 -1.70702e-08 -2.20621e-08 2.81155e-07 -4.0098e-08 -3.11586e-07 1.15815e-07 3.08061e-08 4.34635e-08 8.08621e-08 -9.98301e-09 -1.53838e-08 -9.50872e-08 3.59131e-07 -4.95245e-07 -1.19958e-07 6.42103e-09 -2.88371e-08 -9.73315e-08 1.59748e-07 -4.6478e-09 1.9985e-07 1.77548e-07 -6.93222e-09 4.71212e-08 -1.20133e-07 -2.17836e-07 1.73032e-07 -3.38276e-07 -3.07871e-08 3.67636e-08 -9.31076e-08 -1.10989e-07 -5.9841e-08 5.8806e-08 -9.67871e-08 3.9904e-08 -1.01061e-07 5.18828e-08 3.12369e-08 -1.64646e-09 1.96816e-07 -1.74349e-07 1.12817e-08 -6.53131e-08 2.01816e-08 4.57348e-08 9.40454e-08 1.57244e-07 -3.40321e-09 5.44825e-09 -6.14092e-08 -8.33654e-08 2.11603e-07 -6.0149e-08
internal_weight=197375 185776 151753 149830 34023 138178 9902 64527 11599 24121 21186 5647 73651 63408 30643 2909 17656 16079 4255 32765 49053 2223 5150 11652 13311 24598 46830 27471 25682 7895 18389 11758 11532 4279 13655 19722 10516 9206 27734 6028 1982 18144 1553 2768 3530 2478 6584 4046 2489 5246 27108 26044 21706 1923 1427 9121 15949 7377 11312 4095 9344 2491 6286 1906 5294 12640 1428 1612 245 15675 8572 2399 10050 7736 3511 7293 3634 7211 554 5410 10943 3057 1789 5971 5347 7206 4801 2593 1290 2622 3757 2935 772 2866 9066
internal_count=197375 185776 151753 149830 34023 138178 9902 64527 11599 24121 21186 5647 73651 63408 30643 2909 17656 16079 4255 32765 49053 2223 5150 11652 13311 24598 46830 27471 25682 7895 18389 11758 11532 4279 13655 19722 10516 9206 27734 6028 1982 18144 1553 2768 3530 2478 6584 4046 2489 5246 27108 26044 21706 1923 1427 9121 15949 7377 11312 4095 9344 2491 6286 1906 5294 12640 1428 1612 245 15675 8572 2399 10050 7736 3511 7293 3634 7211 554 5410 10943 3057 1789 5971 5347 7206 4801 2593 1290 2622 3757 2935 772 2866 9066
is_linear=0
shrinkage=0.03


Tree=3
num_leaves=96
num_cat=0
split_feature=0 0 0 3 49 1 9 0 0 2 0 12 27 2 13 2 21 3 36 23 61 9 0 0 0 12 11 0 4 12 27 34 58 51 0 2 18 37 60 16 9 11 4 9 22 0 66 12 25 49 46 0 40 22 31 0 0 21 21 38 57 0 5 21 25 54 0 55 55 0 12 19 70 3 0 14 0 70 32 79 9 40 61 4 0 4 38 5 61 31 0 5 14 5 11
split_gain=3.34259e-07 5.60389e-07 2.86322e-07 1.64058e-07 1.44522e-07 1.26989e-07 1.1144e-07 1.06421e-07 7.88007e-08 7.5976e-08 7.37516e-08 7.34762e-08 7.46251e-08 7.24361e-08 6.43815e-08 9.33359e-08 7.07889e-08 5.93014e-08 5.47527e-08 5.02697e-08 4.78394e-08 4.72833e-08 4.57523e-08 4.43995e-08 4.09872e-08 3.79732e-08 3.52364e-08 3.48578e-08 2.97622e-08 2.95627e-08 4.58994e-08 2.89058e-08 2.73532e-08 2.63731e-08 2.54418e-08 2.51303e-08 2.49224e-08 2.48753e-08 2.30794e-08 2.06307e-08 2.8131e-08 3.06778e-08 2.85903e-08 2.05121e-08 1.95512e-08 1.93326e-08 1.92836e-08 1.95823e-08 1.91382e-08 1.88993e-08 1.83533e-08 2.39096e-08 1.83447e-08 1.8069e-08 1.69837e-08 1.62342e-08 1.60666e-08 4.00452e-08 1.89945e-08 1.60199e-08 1.55287e-08 1.43637e-08 2.10376e-08 1.64684e-08 1.43297e-08 1.39317e-08 2.6032e-08 1.36108e-08 4.6252e-08 1.51856e-08 1.36082e-08 1.34784e-08 1.32547e-08 1.31152e-08 1.23911e-08 1.23e-08 2.23338e-08 1.21941e-08 1.2191e-08 1.219e-08 1.21039e-08 1.20336e-08 1.18994e-08 1.17796e-08 1.14797e-08 1.14254e-08 1.11811e-08 1.1012e-08 1.07297e-08 1.0366e-08 1.00187e-08 1.00139e-08 9.96217e-09 9.92539e-09 9.92186e-09
threshold=1.0000000180025095e-35 0.6922612488269807 2.0361797809600835 1.6664112806320193 -0.68435427546501149 -0.082772936671972261 1.3611485958099367 0.51525974273681652 0.10407574847340585 -0.47447283565998072 -0.19106600433588025 1.7801783084869387 1.5407220721244814 -0.69039747118949879 1.6315134763717654 0.2776485830545426 1.1004447340965273 -0.51137706637382496 -0.18916573375463483 -0.58502265810966481 -0.23094040155410764 0.77678686380386364 0.88604074716568004 0.25178974866867071 1.2392797470092776 1.7801783084869387 -0.37402239441871638 1.0316352248191836 2.4254437685012822 -0.60129648447036732 0.6324419677257539 0.44478997588157659 0.16070172935724261 0.66823601722717296 1.1209292411804201 -1.1251783370971677 0.22325005382299426 0.90558913350105297 -0.29460504651069636 -0.46479679644107813 -0.39771379530429835 -1.1950404047966001 1.3446697592735293 0.08428447321057321 -0.45105579495429987 0.77847072482109081 0.5089935064315797 -1.02543169260025 0.018951487727463249 0.080934729427099242 0.51527744531631481 1.4153874516487124 -0.42231920361518854 -0.94019207358360279 0.34279629588127142 1.2284002900123598 1.0999404788017275 1.2050783634185793 0.56529331207275402 -1.1703767180442808 0.72041815519332897 1.0070005059242251 1.3403603434562685 0.53358426690101635 -0.77190169692039479 0.84102490544319164 1.0316352248191836 5.6375001804553912e-06 7.1037502493709339e-05 0.88891175389289867 0.056728253141045577 1.1908082962036135 1.6186885833740237 2.2306560277938847 0.71942502260208141 0.3454317599534989 0.49575850367546087 -0.025041265413165089 0.089941646903753295 1.1202127933502199 0.0065521220676600942 1.5384142398834231 4.0799086093902597 1.2661627531051638 0.53415927290916454 1.1921529173851015 -0.61455988883972157 0.30988839268684393 0.43515147268772131 0.50581905245780956 0.89740025997161876 1.3034352064132693 -0.26862725615501398 2.2561368942260747 -0.37402239441871638
decision_type=2 2 2 2 2 2 2 2 2 2 2 2 2 2 2 2 2 2 2 2 2 2 2 2 2 2 2 2 2 2 2 2 2 2 2 2 2 2 2 2 2 2 2 2 2 2 2 2 2 2 2 2 2 2 2 2 2 2 2 2 2 2 2 2 2 2 2 2 2 2 2 2 2 2 2 2 2 2 2 2 2 2 2 2 2 2 2 2 2 2 2 2 2 2 2
left_child=10 4 3 5 7 9 14 8 -2 20 77 12 13 75 24 16 -16 37 35 29 34 91 -5 -10 25 26 28 -18 59 30 67 -25 -12 38 46 -9 60 54 43 87 65 42 -42 -19 -4 -27 71 -48 49 88 51 80 -24 -26 -15 -29 58 -58 -38 -7 70 62 63 -31 -63 -41 -67 69 -69 83 -28 85 81 -13 -61 -6 -77 86 -37 -17 -36 -43 -8 -11 -23 -3 -1 -21 -22 -83 -70 -14 -66 -55 -40
right_child=1 2 44 22 11 6 82 18 23 19 32 73 21 17 15 79 27 33 -20 39 48 84 52 31 53 45 36 55 -30 61 -32 -33 -34 -35 50 78 56 -39 94 40 41 72 -44 -45 -46 -47 47 -49 -50 -51 -52 -53 -54 93 -56 -57 57 -59 -60 74 -62 64 -64 -65 92 66 -68 68 90 -71 -72 -73 -74 -75 -76 76 -78 -79 -80 -81 -82 89 -84 -85 -86 -87 -88 -89 -90 -91 -92 -93 -94 -95 -96
leaf_value=-1.37514146356275e-07 -4.6778075426571554e-08 -3.2669938435858194e-08 4.2761603437939027e-07 -2.2121791119333156e-09 -3.9108537145679757e-09 3.7790878339042214e-08 1.3568852421015148e-07 -4.8032651394953744e-08 5.2099054282164553e-07 1.3518690578431294e-07 -1.4172844293112699e-07 -7.4755939094587986e-08 -1.422352936767224e-07 2.0606273933102539e-07 -7.4822818340122185e-08 -8.6534575733276628e-08 -1.2651406791519548e-08 8.6028287245782164e-08 -1.3044751583258011e-08 -5.1085203058578276e-08 4.2945726865193616e-08 2.5688470940851758e-07 2.0140192825209493e-08 3.1976283625772138e-07 -1.6266827842668262e-07 -2.1815666935898159e-07 -3.526650921253844e-08 -5.1141534870889296e-07 4.9089834366863474e-07 -6.0215588288189887e-08 -1.0124657726681909e-07 9.2443261760780188e-08 -3.6318929985646419e-07 2.0532362503808944e-07 -1.9179963324991292e-07 2.4781726513637816e-07 -5.8597127378919709e-08 3.1183789567029572e-07 -4.3955560609803237e-08 5.7933967372213217e-08 -6.6056118630494451e-08 -3.0544444673067125e-08 5.2688769110611779e-07 2.3152639063483628e-07 2.3171944353443242e-07 -2.2725372171739089e-08 -2.2351321189138864e-07 -4.7373273418961429e-08 -4.2250396494562631e-08 -1.761738816190641e-08 9.5314067840073493e-08 -5.8389010266652673e-08 1.5372425249992035e-07 -7.7499732625830127e-08 -2.5539470330154552e-08 -8.0832867034040375e-08 -6.4187136942304204e-08 -4.4661961050513294e-07 5.6238400935387919e-08 1.1145376720766268e-07 8.1366442981708477e-08 -3.9289978569458579e-08 1.4241011530340263e-07 1.0092853142005458e-07 1.690678950328566e-07 -5.1367820821262833e-08 2.9270765539925739e-07 3.2754291105861251e-07 1.5471360842932765e-07 1.7998387708151917e-08 3.451171074163792e-08 1.5732972654630587e-07 1.1262638755471106e-07 1.5689165431336099e-07 -9.1551192787346074e-08 3.6934118302184149e-07 -2.0706847365426123e-08 -1.5875491007789234e-07 2.0684835581069826e-08 6.5728751217094401e-08 -1.1693930913612102e-08 1.4066861812715152e-07 -1.1000957785817514e-07 4.5782328135607491e-07 2.1619918913649919e-08 2.4705645514620842e-07 -5.0552415255206155e-08 3.0029722529003504e-08 1.3667047851470037e-07 -1.7239785358734975e-08 2.2123529534408041e-08 1.9517324857128163e-07 5.4913094081943589e-08 -2.1704716287883173e-07 6.6547568351578047e-08
leaf_weight=2334 552 11190 1142 3137 3921 1020 2787 344 907 1310 703 2923 1857 1829 739 1726 158 3001 2044 7585 2956 416 1083 3915 2792 1536 4822 1246 82 3215 778 580 1786 2049 3235 2186 4659 2312 1272 3394 120 9734 184 1230 781 648 942 1430 3775 3090 371 2993 6375 18637 337 85 1453 295 1794 276 2764 755 742 692 1287 283 652 1256 1179 1277 5254 357 739 236 10713 232 303 3675 236 650 375 738 188 109 338 131 3101 1878 1751 756 908 81 1482 469 1715
leaf_count=2334 552 11190 1142 3137 3921 1020 2787 344 907 1310 703 2923 1857 1829 739 1726 158 3001 2044 7585 2956 416 1083 3915 2792 1536 4822 1246 82 3215 778 580 1786 2049 3235 2186 4659 2312 1272 3394 120 9734 184 1230 781 648 942 1430 3775 3090 371 2993 6375 18637 337 85 1453 295 1794 276 2764 755 742 692 1287 283 652 1256 1179 1277 5254 357 739 236 10713 232 303 3675 236 650 375 738 188 109 338 131 3101 1878 1751 756 908 81 1482 469 1715
internal_value=1.09795e-10 9.8656e-09 -1.51572e-08 -1.98525e-08 1.18358e-07 -2.85603e-08 -5.91926e-08 2.09717e-07 2.94489e-07 -1.61054e-09 -1.56119e-07 7.74574e-08 9.78455e-08 1.19649e-07 -6.78246e-08 -1.75732e-07 -3.15133e-07 1.53721e-07 1.04705e-07 2.55399e-08 -3.58046e-08 -4.95499e-08 9.39141e-08 3.29366e-07 -5.91355e-08 -3.91374e-08 -3.1145e-08 -4.3414e-07 -7.19531e-08 6.93097e-08 1.15432e-07 2.90485e-07 -3.00803e-07 1.10364e-07 -6.27663e-08 1.91665e-07 -7.69034e-09 2.43356e-07 8.33582e-08 3.62628e-10 2.05144e-08 -2.68519e-09 2.93929e-07 1.28416e-07 3.48379e-07 -1.60245e-07 -3.95059e-08 -1.17454e-07 1.31816e-08 4.00236e-08 -1.09602e-07 -1.21141e-07 1.34337e-07 -9.13809e-08 1.70038e-07 -4.8408e-07 -4.85378e-08 -1.29165e-07 -2.66641e-08 -7.58775e-08 1.84027e-08 3.08209e-08 -3.80908e-09 -3.1637e-08 7.64824e-08 8.62468e-08 1.88678e-07 1.43371e-07 1.83826e-07 9.31073e-08 1.11807e-09 -2.3656e-08 -1.0268e-08 -5.73619e-08 -8.64332e-08 1.45285e-08 1.49181e-07 -1.16532e-07 2.25721e-07 -4.48598e-08 -1.73107e-07 -1.83752e-08 1.20099e-07 1.6058e-07 1.51757e-07 -2.939e-08 -8.7934e-08 -3.49844e-08 7.78545e-08 6.08469e-08 9.71035e-08 -1.27946e-07 1.08055e-07 -8.09476e-08 1.94924e-08
internal_weight=197375 185776 150960 149037 34816 138442 64793 10764 5954 73649 11599 24052 20893 18201 61818 4604 2228 13745 4810 41053 32596 2692 10595 5402 57214 35316 33132 1489 12091 14990 6817 4495 2489 9267 21024 2766 21041 4478 7218 26063 16600 12271 304 4231 1923 2184 14050 2372 11572 7797 6974 6603 7458 21898 2166 1331 8201 1748 6453 12009 12840 8173 4649 3907 3524 4329 935 6039 3343 2696 10076 11678 11967 3159 10989 4456 535 9110 2422 2376 3610 11228 2975 1419 754 11321 5435 9463 4707 1494 2087 1938 2769 19106 2987
internal_count=197375 185776 150960 149037 34816 138442 64793 10764 5954 73649 11599 24052 20893 18201 61818 4604 2228 13745 4810 41053 32596 2692 10595 5402 57214 35316 33132 1489 12091 14990 6817 4495 2489 9267 21024 2766 21041 4478 7218 26063 16600 12271 304 4231 1923 2184 14050 2372 11572 7797 6974 6603 7458 21898 2166 1331 8201 1748 6453 12009 12840 8173 4649 3907 3524 4329 935 6039 3343 2696 10076 11678 11967 3159 10989 4456 535 9110 2422 2376 3610 11228 2975 1419 754 11321 5435 9463 4707 1494 2087 1938 2769 19106 2987
is_linear=0
shrinkage=0.03


Tree=4
num_leaves=96
num_cat=0
split_feature=1 2 73 3 42 5 13 6 4 24 15 12 41 14 79 28 31 25 26 36 47 17 10 9 28 4 40 30 5 5 10 10 10 31 47 12 14 10 12 40 42 12 43 47 14 22 12 14 2 3 36 23 79 47 3 31 25 36 32 27 72 61 30 9 4 47 40 27 43 28 48 26 60 68 10 22 40 68 10 9 61 9 44 1 12 43 47 12 5 79 47 68 61 50 70
split_gain=2.40034e-07 1.46872e-07 1.24866e-07 9.66977e-08 7.4607e-08 7.2123e-08 6.36253e-08 1.02221e-07 5.98716e-08 5.17606e-08 5.00312e-08 4.74158e-08 4.73977e-08 4.40741e-08 6.3065e-08 4.22989e-08 3.78466e-08 4.41301e-08 3.45185e-08 3.44288e-08 3.36078e-08 3.21044e-08 3.36254e-08 3.14923e-08 3.02187e-08 2.86046e-08 2.7453e-08 2.69329e-08 3.19661e-08 2.69176e-08 2.68075e-08 2.60959e-08 2.3143e-08 2.29043e-08 2.26735e-08 2.26399e-08 2.17361e-08 2.12353e-08 2.0293e-08 1.95159e-08 1.9289e-08 1.92405e-08 1.77759e-08 1.75693e-08 1.58736e-08 1.5511e-08 1.5473e-08 2.01162e-08 2.12081e-08 1.57948e-08 1.88402e-08 1.53992e-08 1.52324e-08 1.47659e-08 1.46344e-08 1.40825e-08 1.75326e-08 1.39584e-08 1.35179e-08 1.31863e-08 1.27208e-08 1.20497e-08 1.19715e-08 1.19599e-08 1.19401e-08 1.19097e-08 1.1718e-08 1.16209e-08 1.14061e-08 1.1225e-08 1.09242e-08 1.07931e-08 1.06886e-08 1.10511e-08 1.06063e-08 1.27185e-08 1.03479e-08 1.02092e-08 1.01786e-08 1.01114e-08 1.0006e-08 9.95932e-09 9.72375e-09 9.72105e-09 9.25303e-09 9.2044e-09 9.03544e-09 8.88897e-09 8.84498e-09 8.82254e-09 8.7692e-09 8.61929e-09 8.51445e-09 8.48053e-09 8.34064e-09
threshold=-0.041981715708971017 -0.49292592704296107 2.7014951705932622 2.030457735061646 0.097102466970682158 -0.29857474565505976 1.6937828063964846 -0.14005839079618451 2.9938234090805058 2.3065083026885991 -0.61949908733367909 0.44128614664077764 -0.19284794479608533 0.25299601256847387 -0.50710058212280262 0.88763850927352916 0.47013913094997412 -0.39027445018291468 0.18682409077882769 1.4296959638595583 -0.80141824483871449 1.5453454256057741 86.941814422607436 0.10745795816183092 -0.33715738356113428 0.91395172476768505 -0.48970483243465418 -0.2835282683372497 -0.14101301133632657 0.18621805310249331 61.10340881347657 72.658435821533217 58.969116210937507 0.54356074333190929 0.68747147917747509 -0.57073277235031117 -0.38182677328586573 71.283344268798842 -0.022448196075856682 -0.50422850251197804 -0.93771308660507191 -0.21794162690639493 -0.38992255926132197 -0.98662570118904103 0.16668698191642764 -0.60118567943572987 0.92430156469345104 2.1849005222320561 -0.47447283565998072 1.1938886642456057 0.86163032054901134 -0.63534268736839283 -0.016013868153095242 -1.0817948579788206 -0.16893080621957776 0.055127436295151717 -0.52424380183219899 0.69001591205596935 -0.37583245337009424 -0.71127527952194203 1.7479311227798464 0.077239263802766814 0.71062722802162182 0.60394883155822765 0.30582691729068762 -0.40825442969799036 2.7667732238769536 -0.31691119074821467 3.290918350219727 0.34928381443023687 -0.061131533235311501 -0.34261967241764063 -0.49380695819854731 0.14792459458112719 70.560222625732436 0.87187337875366222 1.1676687598228457 0.76495641469955455 91.820484161376967 -0.46581965684890742 -0.29818138480186457 -0.15549867600202558 0.96247670054435741 0.6546129882335664 1.4672384262084963 0.70533931255340587 -1.0512136220932005 0.72660142183303844 0.15014280378818515 -0.087771818041801439 0.68747147917747509 -0.4010831862688064 -0.27296356856822962 0.018228268250823024 -0.50973257422447193
decision_type=2 2 2 2 2 2 2 2 2 2 2 2 2 2 2 2 2 2 2 2 2 2 2 2 2 2 2 2 2 2 2 2 2 2 2 2 2 2 2 2 2 2 2 2 2 2 2 2 2 2 2 2 2 2 2 2 2 2 2 2 2 2 2 2 2 2 2 2 2 2 2 2 2 2 2 2 2 2 2 2 2 2 2 2 2 2 2 2 2 2 2 2 2 2 2
left_child=1 5 3 6 8 10 9 11 16 18 25 31 27 40 20 65 17 35 23 -11 81 38 -23 30 74 36 64 28 41 59 79 -8 -18 43 -10 39 37 -1 78 -3 -7 58 -27 -25 87 90 47 48 92 50 55 -29 -30 -28 -33 56 -50 -56 -6 -14 -45 -48 89 68 71 -5 70 -26 -9 -68 -34 -12 76 -74 -19 77 -40 -76 83 -2 -39 -15 -53 -20 -81 -61 -38 -37 -58 -16 -42 -47 -32 -46 -62
right_child=2 4 -4 15 12 13 7 63 34 19 26 -13 29 14 62 -17 32 24 21 -21 -22 22 -24 33 67 42 53 51 52 -31 46 54 66 -35 -36 44 86 80 72 -41 45 -43 -44 60 93 91 61 -49 49 -51 -52 82 -54 -55 57 -57 88 -59 -60 85 94 -63 -64 -65 -66 -67 69 -69 -70 -71 -72 -73 73 -75 75 -77 -78 -79 -80 84 -82 -83 -84 -85 -86 -87 -88 -89 -90 -91 -92 -93 -94 -95 -96
leaf_value=2.3934821982043826e-08 -1.6013174982396047e-07 3.6156875215090895e-08 1.7462461279252967e-07 1.9232829920915107e-07 7.5672269213029528e-08 -4.8543330528048306e-08 -5.375166191238795e-08 -6.223651052180832e-08 3.4945387769139274e-07 -8.0032222818336195e-08 -9.0332633001298089e-08 -6.3305578623430016e-08 1.0506773781667132e-08 1.4494106124923241e-07 1.1418473937986101e-07 -4.3428820512872315e-08 -1.1312683711085355e-07 1.2516581075405268e-07 -7.9527197549278798e-08 -2.5700160518817418e-07 1.4284138789421689e-07 -2.0824170507329275e-08 2.3499410330688969e-07 1.9032038134114853e-07 1.3602081988063181e-07 1.7110484086671539e-09 1.4457889090238706e-07 1.6636059476246867e-07 1.6106042330779585e-07 4.8580603947120927e-08 -6.8005747711294596e-08 -4.0022440109319813e-08 7.348373902724474e-08 -5.3429652561789941e-08 -9.0587687298082629e-10 9.5088986955328377e-09 2.5870122469045372e-07 -9.9136775469612682e-08 1.2161594311805745e-08 1.4613457804856954e-07 8.5288637183541422e-08 -1.151393895114462e-07 4.1491649939203111e-07 1.8261125907325077e-08 1.1690464477984201e-07 2.5203906529245712e-08 -4.6662865490284718e-08 2.8644714335804076e-07 -1.7847496087583465e-08 1.0353176018976089e-07 -1.0317016282712865e-07 5.3260814196926534e-08 1.5195730846828802e-08 -3.880273953522697e-08 -4.773256847388091e-07 -3.4728757752127794e-08 5.5883226917085415e-08 -1.376351523782798e-07 -6.5445678039338155e-08 -8.2964171907399264e-08 2.3293591690506566e-07 -1.6946432396707998e-07 -7.8144199125820096e-08 3.6989510802093533e-08 1.2918474350985763e-08 8.741462445699535e-08 3.2092732627830855e-07 5.7390153569298684e-08 -2.8270264840118369e-07 2.4033980836385805e-08 -1.7861076442109361e-08 -1.5642587536814847e-07 -8.322366640686023e-08 -2.1432513308622031e-08 2.262470608055083e-07 3.5185669894596696e-10 3.0595449864108559e-07 8.2666066901988559e-08 -1.2074971359834578e-08 -4.9066592284695762e-08 3.0751123142152045e-08 4.3626022696907101e-07 1.9341442668817541e-07 -1.3410408159549166e-07 -2.2946420328830004e-07 1.3649186989902468e-08 6.809432153892241e-08 -9.3285434919151427e-08 1.806914602992728e-07 2.1807883657854848e-09 -8.40575750594864e-08 -5.289256819114525e-08 2.85932226543218e-09 7.4647370748249763e-09 6.0991157830370122e-08
leaf_weight=4217 1761 2494 2454 1550 1504 4418 192 2288 1034 2695 5664 552 2694 130 1144 1928 1071 2751 5462 1564 1547 2280 578 693 2709 151 425 2361 1557 3836 7762 84 2256 2768 198 3996 273 2922 790 3480 3659 1572 245 6945 1850 3191 2235 193 3412 1283 1599 3654 1099 5307 1296 4614 3380 121 1026 5714 422 1060 839 1070 690 2633 247 4514 231 213 2463 3675 5626 4853 4130 274 123 503 1064 2455 652 628 506 6387 284 1050 1218 932 601 1414 296 2112 1899 972 638
leaf_count=4217 1761 2494 2454 1550 1504 4418 192 2288 1034 2695 5664 552 2694 130 1144 1928 1071 2751 5462 1564 1547 2280 578 693 2709 151 425 2361 1557 3836 7762 84 2256 2768 198 3996 273 2922 790 3480 3659 1572 245 6945 1850 3191 2235 193 3412 1283 1599 3654 1099 5307 1296 4614 3380 121 1026 5714 422 1060 839 1070 690 2633 247 4514 231 213 2463 3675 5626 4853 4130 274 123 503 1064 2455 652 628 506 6387 284 1050 1218 932 601 1414 296 2112 1899 972 638
internal_value=-1.48721e-10 3.01016e-08 -3.63435e-08 -4.22729e-08 5.976e-08 -1.13657e-08 -5.09281e-08 -1.46364e-07 8.78496e-08 -4.35428e-08 -4.45797e-08 -3.05046e-07 2.16097e-08 3.22371e-08 1.0229e-07 7.27979e-08 8.05735e-08 9.5185e-08 -3.74606e-08 -1.45109e-07 2.23337e-07 -6.40525e-08 3.10405e-08 -2.10436e-08 1.30968e-07 9.10954e-09 -7.75444e-08 6.16945e-08 1.97158e-08 -1.8433e-08 -3.61087e-08 -3.83698e-07 1.36903e-08 2.17066e-08 2.93236e-07 5.63714e-08 -1.56891e-09 -2.16584e-08 -7.5236e-08 1.00249e-07 3.01888e-09 -3.27839e-08 2.58156e-07 4.56244e-08 2.25317e-08 2.763e-08 -2.51955e-08 -1.70591e-08 -1.94682e-08 2.99359e-09 -6.50064e-09 1.0518e-07 1.00761e-07 -2.51602e-08 -4.25775e-07 6.3881e-09 3.20517e-08 -4.48554e-07 1.84377e-08 -4.56171e-08 3.30535e-08 -8.62469e-08 2.00719e-08 -4.69893e-08 -1.07473e-07 1.26363e-07 3.99492e-08 8.69102e-08 -8.26622e-08 1.84152e-07 2.58205e-08 -1.16369e-07 -4.60384e-08 -5.46167e-08 1.72491e-07 1.9896e-07 5.23238e-08 2.10701e-07 -1.00983e-07 -1.04064e-07 -7.54376e-08 3.86811e-07 7.03931e-08 -1.08964e-07 -6.79253e-08 -6.79669e-08 1.03294e-07 -9.96187e-09 7.48064e-08 5.23218e-08 7.25784e-08 -5.90741e-09 -5.40786e-08 7.92415e-08 1.29754e-07
internal_weight=197302 107477 89825 87371 62660 44817 81260 5834 36087 75426 25439 2245 26573 19378 5702 6111 34855 28605 71167 4259 2305 27163 2858 44004 14881 9678 15761 13279 6758 13294 32538 1693 6250 11466 1232 13724 9282 7791 24305 5974 13676 4102 396 8698 7750 9258 28038 24743 24550 14889 13606 6521 2656 5732 1501 12007 7393 1417 2530 9458 8005 3295 3397 3589 10029 4183 5179 7223 2519 460 4719 9339 11392 10479 7658 4907 913 4633 12913 4500 3574 758 4160 11849 2739 6764 1491 4928 3981 2558 3955 5303 9661 2822 1060
internal_count=197302 107477 89825 87371 62660 44817 81260 5834 36087 75426 25439 2245 26573 19378 5702 6111 34855 28605 71167 4259 2305 27163 2858 44004 14881 9678 15761 13279 6758 13294 32538 1693 6250 11466 1232 13724 9282 7791 24305 5974 13676 4102 396 8698 7750 9258 28038 24743 24550 14889 13606 6521 2656 5732 1501 12007 7393 1417 2530 9458 8005 3295 3397 3589 10029 4183 5179 7223 2519 460 4719 9339 11392 10479 7658 4907 913 4633 12913 4500 3574 758 4160 11849 2739 6764 1491 4928 3981 2558 3955 5303 9661 2822 1060
is_linear=0
shrinkage=0.03


end of trees

feature_importances:
IRPleth_mean=62
EEG_F7_Gamma=26
EEG_T7_Gamma=19
EEG_F5_Gamma=18
heartrate_mean=16
EEG_Fp1_Gamma=16
EEG_Fp2_Gamma=14
EEG_AF3_Gamma=12
EEG_AF7_Gamma=11
EEG_TP9_Beta=10
EEG_FC6_Gamma=10
EEG_FC5_Gamma=10
EEG_TP9_Gamma=9
EEG_FT8_Gamma=9
EEG_PO3_Gamma=8
EEG_PO4_Gamma=8
EEG_FT7_Gamma=8
EEG_AF4_Gamma=8
EEG_C5_Gamma=8
Respir_mean=8
EEG_F8_Gamma=7
EEG_C5_Beta=7
EEG_Fp1_Beta=7
EEG_FT9_Gamma=7
EEG_AF8_Beta=6
EEG_C6_Gamma=6
EEG_F3_Gamma=6
EEG_P7_Gamma=6
EEG_C1_Gamma=6
EEG_TP10_Beta=5
EEG_FT9_Beta=5
EEG_C3_Gamma=5
EEG_O1_Gamma=5
EEG_P6_Gamma=5
EEG_CP6_Gamma=4
EEG_FT10_Gamma=4
EEG_PO7_Beta=4
EEG_FC3_Gamma=4
EEG_T7_Beta=4
EEG_CP5_Gamma=4
EEG_AFz_Gamma=4
EEG_Fp2_Beta=4
EEG_F4_Gamma=4
EEG_Cz_Gamma=4
EEG_F6_Gamma=3
EEG_P2_Gamma=3
EEG_TP10_Gamma=3
EEG_FT9_Theta=3
EEG_FCz_Gamma=3
EEG_F5_Beta=3
EEG_PO8_Gamma=3
EEG_TP8_Gamma=3
EEG_FC1_Beta=3
EEG_O2_Gamma=3
EEG_Oz_Gamma=2
EEG_T7_Alpha=2
EEG_F5_Alpha=2
EEG_T8_Beta=2
EEG_FC2_Gamma=2
EEG_F1_Gamma=2
EEG_FC4_Beta=2
EEG_FT7_Alpha=2
EEG_P5_Gamma=2
EEG_Oz_Alpha=2
EEG_FC3_Beta=1
EEG_FC4_Gamma=1
EEG_P8_Beta=1
EEG_P3_Gamma=1
EEG_T8_Gamma=1
EEG_AF7_Beta=1
EEG_AF4_Beta=1
EEG_F3_Beta=1
EEG_PO4_Beta=1
EEG_F5_Theta=1
EEG_FT9_Alpha=1
EEG_C2_Gamma=1

parameters:
[boosting: gbdt]
[objective: regression]
[metric: rmse]
[tree_learner: serial]
[device_type: cpu]
[data_sample_strategy: bagging]
[data: ]
[valid: ]
[num_iterations: 2000]
[learning_rate: 0.03]
[num_leaves: 96]
[num_threads: 0]
[seed: 0]
[deterministic: 0]
[force_col_wise: 0]
[force_row_wise: 0]
[histogram_pool_size: -1]
[max_depth: -1]
[min_data_in_leaf: 80]
[min_sum_hessian_in_leaf: 0.001]
[bagging_fraction: 0.8]
[pos_bagging_fraction: 1]
[neg_bagging_fraction: 1]
[bagging_freq: 4]
[bagging_seed: 3]
[bagging_by_query: 0]
[feature_fraction: 0.7]
[feature_fraction_bynode: 1]
[feature_fraction_seed: 2]
[extra_trees: 0]
[extra_seed: 6]
[early_stopping_round: 0]
[early_stopping_min_delta: 0]
[first_metric_only: 0]
[max_delta_step: 0]
[lambda_l1: 0]
[lambda_l2: 2]
[linear_lambda: 0]
[min_gain_to_split: 0]
[drop_rate: 0.1]
[max_drop: 50]
[skip_drop: 0.5]
[xgboost_dart_mode: 0]
[uniform_drop: 0]
[drop_seed: 4]
[top_rate: 0.2]
[other_rate: 0.1]
[min_data_per_group: 100]
[max_cat_threshold: 32]
[cat_l2: 10]
[cat_smooth: 10]
[max_cat_to_onehot: 4]
[top_k: 20]
[monotone_constraints: ]
[monotone_constraints_method: basic]
[monotone_penalty: 0]
[feature_contri: ]
[forcedsplits_filename: ]
[refit_decay_rate: 0.9]
[cegb_tradeoff: 1]
[cegb_penalty_split: 0]
[cegb_penalty_feature_lazy: ]
[cegb_penalty_feature_coupled: ]
[path_smooth: 0]
[interaction_constraints: ]
[verbosity: -1]
[saved_feature_importance_type: 0]
[use_quantized_grad: 0]
[num_grad_quant_bins: 4]
[quant_train_renew_leaf: 0]
[stochastic_rounding: 1]
[linear_tree: 0]
[max_bin: 255]
[max_bin_by_feature: ]
[min_data_in_bin: 3]
[bin_construct_sample_cnt: 200000]
[data_random_seed: 1]
[is_enable_sparse: 1]
[enable_bundle: 1]
[use_missing: 1]
[zero_as_missing: 0]
[feature_pre_filter: 1]
[pre_partition: 0]
[two_round: 0]
[header: 0]
[label_column: ]
[weight_column: ]
[group_column: ]
[ignore_column: ]
[categorical_feature: ]
[forcedbins_filename: ]
[precise_float_parser: 0]
[parser_config_file: ]
[objective_seed: 5]
[num_class: 1]
[is_unbalance: 0]
[scale_pos_weight: 1]
[sigmoid: 1]
[boost_from_average: 1]
[reg_sqrt: 0]
[alpha: 0.9]
[fair_c: 1]
[poisson_max_delta_step: 0.7]
[tweedie_variance_power: 1.5]
[lambdarank_truncation_level: 30]
[lambdarank_norm: 1]
[label_gain: ]
[lambdarank_position_bias_regularization: 0]
[eval_at: ]
[multi_error_top_k: 1]
[auc_mu_weights: ]
[num_machines: 1]
[local_listen_port: 12400]
[time_out: 120]
[machine_list_filename: ]
[machines: ]
[gpu_platform_id: -1]
[gpu_device_id: -1]
[gpu_use_dp: 0]
[num_gpu: 1]

end of parameters

pandas_categorical:null
