tree
version=v4
num_class=1
num_tree_per_iteration=1
label_index=0
max_feature_idx=42
objective=regression
feature_names=GSR_mean EEG_FT10_Gamma EEG_F5_Gamma EEG_TP10_Beta EEG_TP9_Gamma EEG_FC3_Gamma EEG_TP8_Gamma EEG_TP9_Beta EEG_POz_Beta EEG_C5_Beta EEG_AFz_Gamma EEG_O1_Gamma EEG_FC6_Gamma EEG_FT9_Gamma EEG_Fp2_Gamma EEG_AF7_Gamma EEG_FC5_Gamma EEG_CP4_Gamma EEG_T7_Gamma EEG_O2_Gamma EEG_CP5_Gamma EEG_T8_Gamma EEG_F1_Gamma EEG_FT7_Gamma EEG_F7_Gamma EEG_Cz_Beta EEG_FT8_Gamma EEG_FC4_Beta EEG_AF8_Beta EEG_FC4_Gamma EEG_FT10_Beta EEG_T7_Beta EEG_AF4_Beta EEG_P2_Gamma EEG_F8_Gamma bin_fraction EEG_Fp1_Beta EEG_T8_Beta EEG_P8_Gamma EEG_FCz_Gamma EEG_FT9_Beta EEG_T7_Alpha EEG_PO8_Gamma
feature_infos=[-2.1022209693910554e-05:3.4080170735251158e-05] [-1.6358927488327026:4.0629754066467285] [-0.85923522710800171:8.0162773132324219] [-1.8358802795410156:3.2150313854217529] [-1.7101210355758667:3.4098765850067139] [-1.1910800933837891:5.2775187492370605] [-1.3814049959182739:4.0483989715576172] [-1.9190413951873779:3.0940680503845215] [-1.8561327457427979:3.2966818809509277] [-1.6300175189971924:3.5118856430053711] [-1.3817868232727051:4.3824005126953125] [-1.5496220588684082:4.0833187103271484] [-1.2708104848861694:4.3089971542358398] [-1.45820152759552:4.2495479583740234] [-1.3631796836853027:4.0717878341674805] [-1.5923292636871338:3.6395905017852783] [-1.337643027305603:4.0803699493408203] [-1.2409214973449707:5.6670064926147461] [-1.3571066856384277:4.43597412109375] [-1.5135469436645508:4.0766935348510742] [-1.3333886861801147:4.6076512336730957] [-1.3690890073776245:4.1564116477966309] [-1.4073140621185303:4.9919037818908691] [-1.4988671541213989:4.1742334365844727] [-1.4131759405136108:4.9209904670715332] [-1.4918442964553833:3.9277424812316895] [-1.4620306491851807:4.1875581741333008] [-1.6278842687606812:3.8273053169250488] [-1.723729133605957:3.3657360076904297] [-1.204067587852478:4.6205048561096191] [-1.8526879549026489:3.2032737731933594] [-1.6236675977706909:3.6559717655181885] [-1.6816434860229492:3.4982030391693115] [-1.339540958404541:5.6712288856506348] [-1.5336791276931763:4.0452995300292969] [0:0.99337750673294067] [-1.5829101800918579:3.6807739734649658] [-1.7019875049591064:3.5119760036468506] [-1.4668811559677124:4.1928682327270508] [-1.4026856422424316:5.4614834785461426] [-1.6108707189559937:3.3325045108795166] [-1.2593696117401123:3.7247560024261475] [-1.5951797962188721:4.0295677185058594]
tree_sizes=8435 8829 8793 8815 8836

Tree=0
num_leaves=96
num_cat=0
split_feature=2 4 1 11 0 16 0 5 0 3 1 20 3 0 5 3 10 9 12 9 7 12 2 1 0 26 7 25 32 14 19 17 0 28 0 21 20 9 14 13 19 0 0 10 19 31 14 27 31 0 16 13 21 1 12 26 2 0 10 0 9 34 14 21 26 16 7 13 27 2 2 25 39 38 19 39 40 0 0 41 0 21 16 12 20 3 34 0 14 26 2 28 12 21 9
split_gain=693866 512655 427600 244814 389633 244283 224775 214804 209502 236337 203398 202565 195951 187279 160222 152496 144955 138331 137744 133738 131208 117765 105192 157491 101136 100323 98879.8 94935 85473.8 78905.2 77762.4 75469.2 74335.7 73644.9 71991.2 71144.6 65684.6 59760.3 58263.9 57936.4 55983.4 52263.9 52255.6 57894.3 48213.3 47646.1 47332.8 85197 70577.8 46689.5 42057.2 41411.7 39327.6 38896.8 38847.7 50814.5 38125.7 37136.1 36566.4 36914.8 37658.5 36421 36392 36143.2 35055 34435.3 34149.2 33538.2 44286.6 32979.1 32163.7 31888.8 31457.5 31969.1 31184.1 29647.3 29552.6 29346.3 29244 28932.9 28546.7 48961.2 34953.1 34460.4 28264.4 27394.5 27065.5 26077.9 25948.1 27737.9 25803.2 25307.5 24977.7 24427.3 24336.7
threshold=1.191114664077759 0.91132706403732311 -0.59627974033355702 -0.41549487411975855 -2.6635500205429702e-07 0.92470067739486705 4.2147648855461747e-06 -0.74330464005470265 4.4048149447917248e-06 0.20079786330461505 -1.0696341395378111 1.2035312056541445 0.53469589352607738 6.2191750203055571e-06 -0.3642259538173675 -0.12211703881621359 -0.88004508614540089 -1.2987216114997862 0.16220118850469592 0.36607716977596289 0.13204825669527057 1.0632534027099612 0.83252725005149852 -0.97372096776962269 -1.7725050156514042e-06 0.50340455770492565 0.13204825669527057 0.49079445004463201 -0.11103638261556624 -1.0978599786758421 -0.65953922271728505 -0.68850424885749806 6.5674748839228422e-06 -0.61817383766174305 3.734129904842121e-06 0.52008086442947399 -0.49784797430038447 -0.13578690588474271 1.7943144440650942 -0.2318816930055618 -0.56866770982742298 1.8236779396829664e-05 -1.1784500131284402e-07 -0.7061692178249358 -0.75218757987022389 0.42569579184055334 0.18343757092952731 -1.2449222207069395 0.22854240238666537 1.201133500217111e-05 0.33059591054916387 -0.92292597889900196 -0.058499854058027261 -0.1036395877599716 -0.41876639425754542 -0.010487408377230166 -0.46581965684890742 1.0115650184161498e-06 1.8882390856742861 4.3117702261952226e-06 -1.1228504776954649 -0.24955485016107556 0.84662407636642467 1.3290007114410403 -1.0333252549171446 -0.010854281485080717 -0.91328084468841542 -0.17623800784349439 -1.3008308410644529 -0.52460333704948414 -0.0907551273703575 0.22796797007322314 -0.36459055542945856 -0.98185685276985157 2.0128266811370854 0.42967975139617925 0.88280689716339122 -1.7725050156514042e-06 1.5850924683036286e-05 1.0343086719512942 9.1983902166248316e-06 1.6079273819923403 0.18539280444383624 0.8533989191055299 -0.55127844214439381 -0.60897731781005848 0.029311436228454116 9.84012467597495e-06 -0.80097121000289906 -0.87076148390769947 -0.28749279677867884 0.06531157344579698 0.78174608945846569 0.28308318555355078 -0.35989834368228907
decision_type=2 2 2 2 2 2 2 2 2 2 2 2 2 2 2 2 2 2 2 2 2 2 2 2 2 2 2 2 2 2 2 2 2 2 2 2 2 2 2 2 2 2 2 2 2 2 2 2 2 2 2 2 2 2 2 2 2 2 2 2 2 2 2 2 2 2 2 2 2 2 2 2 2 2 2 2 2 2 2 2 2 2 2 2 2 2 2 2 2 2 2 2 2 2 2
left_child=1 3 19 8 7 6 14 64 10 17 39 21 22 79 28 74 18 49 24 71 62 91 31 34 88 42 54 -4 33 32 45 44 56 57 -24 -23 69 -9 -13 85 67 70 -16 52 84 -22 48 51 58 -10 -45 -48 -44 -29 55 -11 -19 -3 59 -33 -61 -26 -15 -32 -5 -30 78 68 -18 -31 -17 -2 -28 -74 -8 -62 -68 -69 -38 -14 83 -82 -83 90 -6 -1 -79 -57 89 -12 -49 -7 -70 -27 -92
right_child=2 5 27 4 12 11 15 37 9 26 16 38 13 20 25 41 40 29 -20 -21 30 35 23 -25 61 93 72 53 65 36 63 46 -34 -35 -36 -37 66 -39 -40 -41 -42 -43 43 50 -46 -47 47 80 -50 -51 -52 -53 -54 -55 -56 87 -58 -59 -60 60 75 -63 -64 -65 -66 -67 76 77 92 -71 -72 -73 73 -75 -76 -77 -78 86 -80 -81 81 82 -84 -85 -86 -87 -88 -89 -90 -91 94 -93 -94 -95 -96
leaf_value=74.248797539671841 74.063631975741515 74.41451549026651 74.231569035893727 74.260983215070127 73.904766199872341 74.29485763733507 74.207628181986934 74.363481024492742 73.817821400597609 74.207831214175314 73.728620538735697 74.310249551541389 74.199095576318172 74.179108329304455 74.172499433967971 74.430877149586465 74.353483912565792 74.593128957843533 73.62780293103971 75.049543032039978 74.363300431713128 74.754965353358301 74.167263128030385 74.195537689339901 74.000177826947876 74.06573613254848 74.298010987089967 74.84294713905517 74.032495666189817 74.156978869292175 74.342788914099941 74.141660651947248 74.146518042144635 74.547161661589087 74.930562832184577 74.382912118825843 74.036530437567848 74.191281994496833 74.02368339427251 74.352388685804343 74.116265529145025 74.605384633372637 73.597710644979514 73.942830971480831 74.103269738475063 74.763455011403067 74.645021189985457 74.088247119354847 74.200607710445738 74.101998079914068 74.212734857644506 74.279322870611594 74.060953682423317 74.43703132100336 74.120548548965019 74.58152396618307 74.189482794230457 73.888399890060001 74.421252722576966 73.948327495778045 74.057836132405811 74.20422406560138 74.382524721862254 74.62593717888889 74.637132155558717 74.408918364642645 74.192252277228036 73.876204910937716 73.988029660240485 74.040911849733277 74.287354806712557 74.752080080122909 74.725699294678662 74.431605339792625 73.920569131121326 74.198143365158856 74.377630079122227 74.051664265379372 74.281200972737778 74.095302207308336 74.200030814106626 74.729645357315036 74.16509401145656 74.027095173256711 74.087267773007554 74.079068402895444 74.208806756290997 74.20429815476875 73.693489138510628 74.434313692905263 74.28251505039762 74.474182144944507 73.800064976525348 74.298965853680599 74.152692398547572
leaf_weight=1559 172 214 2888 247 2260 1214 3615 3986 1654 2121 102 3103 8733 3151 1087 3814 278 821 1221 1247 372 2133 146 1933 3480 553 1347 226 951 3124 2860 7244 1165 1430 463 594 2079 3327 802 2209 12455 1071 630 2614 7226 975 497 2453 7802 761 648 634 225 3321 2218 625 283 272 300 2357 7692 1017 1055 472 2372 282 6823 523 6018 7485 2231 91 394 2154 374 1645 871 2465 556 3340 4435 282 151 1921 1158 1893 1643 224 1134 95 2192 1710 713 1486 3186
leaf_count=1559 172 214 2888 247 2260 1214 3615 3986 1654 2121 102 3103 8733 3151 1087 3814 278 821 1221 1247 372 2133 146 1933 3480 553 1347 226 951 3124 2860 7244 1165 1430 463 594 2079 3327 802 2209 12455 1071 630 2614 7226 975 497 2453 7802 761 648 634 225 3321 2218 625 283 272 300 2357 7692 1017 1055 472 2372 282 6823 523 6018 7485 2231 91 394 2154 374 1645 871 2465 556 3340 4435 282 151 1921 1158 1893 1643 224 1134 95 2192 1710 713 1486 3186
internal_value=74.1914 74.1799 74.466 74.1581 74.1919 74.2914 74.2352 74.3687 74.1169 74.1698 74.0671 74.4175 74.1691 74.2473 74.135 74.3291 74.037 74.1232 73.9174 74.9201 74.3518 74.5323 74.1398 74.3282 73.9782 74.0573 74.3013 74.3593 74.3136 74.1457 74.4611 74.1308 74.3137 74.4389 74.7481 74.6741 74.1275 74.2852 74.2513 74.2325 74.072 74.4123 73.9874 73.9386 74.0593 74.6534 74.1486 74.1899 74.1245 73.9072 73.9964 74.4405 73.719 74.4632 74.2155 74.2864 74.4898 74.12 74.0936 74.0884 74.0555 74.0463 74.2302 74.3831 74.6017 74.1188 74.1814 74.0247 73.9833 74.0751 74.378 74.3043 74.4155 74.4775 74.1806 74.0826 74.2133 74.0875 74.0882 74.1704 74.1705 74.2298 74.5336 74.1409 73.9665 74.1557 74.1145 74.4823 73.7486 74.068 74.1688 74.3999 73.968 74.2357 74.2056
internal_weight=197375 189430 7945 158377 86867 31053 21497 9932 71510 34705 36805 9556 76935 20958 10392 11105 31144 25622 7049 1510 8885 5651 55977 2542 5828 7243 9083 6435 3149 23207 4679 53435 2269 1916 609 2727 20938 7313 3905 5661 24095 7116 5204 4117 10644 1347 42791 15751 27040 2415 3262 1131 855 3547 5188 2970 1104 486 19238 18938 11694 4497 4206 3332 2619 1233 10329 11640 7009 10609 6045 263 3895 2548 3989 9337 7694 4631 2635 12073 14620 4868 433 9752 3418 3452 4108 849 1331 197 7831 2924 6731 2039 5378
internal_count=197375 189430 7945 158377 86867 31053 21497 9932 71510 34705 36805 9556 76935 20958 10392 11105 31144 25622 7049 1510 8885 5651 55977 2542 5828 7243 9083 6435 3149 23207 4679 53435 2269 1916 609 2727 20938 7313 3905 5661 24095 7116 5204 4117 10644 1347 42791 15751 27040 2415 3262 1131 855 3547 5188 2970 1104 486 19238 18938 11694 4497 4206 3332 2619 1233 10329 11640 7009 10609 6045 263 3895 2548 3989 9337 7694 4631 2635 12073 14620 4868 433 9752 3418 3452 4108 849 1331 197 7831 2924 6731 2039 5378
is_linear=0
shrinkage=1


Tree=1
num_leaves=96
num_cat=0
split_feature=16 24 39 0 8 26 31 5 42 26 1 6 22 15 0 21 5 42 26 0 4 13 14 5 12 21 13 12 1 8 4 0 13 12 31 14 0 0 15 14 4 4 37 4 0 0 17 3 1 12 0 4 24 0 15 3 15 12 25 13 15 12 0 3 0 0 0 28 1 0 3 0 15 1 8 0 15 17 0 20 41 26 21 13 12 4 16 0 15 28 15 14 0 41 15
split_gain=559019 329667 432606 248464 239442 241399 225715 181725 170928 156981 138634 138886 149028 287760 144906 199385 118860 98922.5 92512 90763 91034 90430.1 78852.9 77119.6 74757 67407.8 66602.3 73668.9 64130.2 132260 62389.4 61777.3 61308.5 59912.1 58924.7 57937.2 56437.3 55253.8 190653 52274.6 62684.1 51179.1 50993 50638.5 50278.5 49056.8 46068.4 44986.4 43882.6 63872.7 42357.4 42121.1 41644.3 40415.4 39115.7 37897.1 37813 36768 35454.1 35016.6 78713.5 63723.8 45223 43973.9 59504.4 34498.2 34462.1 33881.4 32888.3 31963.4 31856.6 47325.9 34381.9 31443.1 32120.2 31427.9 31155.4 30901.9 30826 30461.5 30300.1 30295.5 28253.1 27640.7 27566.8 27208.2 26524.9 25690.2 25393.9 25104.4 25040.9 24988.5 24625.3 34416.6 24073.2
threshold=1.5375640392303469 -0.26718840003013605 -0.44015055894851679 1.5699424693593759e-05 0.66837739944458019 0.87187337875366222 0.78791025280952465 -0.29039670526981348 -1.0833795666694639 -0.37060378491878504 -1.1742804646492002 0.13677527755498889 -0.15304023027420041 -1.2513988018035886 9.3260346147872059e-06 1.1467072963714602 -0.97254329919815052 0.18335562944412234 0.66545653343200695 1.2657850447794774e-06 -0.36138397455215449 -0.81237798929214466 0.29837839305400854 -0.64961799979209889 1.0923858880996706 0.10528055578470231 0.25224649906158453 0.80508074164390575 -1.0084558129310606 1.0575053095817568 1.1436251997947695 1.6278954717563469e-05 0.1838181018829346 -0.30416510999202723 -0.44339878857135767 0.23405878990888598 7.9481346801912895e-06 -2.5651399937487436e-06 -0.96438336372375477 0.80804538726806652 0.73244181275367748 -1.1644855737686155 1.0805071592330935 0.42468482255935674 3.0471498746464936e-07 1.4354490303958302e-05 -0.62160310149192799 0.71442255377769481 -0.60472312569618214 0.61658948659896862 1.353944026050158e-05 0.83615410327911388 -0.98165860772132862 6.6775351115211387e-06 -0.46803854405879969 0.27892713248729711 -1.1158679127693174 -0.14072947949171064 -0.63957804441452015 -0.33950003981590265 -0.96438336372375477 0.67659261822700512 8.7304451881209405e-06 0.6717718541622163 5.622404842142715e-06 -4.5941601456433992e-06 -1.3029149386056813e-06 0.45021763443946844 0.45489996671676641 -1.9912600919269603e-06 0.44482840597629553 5.216590125201038e-06 -1.0538666844367979 -0.9968397021293639 0.95039996504783641 -5.3144999512255702e-08 -0.69087395071983326 0.24139621108770373 -3.029585059266537e-06 -0.4314653724431991 1.5866870880126955 -0.55423802137374867 0.84102490544319164 0.14972454309463504 1.0067730545997622 0.95097079873085033 -0.90832537412643422 -6.5490499423503923e-07 -0.46803854405879969 0.16557359695434573 -0.20332761853933332 2.030457735061646 1.6427929949713874e-05 0.98121574521064769 -1.4839427471160886
decision_type=2 2 2 2 2 2 2 2 2 2 2 2 2 2 2 2 2 2 2 2 2 2 2 2 2 2 2 2 2 2 2 2 2 2 2 2 2 2 2 2 2 2 2 2 2 2 2 2 2 2 2 2 2 2 2 2 2 2 2 2 2 2 2 2 2 2 2 2 2 2 2 2 2 2 2 2 2 2 2 2 2 2 2 2 2 2 2 2 2 2 2 2 2 2 2
left_child=1 10 8 7 18 22 42 9 46 -4 34 12 16 32 39 79 21 26 24 23 31 53 48 81 -2 54 27 51 29 -19 83 57 44 -27 82 -17 -7 38 -18 40 -13 -39 80 -26 -14 -46 -3 -22 -6 -50 70 73 -23 58 66 -8 -54 -21 -12 61 68 63 -63 -43 -65 -30 -11 -68 87 -62 72 -72 75 74 -9 -15 -29 -75 -32 84 -5 -10 94 -20 -16 -67 -59 -61 -73 -70 -33 -80 93 -71 -1
right_child=4 2 3 6 5 36 55 17 19 25 11 14 13 50 15 35 37 28 30 20 47 52 -24 -25 43 33 -28 76 65 -31 78 90 -34 -35 -36 -37 -38 41 -40 -41 -42 59 -44 -45 45 -47 -48 -49 49 -51 -52 -53 56 -55 -56 -57 -58 86 -60 60 69 62 -64 64 -66 85 67 -69 89 92 71 88 -74 77 -76 -77 -78 -79 91 -81 -82 -83 -84 -85 -86 -87 -88 -89 -90 -91 -92 -93 -94 -95 -96
leaf_value=-0.27530381551425537 0.098149615594667033 -0.30704786971789877 0.020344085128839961 0.035790681988651485 0.81051838619112959 0.020408516859495091 0.23828885806815397 0.01635325190241961 0.097889423792810598 0.51743509897650852 0.38088012005591759 -0.05691248575085061 0.0023176852726312573 0.029344542864710093 -0.12563983703045878 0.08385263365529641 0.075938273202826714 0.062283227962271905 -0.23403320652735271 -0.092164256397113328 -0.025412081173726522 -0.18045411406547823 0.18435644635698273 0.0055736786173131549 0.035302012906606638 0.38743870035279876 0.028629710855598053 -0.59051670186127292 0.17820188585683344 0.74680440090576261 -0.23775331834192881 -0.12485505282164228 -0.00092917543572496129 0.18204546087253765 0.13438077298909915 0.58495211090714372 0.24855418123817366 -0.16094381637896232 -0.47341815281632232 -0.15364765585445583 0.10349568341360151 -0.024839909230298999 0.43460402417243843 0.47587674956257831 -0.57583228827021216 -0.079455317672033177 -0.11828478562163321 0.14579506972741238 0.090936303467868448 0.59642625793488557 0.0078487502064153152 0.1239395612598027 0.30406712050058154 -0.11128576444920438 0.077284513491439222 0.51289079746799981 -0.01837719388588396 -0.3870297201606091 0.082106437976390709 0.28652497265024324 -0.48714331302059788 -0.33973088459409895 0.036209507036160722 -1.373595500712328e-05 0.34209603952380957 0.0034567776785744222 0.10098017747363898 0.44321131335806285 0.10181102872608144 -0.07424565801049228 -0.10914827618123726 0.36625530757059988 -0.1445824841203622 -0.14911058119562018 0.61328618442622296 -0.39377824146767904 -0.22028264786995327 -0.0051879617580713709 0.18587635568118005 0.077263935071956988 0.31748574542302593 0.38679380290971621 -0.29809348338034192 -0.037808769802253631 0.43956811603338242 0.095502822953101002 -0.18099162903339977 -0.048293424661562709 0.0013870059545964223 0.48986041616476494 0.1335663144256338 -0.055707631352736722 -0.26621163610630394 -0.22103691361405714 0.017170029162405183
leaf_weight=264 4085 2880 7432 3208 623 1667 579 336 545 339 1187 11070 170 190 1218 271 1052 837 1097 4863 6698 1020 519 3457 315 2402 6501 235 1535 363 227 488 249 2744 4287 897 2353 4601 1234 3589 2732 11965 371 924 2061 197 1958 1738 271 1346 2218 1018 430 258 4045 2157 1350 656 513 222 227 907 421 1215 732 10528 1109 339 658 5942 4376 296 8198 4039 105 928 1551 2011 1624 4014 383 820 293 1570 81 3982 3967 2602 405 193 1083 504 1024 1896 5295
leaf_count=264 4085 2880 7432 3208 623 1667 579 336 545 339 1187 11070 170 190 1218 271 1052 837 1097 4863 6698 1020 519 3457 315 2402 6501 235 1535 363 227 488 249 2744 4287 897 2353 4601 1234 3589 2732 11965 371 924 2061 197 1958 1738 271 1346 2218 1018 430 258 4045 2157 1350 656 513 222 227 907 421 1215 732 10528 1109 339 658 5942 4376 296 8198 4039 105 928 1551 2011 1624 4014 383 820 293 1570 81 3982 3967 2602 405 193 1083 504 1024 1896 5295
internal_value=9.26581e-05 -0.01547 0.0263926 0.0736771 0.163881 0.302439 0.245523 0.0512971 -0.0679204 0.126824 -0.0547895 -0.0676096 -0.0923354 -0.160729 -0.00656226 0.114493 -0.0590576 0.00920965 0.0730531 -0.0355088 -0.0643364 0.0815765 0.518447 0.0810053 0.160156 0.198892 -0.045025 -0.0965347 0.0588867 0.270249 -0.0193146 -0.120957 -0.449268 0.27803 0.0499103 0.469029 0.154005 -0.0782391 -0.220763 -0.0516832 -0.0251505 -0.0682335 0.100713 0.364104 -0.495208 -0.532634 -0.230734 0.00988652 0.595621 0.511926 -0.11418 -0.0553098 -0.0278062 0.237866 0.128992 0.454995 0.0597705 -0.14981 0.290923 -0.052991 -0.0896436 -0.0222855 -0.220676 -0.00331877 0.128826 0.0430473 0.245819 0.181603 0.0275071 -0.137007 -0.132984 -0.0724833 -0.165932 -0.0834514 0.160607 -0.321946 -0.269604 -0.101289 0.0931699 0.0364056 0.065995 0.271756 -0.011995 -0.118635 -0.0897744 0.0287268 -0.210383 -0.0217886 0.156058 0.19076 0.0532362 0.128661 -0.127931 -0.109802 0.00318627
internal_weight=197375 180250 87302 58149 17125 6779 6698 51451 29153 18410 92948 82809 58937 19288 23872 6481 39649 33041 10346 24315 19493 4758 2759 4822 5324 10978 15796 9295 17245 1200 5022 11057 2677 5146 10139 1168 4020 34891 2286 17391 13802 32605 3962 1239 2428 2258 4838 8436 2240 1617 16611 7509 2800 1958 5832 2736 1780 9486 1700 28004 12764 15240 1328 13912 1947 16045 1787 1448 3675 9089 14393 5077 9316 6491 441 1118 1786 6050 2355 5313 3591 1365 5852 2667 1299 14510 4623 2824 701 851 1571 2128 8862 7838 5559
internal_count=197375 180250 87302 58149 17125 6779 6698 51451 29153 18410 92948 82809 58937 19288 23872 6481 39649 33041 10346 24315 19493 4758 2759 4822 5324 10978 15796 9295 17245 1200 5022 11057 2677 5146 10139 1168 4020 34891 2286 17391 13802 32605 3962 1239 2428 2258 4838 8436 2240 1617 16611 7509 2800 1958 5832 2736 1780 9486 1700 28004 12764 15240 1328 13912 1947 16045 1787 1448 3675 9089 14393 5077 9316 6491 441 1118 1786 6050 2355 5313 3591 1365 5852 2667 1299 14510 4623 2824 701 851 1571 2128 8862 7838 5559
is_linear=0
shrinkage=0.03


Tree=2
num_leaves=96
num_cat=0
split_feature=2 4 1 6 11 12 8 16 15 25 10 37 22 34 27 23 26 25 3 16 1 10 26 15 4 19 1 26 9 2 26 12 42 12 39 21 30 40 22 10 27 6 39 18 3 6 11 22 18 19 42 36 9 23 4 23 12 4 17 40 4 40 23 2 3 21 16 10 36 18 22 4 1 15 40 15 18 15 23 30 15 22 40 11 1 40 3 15 2 26 17 12 32 40 40
split_gain=629780 460848 410784 231212 215379 185674 165924 147596 129481 126291 110216 101611 110659 94831.7 93186.7 107634 106726 93135.9 90949.4 89712.7 88526.1 138620 75474.8 74887.9 72204.8 68665.6 63133.9 61147.5 63802.6 60992.8 59880.9 57039.7 51739.4 50852.1 49651.9 48973.8 47941.1 47513.1 45971.9 97608.3 45914.7 45799.4 45689.2 45232.8 41975.4 39157.3 37098.7 36487.1 36000.3 34338.3 34097.8 52725.2 36477.3 33986.5 33165 31674.8 31607.6 31426.6 30878.1 30638.3 28174.1 27441 27012.1 26908.5 26780.5 26704.6 26538.6 25901.5 25774.6 24597.3 24477.4 24473.4 24260.8 24036.6 23581.4 23494.2 28465.5 23266.3 22470.1 22212.4 21075.9 23258.5 22006.5 20108.6 19757.6 19733.1 19509.7 19176.6 19067.9 18466.3 18430.3 18339.5 19619 18194.4 18179.2
threshold=1.1266676783561709 0.91132706403732311 -0.59627974033355702 0.14774755388498309 -0.41549487411975855 0.10156759992241861 0.23862377554178241 0.85050415992736828 0.083500780165195479 0.32530327141284948 -0.81589159369468678 0.49629656970500952 -1.2006371617317197 0.54477837681770336 -1.3672471642494199 -0.94706657528877247 -0.2526856511831283 0.55037072300910961 0.729687660932541 -0.96880561113357533 -1.0322726368904112 0.87258738279342662 0.46111552417278295 -1.0893227458000181 -0.35163637995719904 -1.1105350852012632 -1.1605024337768552 0.1266848370432854 -1.1893184185028074 -0.61138802766799916 -1.0725850462913511 0.78174608945846569 0.49106894433498388 -0.34341113269329065 -0.23551412671804425 1.2899659276008608 -0.38561530411243433 -1.0849646925926206 0.14915074408054355 -0.56983965635299672 -0.81815350055694569 -1.1735994815826414 -0.30178251862525934 -0.96604976058006276 0.64263892173767101 2.719418048858643 1.6454712748527529 0.14915074408054355 0.25586704909801489 -0.34646733105182642 -1.0833795666694639 0.12614183127880099 -1.3347039222717283 0.48764005303382879 1.934980094432831 -0.62076228857040394 1.2481920719146731 2.3315453529357915 -0.084612078964710222 0.96177977323532116 -1.4329103827476499 0.021506296470761303 1.4882912635803225 0.18559277802705768 0.69963562488555919 0.051698423922061927 1.0040124058723452 0.22423736006021502 -0.57417073845863331 -0.13066095858812329 -0.54734632372856129 -1.5029641985893247 0.27443638443946844 -0.59616610407829274 0.53034818172454845 -1.4570437073707578 -0.65701463818550099 -1.0420481562614439 -0.30927872657775873 -0.78571194410324086 -0.62186694145202626 -0.12867953628301618 -0.54854023456573475 1.5976124405860903 -0.50912341475486744 -1.0849646925926206 0.90773588418960582 -0.9965963065624236 -0.41783402860164637 -0.80505067110061634 -0.44733722507953638 0.65719166398048412 0.18674945831298831 -0.5393787920475005 -0.4923745989799499
decision_type=2 2 2 2 2 2 2 2 2 2 2 2 2 2 2 2 2 2 2 2 2 2 2 2 2 2 2 2 2 2 2 2 2 2 2 2 2 2 2 2 2 2 2 2 2 2 2 2 2 2 2 2 2 2 2 2 2 2 2 2 2 2 2 2 2 2 2 2 2 2 2 2 2 2 2 2 2 2 2 2 2 2 2 2 2 2 2 2 2 2 2 2 2 2 2
left_child=1 4 6 7 5 11 -2 18 13 14 23 12 41 46 16 27 -6 62 38 30 21 -11 86 70 58 44 -21 28 -16 43 75 -9 66 -24 49 59 -19 -18 54 73 85 68 72 60 -22 -10 53 93 -33 90 51 -28 87 91 83 -20 64 88 94 -27 -17 -58 -4 -55 -36 -54 -15 -8 -1 -63 -7 -32 -37 -40 89 -14 -77 -49 -41 -43 81 -73 -82 -3 -51 -29 -13 -52 -57 -67 -31 92 -5 -26 -12
right_child=2 3 17 8 9 10 67 31 45 20 24 22 19 32 15 29 37 36 55 26 25 -23 33 -25 47 35 50 40 -30 34 71 48 -34 -35 56 42 -38 -39 39 78 -42 79 -44 -45 -46 -47 -48 77 -50 84 52 -53 65 63 -56 57 61 -59 -60 -61 -62 69 -64 -65 -66 74 -68 -69 -70 -71 -72 80 -74 -75 -76 76 -78 -79 -80 -81 82 -83 -84 -85 -86 -87 -88 -89 -90 -91 -92 -93 -94 -95 -96
leaf_value=0.34957616970092242 0.035279932176125801 0.010689451670879445 -0.04218522380924359 0.16055235250382147 -0.015836610641804111 -0.21686735861680723 0.32521304263761552 0.076211375323505762 0.12810861829744991 0.11664787956833028 -0.30432361842912586 -0.03892479157533961 -0.44677100246066359 0.33434513434063046 -0.2931195055528189 -0.12909168283144631 0.44464912499270598 0.67105637223865744 -0.076609455917099667 0.055761339209738511 0.056621106591727581 0.75386033774145056 0.29082550196149243 -0.22310351736772177 -0.073231806029342206 0.042179462015383383 -0.064964422400692112 0.46349675095496101 -0.10300604848233567 -0.14530864486946085 -0.26346875780978274 0.43318761430168379 0.21638376857519309 0.003274599685139688 0.0039525074073961603 0.56719281220825402 0.22614009663029019 0.079453417640527921 -0.59855879875595841 -0.18735896903299176 -0.070905039033529682 0.12929887297713286 0.084202400357672791 0.047433537058613327 0.46096172681661024 -0.02765873463159832 -0.12996224293207867 -0.45820895076612939 0.078082505038473748 -0.070643878004787455 -0.38225091724618937 -0.26236969857320952 -0.06029969404677276 0.23266089501595352 -0.18350703903571405 0.35756565874506357 -0.14063922045158606 -0.16005249297894936 -0.10085740017423532 -0.039748729743060027 0.37608713298758784 0.32153586905291104 0.12655149202693011 0.51037197267453016 0.089566959084084088 -0.32643407025023136 0.56869073271626547 0.84249511380262709 0.024458712660967084 -0.037624739216343794 -0.63816859509701396 -0.0022760242634563832 0.1547140189138389 -0.16783864812127181 0.14820442404490908 -0.13160503971958148 -0.33533242439903566 -0.11569448381185804 0.012635191978992053 -0.061948915688997623 -0.060854160722710562 -0.24261197660868758 -0.21594289823332907 -0.20779778400632404 0.0016157571044305553 0.030620156838135282 0.062435106282041089 -0.09914646075005587 0.14515586568729402 0.0010324783625875137 -0.059938559412406965 0.31136887773108762 -0.046605687416989408 0.065458314621246849 -0.1740652408517365
leaf_weight=797 306 4383 1832 1074 1927 152 97 1675 7837 1308 2387 5214 539 676 2216 115 974 232 591 4153 398 400 1529 1550 1483 13137 3256 289 5615 4216 812 975 937 867 16029 331 3326 479 528 1014 699 985 1426 2671 551 1782 327 190 350 5406 444 1945 19491 1228 1216 581 2133 222 1767 5975 690 233 1596 424 4135 165 1281 1295 303 635 747 2768 212 152 1059 1312 1171 2603 1006 1223 1578 415 1725 413 9197 141 2540 420 1110 2154 4954 379 665 1993 1636
leaf_count=797 306 4383 1832 1074 1927 152 97 1675 7837 1308 2387 5214 539 676 2216 115 974 232 591 4153 398 400 1529 1550 1483 13137 3256 289 5615 4216 812 975 937 867 16029 331 3326 479 528 1014 699 985 1426 2671 551 1782 327 190 350 5406 444 1945 19491 1228 1216 581 2133 222 1767 5975 690 233 1596 424 4135 165 1281 1295 303 635 747 2768 212 152 1059 1312 1171 2603 1006 1223 1578 415 1725 413 9197 141 2540 420 1110 2154 4954 379 665 1993 1636
internal_value=9.14629e-05 -0.0114059 0.249857 0.0946888 -0.0321237 -0.0706975 0.668105 0.00587499 0.170692 -0.000291813 -0.166487 -0.0462537 -0.064946 0.268931 -0.0225875 -0.0313115 0.130587 0.148037 -0.0441242 -0.0776932 0.0586463 0.266585 0.0397732 -0.349915 -0.129184 0.042502 -0.0536006 -0.127111 -0.156865 -0.0142807 -0.154912 0.19271 0.40038 0.186864 -0.0232619 0.03125 0.255512 0.324532 -0.0899218 -0.19271 0.0791793 0.102266 0.17363 0.10694 0.291861 0.0992517 0.175929 -0.0586063 0.339645 -0.053718 -0.0693004 -0.13886 -0.0540463 0.202516 -0.0437104 0.115161 0.00799544 0.174424 -0.205553 0.0165647 0.303778 -0.0828074 0.0364028 0.304469 0.0215165 -0.0468045 0.488165 0.806967 0.260228 0.0593034 -0.567576 -0.108359 0.40731 -0.503055 0.0310522 -0.267188 -0.227877 -0.139306 -0.0878439 0.0234075 -0.0888651 -0.0337437 -0.141931 -0.00820401 -0.0251406 0.322352 -0.0057145 -0.245178 0.218473 -0.0225284 -0.0992114 0.122783 0.0813718 0.0062795 -0.251465
internal_weight=197375 188691 8684 30826 157865 71373 1698 14216 16610 86492 14508 56865 46715 6991 62754 59374 3380 6986 11216 43407 23738 1708 10150 2449 12059 22030 33087 8960 7831 50414 10320 3000 2894 2396 46938 21081 3558 1453 8712 2700 1129 3308 1969 3476 949 9619 4097 6269 1325 23773 28934 5201 23733 3770 6012 2504 23165 1913 5790 19112 805 3001 3428 1652 20164 22869 1957 1392 1100 868 899 7298 543 680 3378 3022 2483 2793 2020 2208 6486 3183 3303 4796 14603 430 7754 864 1691 2319 9170 2118 1739 3476 4023
internal_count=197375 188691 8684 30826 157865 71373 1698 14216 16610 86492 14508 56865 46715 6991 62754 59374 3380 6986 11216 43407 23738 1708 10150 2449 12059 22030 33087 8960 7831 50414 10320 3000 2894 2396 46938 21081 3558 1453 8712 2700 1129 3308 1969 3476 949 9619 4097 6269 1325 23773 28934 5201 23733 3770 6012 2504 23165 1913 5790 19112 805 3001 3428 1652 20164 22869 1957 1392 1100 868 899 7298 543 680 3378 3022 2483 2793 2020 2208 6486 3183 3303 4796 14603 430 7754 864 1691 2319 9170 2118 1739 3476 4023
is_linear=0
shrinkage=0.03


Tree=3
num_leaves=96
num_cat=0
split_feature=2 4 1 6 24 4 3 8 15 19 14 3 10 19 24 15 34 16 25 27 13 21 2 33 34 22 14 1 10 22 34 29 15 14 19 14 2 20 16 20 14 4 31 22 10 13 16 22 10 1 14 39 14 2 13 15 24 10 24 13 18 20 34 15 6 18 8 13 23 26 24 21 29 20 21 2 6 15 22 10 22 39 22 15 23 15 27 26 15 24 15 23 23 20 2
split_gain=592828 433285 368464 221377 232224 170626 142497 130627 126657 122521 106179 103411 103243 99805.9 91214.2 105413 87590.9 84681.5 80997.9 72656.7 87308.4 85262.3 80528.7 80696.8 76195.1 67569.5 65097.9 50456.9 176598 48517.2 56975.4 66462.6 54461.5 48471.9 47204.6 62518.9 47075.2 43984.8 47745.3 43855.1 40714.8 39945.4 39791 38207.8 53125.5 37455.5 35746.4 35254.2 41729 34785 34664.7 39612.1 34503 34100.9 33465.7 32235.6 32632.1 32089.7 31283.8 30848.3 37010.8 30779.1 29810.3 40436.2 29600.8 28961.2 28756.9 28712.8 28334.9 27158.2 25892.3 25508.2 25118 24976.8 31308.3 27822.1 24845.3 32357.7 32239.7 42593.4 24817.7 24624.1 23630 33619.8 23576.1 23502.3 23253.6 22983.4 30853 22884 23330 22845.7 22552 22448.3 22428.8
threshold=1.191114664077759 0.89147245883941661 -0.59627974033355702 0.17090543359518054 -0.39827129244804377 -1.2081752419471739 0.71442255377769481 0.07115557044744493 0.083500780165195479 -0.3932719081640243 -1.0193778872489927 0.16826811432838443 -0.95217564702033985 -1.0986719131469724 -1.2369626164436338 -1.3168705105781553 0.59215790033340465 0.48483656346797949 0.46094669401645666 -1.3941089510917661 -0.030330021865665909 0.44021369516849523 -0.49069347977638239 0.58381330966949474 -0.41672676801681513 -1.1146743297576902 -0.984348565340042 -1.1201766133308408 1.2202301621437075 0.10988461226224901 -0.21478444337844846 -0.55371171236038197 -1.2081079483032224 2.1240712404251103 -0.50967293977737416 -1.0193778872489927 -0.28357003629207606 1.6724292039871218 1.0040124058723452 -0.62945637106895436 0.42086599767208105 -0.15155658125877378 0.94862985610961925 -0.24550428241491315 -0.86394697427749623 -0.7384011149406432 -0.59067934751510609 -0.017314927652478215 -0.76284852623939503 -0.1036395877599716 2.1240712404251103 0.35606297850608831 0.80804538726806652 -0.095820371061563478 -0.99384912848472584 -0.96438336372375477 0.082519263029098525 1.5381655097007754 0.34964969754219061 -0.32280804216861719 -0.77365794777870167 -0.5841044783592223 0.22325005382299426 0.073067102581262602 -0.2128525301814079 -0.90703535079956044 1.5860579609870913 -0.5515342354774474 -0.78848341107368458 -0.14554890245199201 0.12747628986835483 -0.52936503291130055 -0.12848176807165143 2.0722779035568242 0.99417087435722362 -0.28357003629207606 -0.28713294863700861 -0.53741392493247975 -0.052321845665574067 -0.68562889099121083 0.83372458815574657 -0.22836402803659436 -0.61412891745567311 -1.4336776733398435 0.15346600115299228 -0.60517427325248707 0.86717593669891369 0.75625666975975048 -0.78893518447875965 0.15014280378818515 0.062160003930330283 -0.11498949304223059 1.4882912635803225 2.1796429157257085 -0.62175452709197987
decision_type=2 2 2 2 2 2 2 2 2 2 2 2 2 2 2 2 2 2 2 2 2 2 2 2 2 2 2 2 2 2 2 2 2 2 2 2 2 2 2 2 2 2 2 2 2 2 2 2 2 2 2 2 2 2 2 2 2 2 2 2 2 2 2 2 2 2 2 2 2 2 2 2 2 2 2 2 2 2 2 2 2 2 2 2 2 2 2 2 2 2 2 2 2 2 2
left_child=1 5 7 4 17 34 9 -2 16 10 25 -6 71 26 15 68 40 47 92 24 22 39 43 61 -12 94 -14 28 66 30 55 46 91 -10 35 -1 -13 38 -18 85 58 -15 82 87 -45 52 -32 59 -49 -20 51 64 -33 -36 -26 65 67 73 -5 -3 -61 70 -38 80 -34 -29 -16 -57 -11 -23 -24 -8 -37 74 -43 -76 78 -78 -63 -80 -64 -44 -27 -84 -60 -22 -19 88 -21 -71 -91 -31 -4 -35 -7
right_child=2 3 18 8 11 6 12 -9 33 14 19 36 13 41 27 -17 37 86 49 20 21 69 23 -25 54 42 -28 29 -30 32 31 45 50 93 53 72 62 -39 -40 -41 -42 57 81 44 -46 -47 -48 48 -50 -51 -52 -53 -54 -55 -56 56 -58 -59 84 60 -62 76 63 -65 -66 -67 -68 -69 -70 89 -72 -73 -74 -75 75 -77 77 -79 79 -81 -82 -83 83 -85 -86 -87 -88 -89 -90 90 -92 -93 -94 -95 -96
leaf_value=-0.036585040417881423 -0.026469158955020739 0.01192769231545157 -0.045926279792790237 0.17822830139034654 0.011188824264592875 0.36857195940389886 -0.27400726478373444 0.78612651789195798 0.11840544937673944 -0.44632012546867833 -0.076420368941100783 0.37792610114017394 0.49285730421773011 6.2473667502149023e-05 0.029851055757749677 0.054982322823364578 0.27184918651088003 0.034392772443574179 0.60322347807693977 0.017592899986922268 -0.054329902354302705 -0.064034461898227729 -0.18011888396746412 0.091126116844536989 0.45625302971041726 0.028672084810051141 0.1236565629915737 0.22414299646201485 0.70209033134063392 -0.43011646156466521 0.26353597707846449 -0.1210641422991407 -0.13150297614066092 0.042616288594623235 -0.10191824449021941 -0.17367187902595049 0.03961519644576568 0.076022457556542133 0.54484808495419779 -0.021578519668923733 -0.00070434596520831854 0.077954617681875366 0.074652369876661087 -0.55754598907429542 -0.10499179530775947 0.047684536127957242 0.080369308774119283 -0.54360904099202245 -0.20098770529515789 0.22489506885902366 -0.16003101325494415 0.026432015728186636 0.13550215661166662 0.036243567014379856 0.023495143056883439 -0.020178894894521394 0.026276727317016493 -0.049758108203648801 0.039072725814122418 0.32652499649145705 -0.19996894824033143 -0.11349526512088255 0.50228431162360687 0.10864328480852878 -0.021877867035862496 0.0053335479907298264 0.41282598155591821 -0.13137867344222967 0.065864892146046003 0.082025451492278606 -0.29798313096523488 -0.048153938462449183 -0.29968243484279189 -0.14147607043741528 0.37726588741174666 0.13339047829016393 0.032811090826551072 -0.13786063586866346 -0.52220117361331142 -0.20010528248702364 -0.037511317016004207 0.42496092978836897 -0.48750772665792969 -0.074774612547400934 0.49153420576377754 -0.20774572043367479 0.34200333294202417 0.20302697228939875 -0.10527995474688789 0.3869132571484607 0.064353591512221642 0.040341142081197795 0.12272298719644933 -0.23468442301534087 0.10972611464401789
leaf_weight=2590 206 1224 1475 2648 4078 652 1056 1304 8810 1011 920 1262 711 12305 7065 791 956 860 233 4403 1476 518 6058 1128 540 2049 1087 724 379 458 1685 2511 3753 520 6037 5142 1143 346 1479 7160 917 9100 566 276 1467 9244 2228 392 1734 3348 1908 7426 579 2190 229 3701 3460 1615 128 125 2308 3367 539 853 5414 2177 179 4801 107 1033 2330 785 1977 393 614 1343 1468 3128 440 2297 89 264 197 1666 551 2303 296 386 3156 648 294 116 1379 528 563
leaf_count=2590 206 1224 1475 2648 4078 652 1056 1304 8810 1011 920 1262 711 12305 7065 791 956 860 233 4403 1476 518 6058 1128 540 2049 1087 724 379 458 1685 2511 3753 520 6037 5142 1143 346 1479 7160 917 9100 566 276 1467 9244 2228 392 1734 3348 1908 7426 579 2190 229 3701 3460 1615 128 125 2308 3367 539 853 5414 2177 179 4801 107 1033 2330 785 1977 393 614 1343 1468 3128 440 2297 89 264 197 1666 551 2303 296 386 3156 648 294 116 1379 528 563
internal_value=8.95686e-05 -0.0105595 0.25393 0.0904796 0.00620942 -0.030933 -0.0197492 0.675381 0.164857 -0.035259 -0.0694163 0.116736 0.039435 0.0541717 -0.00609669 -0.210017 0.262183 -0.120641 0.154855 -0.0851638 -0.0926884 -0.0291468 -0.121226 -0.155304 0.107781 0.0495976 0.270038 0.000644414 0.0725476 -0.01028 0.0128175 0.0516458 -0.0479478 0.0954616 -0.118035 -0.162833 0.227436 0.393032 0.437978 -0.0652316 0.176297 0.0388529 -0.00157873 -0.0500964 -0.17721 0.0174598 0.159338 -0.167491 -0.264613 0.249834 -0.0389994 -0.0250646 -0.0729325 -0.0651402 0.327778 -0.0296276 -0.0513845 0.0753813 0.225053 -0.110915 -0.172673 -0.169875 0.154825 0.243569 -0.0667776 0.0600584 0.0394257 -0.0829885 -0.397271 0.129115 -0.212922 -0.17786 -0.20874 0.0930375 0.101397 0.210212 -0.136095 -0.0833561 -0.175765 -0.252229 0.425908 0.18683 -0.0416279 -0.118894 0.406605 -0.147885 0.113613 -0.0221723 -0.0337227 0.179787 0.286591 -0.335231 0.0355908 -0.0972734 0.249007
internal_weight=197375 189430 7945 31786 14903 157644 139708 1510 16883 110699 50982 7964 29009 27168 59717 1909 7025 6939 6435 45025 43336 13432 29904 20216 1689 5957 1798 57808 7623 50185 31110 16247 19075 9858 17936 9709 3886 2781 2435 10939 4244 25370 4742 9688 1743 12334 3913 5783 2126 3581 18501 16593 3090 8227 769 14863 11962 13065 3327 3657 2433 19088 2624 1481 9167 2901 7244 8502 1118 2493 8388 1841 7119 11450 11057 1957 10700 4596 6104 2737 628 830 3912 1863 679 3779 1156 7945 7559 1975 942 574 2854 1048 1215
internal_count=197375 189430 7945 31786 14903 157644 139708 1510 16883 110699 50982 7964 29009 27168 59717 1909 7025 6939 6435 45025 43336 13432 29904 20216 1689 5957 1798 57808 7623 50185 31110 16247 19075 9858 17936 9709 3886 2781 2435 10939 4244 25370 4742 9688 1743 12334 3913 5783 2126 3581 18501 16593 3090 8227 769 14863 11962 13065 3327 3657 2433 19088 2624 1481 9167 2901 7244 8502 1118 2493 8388 1841 7119 11450 11057 1957 10700 4596 6104 2737 628 830 3912 1863 679 3779 1156 7945 7559 1975 942 574 2854 1048 1215
is_linear=0
shrinkage=0.03


Tree=4
num_leaves=96
num_cat=0
split_feature=16 11 0 8 0 0 7 1 26 5 8 10 1 10 12 26 0 0 9 25 0 5 41 14 15 24 6 12 14 4 19 9 0 4 12 11 28 7 12 24 5 4 14 30 1 10 4 4 0 40 14 38 4 22 31 9 14 25 10 1 30 26 10 36 4 24 15 15 4 17 31 0 40 24 24 5 16 28 26 26 15 12 0 0 15 19 14 15 12 14 40 6 12 22 24
split_gain=476992 297364 316868 295004 293418 244377 220018 212139 200612 199015 189000 184515 179715 177814 195622 121219 120434 110379 99628.8 85682.1 84911.4 77553.8 72612.6 71745.7 69381.7 65519.3 63354.4 58412.3 58071.5 55289.4 53855.7 52787.9 52665.3 49487.6 47947.5 47844.5 47611.7 55828.8 45528.9 45413 45351.3 44527.6 44080.1 42641.1 41419.3 41288.4 41104.3 40953.5 40363.8 39808.4 39404.9 51395.4 38669.8 38541.5 36690.9 36559.6 36173.3 34924.4 34391.1 34124.6 33638.3 32895.4 32703.6 32145 31670.6 31283.8 30948.2 30785.5 30773.4 30699.1 30218.9 29851.6 29018.9 28948.9 28769.7 28606.1 29462.8 44812.8 28331.4 28141.7 27099.7 27014.5 26881.8 26751.8 40437.1 26014.3 25632 38324.4 25575 24739.5 24684.7 24683.9 23905.9 23529.6 23457.7
threshold=1.6766563057899477 -0.2835282683372497 -2.6635500205429702e-07 0.50632786750793468 3.8164098441484393e-06 4.4048149447917248e-06 -0.028992462903261181 -0.98486733436584462 0.66545653343200695 -0.5646165907382964 0.53428280353546154 0.36634385585784918 -1.0573674440383909 -0.83118304610252369 0.16220118850469592 0.23037036508321765 1.5850924683036286e-05 8.2373799159540812e-06 -1.2987216114997862 -0.26588059961795801 -1.7725050156514042e-06 -0.91642498970031727 1.2392840981483462 -0.92803075909614552 -1.0893227458000181 -0.45673316717147822 0.37519018352031713 0.61658948659896862 0.46393798291683203 -0.22791288793087003 -0.68278348445892323 -1.2032743096351621 6.6775351115211387e-06 1.2168135046958926 1.0923858880996706 0.92117691040039074 -0.26187397539615626 0.39446455240249639 0.40439027547836309 -1.0214984416961668 -0.11086321994662283 0.73244181275367748 -0.54095897078514088 0.20950987935066226 0.78205415606498729 -0.59032168984413136 -0.90446001291275013 -0.13126342743635175 1.6585330740781504e-05 -0.42512381076812739 -1.0770220160484312 -0.90719205141067494 0.45106957852840429 -0.80759191513061512 -0.32289102673530573 -1.1893184185028074 2.2306560277938847 -0.46331770718097681 1.3140924572944643 -0.50912341475486744 -0.65028822422027577 -0.39595049619674677 0.4363295733928681 0.78661969304084789 -0.60524639487266529 0.22106374055147174 -0.9965963065624236 0.73465302586555492 1.0977474451065066 -0.62765899300575245 -0.5700644552707671 6.0310497929094719e-07 -0.37754583358764643 0.061469821259379394 -0.2093619033694267 -0.21680594980716703 0.26253296434879309 0.1422889977693558 -0.60118567943572987 1.3623942136764529 -0.049269597977399819 0.26983067393302923 1.6753119780332785e-05 -1.7725050156514042e-06 -0.85342207551002491 -0.69851920008659352 0.27199803292751318 -0.46803854405879969 1.7857533097267153 -0.78645062446594227 -1.4113355875015257 0.79481786489486705 -0.42640399932861323 -0.3690562099218368 -0.085964918136596666
decision_type=2 2 2 2 2 2 2 2 2 2 2 2 2 2 2 2 2 2 2 2 2 2 2 2 2 2 2 2 2 2 2 2 2 2 2 2 2 2 2 2 2 2 2 2 2 2 2 2 2 2 2 2 2 2 2 2 2 2 2 2 2 2 2 2 2 2 2 2 2 2 2 2 2 2 2 2 2 2 2 2 2 2 2 2 2 2 2 2 2 2 2 2 2 2 2
left_child=1 5 9 15 44 12 18 11 10 38 34 -6 60 14 20 25 47 33 39 55 24 23 -18 32 -14 31 27 30 62 69 65 93 -20 -10 -2 71 42 40 80 -7 64 -28 74 78 91 -29 48 58 92 -49 51 -21 -36 -32 -46 -8 57 -48 -9 -60 70 -22 81 -57 -38 83 -16 -67 -47 85 -1 -33 -42 -26 -17 76 86 -78 -11 88 -3 -12 -77 84 -15 89 87 -31 -35 -27 -44 -5 -23 -4 -52
right_child=8 2 3 4 7 6 19 16 17 43 28 -13 13 26 66 36 22 -19 21 50 61 46 -24 -25 73 29 41 45 -30 75 53 35 -34 79 52 -37 37 -39 -40 -41 72 -43 90 -45 54 68 56 49 -50 -51 94 -53 -54 -55 -56 63 -58 -59 59 -61 -62 -63 -64 -65 -66 67 -68 -69 -70 -71 -72 -73 -74 -75 -76 82 77 -79 -80 -81 -82 -83 -84 -85 -86 -87 -88 -89 -90 -91 -92 -93 -94 -95 -96
leaf_value=-0.0041309015907206904 0.10625709582091392 0.44502298090765824 -0.14625925828906899 -0.08012316992608301 0.074363743570548563 -0.41566257610242097 -0.21120960402488706 -0.035291226361469745 -0.11059818703668435 0.0077085148388543901 0.093050719729419487 0.77195488046871941 0.18453041787290325 0.059352523977242742 -0.60634064533103216 -0.20327595566451198 0.17064893617939489 0.20151463477659382 0.38158065775606514 0.53537902337886534 -0.1718149870234878 -0.074081327244905307 0.49220904192620518 -0.025554943364928782 -0.48492350127656747 -0.029409851496502413 -0.038259272099040786 -0.44001864959519721 0.15551958009453973 0.11173294330724375 0.09121712403032714 -0.21047467627792135 -0.12317036239043265 0.11363752158265561 0.03313553758494725 -0.20523798905375959 -0.046346728839303575 0.15077101711089577 0.083574444923442501 -0.14389536926653165 -0.13699078746090146 0.18579056906624844 0.28779530564034655 -0.0094338601358773672 0.30365355520616716 -0.20763732839364279 -0.066459968705009226 -0.012756385001378446 0.079417071034914813 0.17746832353578362 0.0771440305125103 0.091813912984261947 0.45842128982396468 -0.069305259077435649 0.023580718407918581 0.048027343890358835 -0.20650621370760344 0.029824752186071161 0.70640386277284373 -0.049441431922109626 -0.065053771869501467 -0.024300195463996074 0.67383312028526277 -0.14125148334065324 0.17120540620739036 -0.3313852378120109 -0.35903189332476182 -0.01034332799925974 0.091904209101625861 -0.044478699048869606 0.14589634608804872 -0.042506035228891043 0.029606950302938834 0.033370344798977131 -0.0025975767589610683 -0.05253601149296102 0.065574992469148344 0.41549266651832367 0.18647777911961419 0.025195388964578194 0.18903551895525389 0.50631329176375439 0.14756613472048358 -0.094842082062677358 -0.36872325898883124 -0.087841106690209156 0.11727737258239279 -0.097813593227331436 0.56913629463434301 -0.32244576226102206 0.01067448654765695 0.094644230803284643 -0.19958283804903112 -0.35368395707908923 0.17292870326427545
leaf_weight=2109 3128 2574 956 6580 526 860 663 2459 2691 1045 175 972 178 266 1167 1616 1285 3239 971 481 3746 2292 1248 1506 1231 345 3339 630 379 1194 1530 1057 229 298 262 2506 862 4674 449 1556 1866 1047 308 2570 509 2661 6665 1251 792 4741 5705 460 726 11109 2392 5843 975 6897 115 99 1959 2137 1089 935 1991 1299 767 339 348 8583 2827 9470 1895 105 1067 5994 1127 464 3374 1811 440 786 670 5970 776 2478 1660 2287 176 1047 4333 816 3392 1023 3862
leaf_count=2109 3128 2574 956 6580 526 860 663 2459 2691 1045 175 972 178 266 1167 1616 1285 3239 971 481 3746 2292 1248 1506 1231 345 3339 630 379 1194 1530 1057 229 298 262 2506 862 4674 449 1556 1866 1047 308 2570 509 2661 6665 1251 792 4741 5705 460 726 11109 2392 5843 975 6897 115 99 1959 2137 1089 935 1991 1299 767 339 348 8583 2827 9470 1895 105 1067 5994 1127 464 3374 1811 440 786 670 5970 776 2478 1660 2287 176 1047 4333 816 3392 1023 3862
internal_value=-8.3261e-06 -0.013273 0.0243319 0.00460708 0.095858 -0.0522596 -0.00190942 0.19236 0.16402 0.179929 0.287905 0.527432 -0.100998 -0.12617 -0.24022 -0.0306737 0.14745 0.0652726 -0.0574494 0.0789581 -0.169897 -0.0387448 0.329344 0.112367 -0.370135 -0.0595789 -0.0898525 -0.108351 0.497676 -0.0306248 -0.0893487 -0.109424 0.285213 -0.023456 0.16393 -0.0874758 0.0327846 0.0714296 0.365837 -0.240897 0.0153317 0.0152849 -0.0267795 0.0877351 -0.0231413 -0.219408 -0.0582134 0.094214 -0.121067 0.137763 0.134107 0.319201 0.345938 -0.049862 0.0728967 0.00106312 -0.0302004 -0.0174969 -0.00343777 0.359517 0.0400826 -0.118257 0.56072 0.0218831 0.105488 -0.14702 -0.508733 -0.265036 -0.172956 -0.0761258 0.0818186 -0.0594083 -0.0530785 -0.4442 -0.12353 0.0116782 0.0552875 0.168019 0.144225 0.0791765 0.407803 0.431407 -0.0323795 -0.119384 -0.25954 -0.146254 0.0203485 -0.0259152 0.284449 -0.249965 0.0291817 -0.0608207 -0.14902 -0.253732 0.115838
internal_weight=197302 182542 92918 82466 22993 89624 44084 12696 14760 10452 6545 1498 45540 38645 9331 59473 11198 8215 26135 17949 7397 23719 2533 2706 1514 40861 29314 24928 2429 25849 21289 15012 1200 4976 4116 13033 18612 11288 3463 2416 6614 4386 7324 6989 10297 3639 21013 8665 6476 5992 10508 941 988 12639 2901 7441 14537 13562 2673 214 6895 5883 2050 6778 2853 8650 1934 1638 3009 12453 4936 10527 3761 1336 2683 13396 6732 1591 4419 2285 3014 961 6664 7012 1042 3870 5141 3481 474 1392 4641 7396 5684 1979 9567
internal_count=197302 182542 92918 82466 22993 89624 44084 12696 14760 10452 6545 1498 45540 38645 9331 59473 11198 8215 26135 17949 7397 23719 2533 2706 1514 40861 29314 24928 2429 25849 21289 15012 1200 4976 4116 13033 18612 11288 3463 2416 6614 4386 7324 6989 10297 3639 21013 8665 6476 5992 10508 941 988 12639 2901 7441 14537 13562 2673 214 6895 5883 2050 6778 2853 8650 1934 1638 3009 12453 4936 10527 3761 1336 2683 13396 6732 1591 4419 2285 3014 961 6664 7012 1042 3870 5141 3481 474 1392 4641 7396 5684 1979 9567
is_linear=0
shrinkage=0.03


end of trees

feature_importances:
GSR_mean=47
EEG_AF7_Gamma=33
EEG_TP9_Gamma=25
EEG_FC6_Gamma=24
EEG_Fp2_Gamma=23
EEG_FT10_Gamma=21
EEG_FT8_Gamma=20
EEG_AFz_Gamma=18
EEG_F5_Gamma=16
EEG_F1_Gamma=15
EEG_TP10_Beta=14
EEG_FC5_Gamma=14
EEG_F7_Gamma=14
EEG_FT9_Gamma=13
EEG_T8_Gamma=13
EEG_FT9_Beta=12
EEG_O2_Gamma=11
EEG_C5_Beta=10
EEG_FC3_Gamma=9
EEG_TP8_Gamma=9
EEG_CP5_Gamma=9
EEG_FT7_Gamma=9
EEG_POz_Beta=8
EEG_Cz_Beta=8
EEG_T7_Beta=7
EEG_F8_Gamma=7
EEG_FCz_Gamma=7
EEG_O1_Gamma=6
EEG_CP4_Gamma=6
EEG_T7_Gamma=6
EEG_FC4_Beta=6
EEG_AF8_Beta=6
EEG_TP9_Beta=5
EEG_FT10_Beta=4
EEG_T7_Alpha=4
EEG_PO8_Gamma=4
EEG_Fp1_Beta=3
EEG_FC4_Gamma=2
EEG_AF4_Beta=2
EEG_T8_Beta=2
EEG_P8_Gamma=2
EEG_P2_Gamma=1

parameters:
[boosting: gbdt]
[objective: regression]
[metric: rmse]
[tree_learner: serial]
[device_type: cpu]
[data_sample_strategy: bagging]
[data: ]
[valid: ]
[num_iterations: 2000]
[learning_rate: 0.03]
[num_leaves: 96]
[num_threads: 0]
[seed: 0]
[deterministic: 0]
[force_col_wise: 0]
[force_row_wise: 0]
[histogram_pool_size: -1]
[max_depth: -1]
[min_data_in_leaf: 80]
[min_sum_hessian_in_leaf: 0.001]
[bagging_fraction: 0.8]
[pos_bagging_fraction: 1]
[neg_bagging_fraction: 1]
[bagging_freq: 4]
[bagging_seed: 3]
[bagging_by_query: 0]
[feature_fraction: 0.7]
[feature_fraction_bynode: 1]
[feature_fraction_seed: 2]
[extra_trees: 0]
[extra_seed: 6]
[early_stopping_round: 0]
[early_stopping_min_delta: 0]
[first_metric_only: 0]
[max_delta_step: 0]
[lambda_l1: 0]
[lambda_l2: 2]
[linear_lambda: 0]
[min_gain_to_split: 0]
[drop_rate: 0.1]
[max_drop: 50]
[skip_drop: 0.5]
[xgboost_dart_mode: 0]
[uniform_drop: 0]
[drop_seed: 4]
[top_rate: 0.2]
[other_rate: 0.1]
[min_data_per_group: 100]
[max_cat_threshold: 32]
[cat_l2: 10]
[cat_smooth: 10]
[max_cat_to_onehot: 4]
[top_k: 20]
[monotone_constraints: ]
[monotone_constraints_method: basic]
[monotone_penalty: 0]
[feature_contri: ]
[forcedsplits_filename: ]
[refit_decay_rate: 0.9]
[cegb_tradeoff: 1]
[cegb_penalty_split: 0]
[cegb_penalty_feature_lazy: ]
[cegb_penalty_feature_coupled: ]
[path_smooth: 0]
[interaction_constraints: ]
[verbosity: -1]
[saved_feature_importance_type: 0]
[use_quantized_grad: 0]
[num_grad_quant_bins: 4]
[quant_train_renew_leaf: 0]
[stochastic_rounding: 1]
[linear_tree: 0]
[max_bin: 255]
[max_bin_by_feature: ]
[min_data_in_bin: 3]
[bin_construct_sample_cnt: 200000]
[data_random_seed: 1]
[is_enable_sparse: 1]
[enable_bundle: 1]
[use_missing: 1]
[zero_as_missing: 0]
[feature_pre_filter: 1]
[pre_partition: 0]
[two_round: 0]
[header: 0]
[label_column: ]
[weight_column: ]
[group_column: ]
[ignore_column: ]
[categorical_feature: ]
[forcedbins_filename: ]
[precise_float_parser: 0]
[parser_config_file: ]
[objective_seed: 5]
[num_class: 1]
[is_unbalance: 0]
[scale_pos_weight: 1]
[sigmoid: 1]
[boost_from_average: 1]
[reg_sqrt: 0]
[alpha: 0.9]
[fair_c: 1]
[poisson_max_delta_step: 0.7]
[tweedie_variance_power: 1.5]
[lambdarank_truncation_level: 30]
[lambdarank_norm: 1]
[label_gain: ]
[lambdarank_position_bias_regularization: 0]
[eval_at: ]
[multi_error_top_k: 1]
[auc_mu_weights: ]
[num_machines: 1]
[local_listen_port: 12400]
[time_out: 120]
[machine_list_filename: ]
[machines: ]
[gpu_platform_id: -1]
[gpu_device_id: -1]
[gpu_use_dp: 0]
[num_gpu: 1]

end of parameters

pandas_categorical:null
